{"parameters/mlp_extractor.value_net.2.bias":{"_type":"histogram","values":[3,2,2,0,1,3,1,0,3,7,3,3,1,2,1,0,1,1,0,0,0,0,0,0,0,0,0,0,0,0,0,0,0,0,0,0,0,0,0,0,1,0,1,2,1,3,0,1,4,2,2,3,3,1,2,0,1,1,0,0,0,0,0,2],"bins":[-0.09010366350412369,-0.08702749013900757,-0.08395131677389145,-0.08087514340877533,-0.07779896259307861,-0.0747227892279625,-0.07164661586284637,-0.06857044249773026,-0.06549426913261414,-0.06241808831691742,-0.0593419149518013,-0.05626574158668518,-0.05318956822156906,-0.05011339113116264,-0.047037217766046524,-0.043961040675640106,-0.04088486731052399,-0.03780869394540787,-0.03473251685500145,-0.03165634348988533,-0.028580166399478912,-0.025503993034362793,-0.022427819669246674,-0.019351646304130554,-0.016275472939014435,-0.013199292123317719,-0.010123118758201599,-0.00704694539308548,-0.00397077202796936,-0.000894598662853241,0.0021815821528434753,0.005257755517959595,0.008333921432495117,0.011410094797611237,0.014486268162727356,0.017562448978424072,0.02063862234354019,0.02371479570865631,0.02679096907377243,0.02986714243888855,0.032943323254585266,0.036019496619701385,0.039095669984817505,0.042171843349933624,0.045248016715049744,0.04832419380545616,0.05140036717057228,0.0544765442609787,0.05755271762609482,0.06062889099121094,0.06370507180690765,0.06678123772144318,0.06985741853713989,0.07293359190225601,0.07600976526737213,0.07908593863248825,0.08216211199760437,0.08523829281330109,0.0883144661784172,0.09139063954353333,0.09446681290864944,0.09754298627376556,0.10061916708946228,0.1036953404545784,0.10677151381969452]},"gradients/mlp_extractor.value_net.2.bias":{"_type":"histogram","values":[1,0,0,0,0,0,0,0,0,0,0,1,1,1,0,1,0,1,1,2,2,0,0,1,2,3,2,1,2,1,2,1,3,1,0,0,1,0,3,5,2,4,0,1,1,1,1,2,0,2,2,2,1,1,0,0,1,0,0,1,2,0,0,1],"bins":[-1.2478642463684082,-1.2118679285049438,-1.1758716106414795,-1.1398751735687256,-1.1038788557052612,-1.0678825378417969,-1.0318862199783325,-0.9958898425102234,-0.9598934650421143,-0.9238971471786499,-0.8879008293151855,-0.8519044518470764,-0.8159081339836121,-0.7799117565155029,-0.7439154386520386,-0.7079190611839294,-0.6719227433204651,-0.6359264254570007,-0.5999300479888916,-0.5639337301254272,-0.5279373526573181,-0.49194103479385376,-0.45594465732574463,-0.4199483394622803,-0.3839520215988159,-0.3479556441307068,-0.31195932626724243,-0.2759629487991333,-0.23996663093566895,-0.2039703130722046,-0.16797387599945068,-0.13197755813598633,-0.09598124027252197,-0.05998492240905762,-0.02398860454559326,0.012007832527160645,0.048004150390625,0.08400046825408936,0.11999684572219849,0.15599316358566284,0.19198954105377197,0.22798585891723633,0.2639821767807007,0.2999785542488098,0.33597487211227417,0.3719712495803833,0.40796756744384766,0.4439639449119568,0.47996026277542114,0.5159565806388855,0.5519529581069946,0.587949275970459,0.6239456534385681,0.6599419713020325,0.6959383487701416,0.731934666633606,0.7679309844970703,0.8039273619651794,0.8399237394332886,0.8759200572967529,0.9119163751602173,0.9479127526283264,0.9839090704917908,1.0199054479599,1.0559017658233643]},"parameters/value_net.weight":{"_type":"histogram","values":[3,2,0,4,2,4,4,2,1,4,6,1,1,0,0,0,0,0,0,0,0,0,0,0,0,0,0,0,0,0,0,0,0,0,0,0,0,0,0,0,0,0,0,0,0,0,0,0,0,2,3,2,4,5,2,2,2,2,3,1,0,0,0,2],"bins":[-0.6356513500213623,-0.6152312755584717,-0.594811201095581,-0.5743911266326904,-0.5539710521697998,-0.5335509777069092,-0.5131309032440186,-0.4927108883857727,-0.4722908139228821,-0.45187073945999146,-0.43145066499710083,-0.4110305905342102,-0.3906105160713196,-0.37019044160842896,-0.3497703969478607,-0.3293503224849701,-0.30893024802207947,-0.28851017355918884,-0.2680900990962982,-0.24767005443572998,-0.22724997997283936,-0.20682990550994873,-0.1864098310470581,-0.16598975658416748,-0.14556968212127686,-0.12514960765838623,-0.1047295331954956,-0.08430951833724976,-0.06388944387435913,-0.043469369411468506,-0.02304929494857788,-0.002629220485687256,0.01779085397720337,0.038210928440093994,0.05863100290298462,0.07905107736587524,0.09947115182876587,0.1198912262916565,0.14031124114990234,0.16073131561279297,0.1811513900756836,0.20157146453857422,0.22199153900146484,0.24241161346435547,0.2628316879272461,0.2832517623901367,0.30367180705070496,0.3240918815135956,0.3445119559764862,0.36493203043937683,0.38535210490226746,0.4057721495628357,0.4261922240257263,0.44661229848861694,0.46703237295150757,0.4874524474143982,0.5078725218772888,0.5282925963401794,0.5487126111984253,0.5691326856613159,0.5895527601242065,0.6099728345870972,0.6303929090499878,0.6508129835128784,0.671233057975769]},"wind_capacity":2541.6881130022007,"hydro_capacity":2564.8863666906523,"gradients/mlp_extractor.policy_net.2.weight":{"_type":"histogram","values":[2,0,0,0,1,1,1,5,9,6,6,9,14,13,24,13,20,31,32,33,47,54,55,75,73,80,92,125,131,150,197,294,340,393,309,257,178,141,114,106,94,69,74,65,55,47,40,39,27,28,22,23,21,13,13,10,5,4,5,3,2,3,1,2],"bins":[-0.002978615229949355,-0.0028892699629068375,-0.002799924463033676,-0.0027105791959911585,-0.002621233928948641,-0.0025318884290754795,-0.002442543162032962,-0.002353197894990444,-0.002263852395117283,-0.0021745068952441216,-0.002085161628201604,-0.0019958163611590862,-0.0019064709777012467,-0.0018171255942434072,-0.0017277803272008896,-0.00163843494374305,-0.0015490895602852106,-0.0014597441768273711,-0.0013703987933695316,-0.001281053526327014,-0.0011917081428691745,-0.001102362759411335,-0.0010130174923688173,-0.000923671992495656,-0.0008343267254531384,-0.0007449814584106207,-0.0006556359585374594,-0.0005662906914949417,-0.00047694542445242405,-0.00038759992457926273,-0.00029825465753674507,-0.00020890915766358376,-0.0001195638906210661,-3.021862357854843e-05,5.9126876294612885e-05,0.00014847214333713055,0.00023781764321029186,0.0003271629102528095,0.0004165081772953272,0.0005058536771684885,0.0005951989442110062,0.0006845442112535238,0.0007738897111266851,0.0008632349781692028,0.0009525803616270423,0.0010419257450848818,0.0011312710121273994,0.001220616395585239,0.0013099617790430784,0.001399307162500918,0.0014886525459587574,0.001577997813001275,0.0016673431964591146,0.001756688579916954,0.0018460338469594717,0.0019353792304173112,0.0020247246138751507,0.002114070113748312,0.0022034153807908297,0.0022927606478333473,0.0023821061477065086,0.0024714514147490263,0.002560796681791544,0.0026501421816647053,0.002739487448707223]},"net_profit":7.925951613886863e+06,"step":10239,"gradients/action_net.weight":{"bins":[-0.21221832931041718,-0.20606282353401184,-0.1999073177576065,-0.19375181198120117,-0.18759630620479584,-0.1814408004283905,-0.17528527975082397,-0.16912978887557983,-0.1629742681980133,-0.15681877732276917,-0.15066325664520264,-0.1445077657699585,-0.13835224509239197,-0.13219673931598663,-0.1260412335395813,-0.11988572776317596,-0.11373022198677063,-0.1075747162103653,-0.10141921043395996,-0.09526370465755463,-0.08910819888114929,-0.08295269310474396,-0.07679718732833862,-0.07064168155193329,-0.06448616087436676,-0.058330655097961426,-0.05217514932155609,-0.04601964354515076,-0.03986413776874542,-0.03370863199234009,-0.027553126215934753,-0.02139762043952942,-0.015242114663124084,-0.00908660888671875,-0.0029311031103134155,0.003224402666091919,0.009379908442497253,0.015535414218902588,0.021690919995307922,0.027846425771713257,0.03400193154811859,0.04015745222568512,0.046312958002090454,0.05246846377849579,0.05862396955490112,0.06477947533130646,0.07093498110771179,0.07709048688411713,0.08324599266052246,0.0894014984369278,0.09555700421333313,0.10171250998973846,0.1078680157661438,0.11402352899312973,0.12017903476953506,0.126334547996521,0.13249003887176514,0.13864555954933167,0.1448010504245758,0.15095657110214233,0.15711207687854767,0.163267582654953,0.16942308843135834,0.17557859420776367,0.181734099984169],"_type":"histogram","values":[2,0,0,0,0,1,0,2,1,1,0,0,2,1,0,3,0,0,0,1,1,3,0,1,4,3,8,6,6,9,10,17,14,30,48,34,24,16,16,10,8,4,4,5,0,2,3,1,2,1,2,1,1,0,1,2,4,0,1,0,1,0,0,3]},"cumulative_reward":837675.2077971146,"gradients/value_net.bias":{"bins":[-1337.3848876953125,-1337.3848876953125],"_type":"histogram","values":[1]},"reward":79.25951328344776,"_runtime":1052.1056361,"parameters/mlp_extractor.value_net.0.weight":{"bins":[-0.6187106966972351,-0.5992485284805298,-0.5797863602638245,-0.5603241920471191,-0.5408620834350586,-0.5213999152183533,-0.501937747001648,-0.4824755787849426,-0.4630134105682373,-0.44355127215385437,-0.42408910393714905,-0.4046269655227661,-0.3851647973060608,-0.36570262908935547,-0.34624046087265015,-0.3267783224582672,-0.3073161542415619,-0.28785398602485657,-0.26839184761047363,-0.2489296793937683,-0.229467511177063,-0.21000537276268005,-0.19054320454597473,-0.1710810363292694,-0.15161889791488647,-0.13215672969818115,-0.11269456148147583,-0.09323239326477051,-0.07377022504806519,-0.05430811643600464,-0.034845948219299316,-0.015383780002593994,0.004078388214111328,0.02354055643081665,0.04300272464752197,0.062464892864227295,0.08192700147628784,0.10138916969299316,0.12085133790969849,0.1403135061264038,0.15977567434310913,0.17923781275749207,0.1986999809741974,0.2181621491909027,0.23762428760528564,0.25708645582199097,0.2765486240386963,0.2960107624530792,0.31547293066978455,0.33493509888648987,0.3543972373008728,0.3738594055175781,0.39332157373428345,0.41278374195098877,0.4322458803653717,0.451708048582077,0.47117018699645996,0.4906323552131653,0.5100945234298706,0.5295566916465759,0.5490188598632812,0.5684809684753418,0.5879431366920471,0.6074053049087524,0.6268674731254578],"_type":"histogram","values":[1,0,1,4,0,0,1,3,3,4,1,8,1,5,6,11,15,13,15,10,16,22,13,22,30,31,26,33,33,29,26,37,36,27,36,32,28,27,28,23,25,24,18,16,18,9,15,5,13,5,6,9,3,3,1,1,1,0,0,1,0,0,1,1]},"parameters/mlp_extractor.policy_net.0.bias":{"_type":"histogram","values":[1,0,0,0,0,0,0,0,1,0,0,2,0,2,0,1,1,2,1,1,0,2,1,3,3,1,1,0,0,1,0,3,4,2,1,1,3,1,1,2,2,1,1,2,1,3,2,1,0,0,2,0,1,1,2,0,1,0,0,1,0,0,0,1],"bins":[-0.00022297154646366835,-0.00021664473752025515,-0.00021031791402492672,-0.00020399110508151352,-0.0001976642815861851,-0.0001913374726427719,-0.0001850106636993587,-0.00017868384020403028,-0.00017235701670870185,-0.00016603020776528865,-0.00015970339882187545,-0.00015337657532654703,-0.00014704976638313383,-0.00014072295743972063,-0.0001343961339443922,-0.00012806931044906378,-0.00012174250150565058,-0.00011541568528627977,-0.00010908886906690896,-0.00010276205284753814,-9.643523662816733e-05,-9.010842768475413e-05,-8.378160418942571e-05,-7.745479524601251e-05,-7.112798630259931e-05,-6.480116280727088e-05,-5.8474353863857687e-05,-5.214753036852926e-05,-4.582072142511606e-05,-3.9493897929787636e-05,-3.316708898637444e-05,-2.684026549104601e-05,-2.0513471099548042e-05,-1.4186662156134844e-05,-7.859838660806417e-06,-1.5330297173932195e-06,4.793793777935207e-06,1.1120602721348405e-05,1.744742621667683e-05,2.377423516009003e-05,3.0101058655418456e-05,3.6427867598831654e-05,4.275467654224485e-05,4.908150003757328e-05,5.5408308980986476e-05,6.173512520035729e-05,6.80619414197281e-05,7.438875763909891e-05,8.071557385846972e-05,8.704239007784054e-05,9.336920629721135e-05,9.969602251658216e-05,0.00010602283873595297,0.00011234964767936617,0.00011867646389873698,0.0001250032801181078,0.00013133010361343622,0.00013765691255684942,0.00014398372150026262,0.00015031054499559104,0.00015663735393900424,0.00016296417743433267,0.00016929098637774587,0.0001756178098730743,0.0001819446188164875]},"revenue":7.926108771957068e+06,"parameters/mlp_extractor.policy_net.2.weight":{"values":[2,0,1,2,4,2,2,4,7,6,6,11,27,30,29,26,44,57,64,67,89,107,110,131,139,151,168,168,173,181,180,191,170,181,177,149,146,142,133,110,108,108,96,78,78,58,30,34,30,24,25,9,9,9,2,4,1,3,0,1,0,1,0,1],"bins":[-0.6334272623062134,-0.6133754253387451,-0.5933235883712769,-0.5732717514038086,-0.5532199144363403,-0.5331680774688721,-0.5131162405014038,-0.49306440353393555,-0.4730125665664673,-0.452960729598999,-0.43290889263153076,-0.4128570556640625,-0.3928052484989166,-0.37275341153144836,-0.3527015745639801,-0.33264973759651184,-0.3125979006290436,-0.2925460636615753,-0.27249422669410706,-0.2524423897266388,-0.23239055275917053,-0.21233871579170227,-0.192286878824234,-0.17223504185676575,-0.15218323469161987,-0.1321313977241516,-0.11207956075668335,-0.09202772378921509,-0.07197588682174683,-0.051924049854278564,-0.0318722128868103,-0.011820375919342041,0.00823146104812622,0.028283298015594482,0.048335134983062744,0.068386971950531,0.08843880891799927,0.10849064588546753,0.1285424828529358,0.14859431982040405,0.16864615678787231,0.1886979639530182,0.20874980092048645,0.2288016378879547,0.24885347485542297,0.26890531182289124,0.2889571487903595,0.30900898575782776,0.329060822725296,0.3491126596927643,0.36916449666023254,0.3892163336277008,0.40926817059516907,0.42931997776031494,0.4493718147277832,0.46942365169525146,0.4894754886627197,0.509527325630188,0.5295791625976562,0.5496309995651245,0.5696828365325928,0.589734673500061,0.6097865104675293,0.6298383474349976,0.6498901844024658],"_type":"histogram"},"parameters/mlp_extractor.value_net.0.bias":{"bins":[-0.12745362520217896,-0.1229911744594574,-0.11852872371673584,-0.11406627297401428,-0.10960381478071213,-0.10514136403799057,-0.10067891329526901,-0.09621646255254745,-0.0917540043592453,-0.08729155361652374,-0.08282910287380219,-0.07836665213108063,-0.07390420138835907,-0.06944175064563751,-0.06497929990291595,-0.0605168417096138,-0.05605439096689224,-0.051591940224170685,-0.04712948948144913,-0.04266703128814697,-0.038204580545425415,-0.03374212980270386,-0.0292796790599823,-0.024817228317260742,-0.020354777574539185,-0.01589231938123703,-0.011429868638515472,-0.006967417895793915,-0.002504967153072357,0.0019574910402297974,0.006419941782951355,0.010882392525672913,0.01534484326839447,0.019807294011116028,0.024269744753837585,0.028732195496559143,0.0331946536898613,0.037657104432582855,0.04211955517530441,0.04658200591802597,0.051044464111328125,0.05550691485404968,0.05996936559677124,0.0644318163394928,0.06889426708221436,0.07335671782493591,0.07781917601823807,0.08228162676095963,0.08674407750368118,0.09120652824640274,0.0956689864397049,0.10013143718242645,0.10459388792514801,0.10905633866786957,0.11351878941059113,0.11798124015331268,0.12244369089603424,0.1269061416387558,0.13136860728263855,0.1358310580253601,0.14029350876808167,0.14475595951080322,0.14921841025352478,0.15368086099624634,0.1581433117389679],"_type":"histogram","values":[1,0,0,3,1,3,3,1,2,5,1,3,1,1,0,1,0,0,0,0,1,0,1,0,0,1,0,0,0,0,1,0,1,0,1,0,0,0,0,1,1,1,0,3,0,4,2,3,2,1,1,2,3,0,2,1,1,1,1,0,0,0,1,1]},"parameters/mlp_extractor.policy_net.0.weight":{"_type":"histogram","values":[4,1,2,1,2,0,1,5,3,6,4,9,6,5,13,12,12,20,18,14,20,23,20,23,20,29,29,30,30,28,30,26,32,29,31,29,24,25,17,22,17,17,20,19,12,16,12,11,10,4,7,7,6,5,2,2,2,1,2,1,2,1,0,1],"bins":[-0.48829349875450134,-0.4724450707435608,-0.45659664273262024,-0.4407482147216797,-0.42489978671073914,-0.4090513586997986,-0.39320293068885803,-0.3773545026779175,-0.36150607466697693,-0.3456576466560364,-0.3298092186450958,-0.3139607906341553,-0.2981123626232147,-0.28226393461227417,-0.2664155066013336,-0.25056707859039307,-0.23471865057945251,-0.21887022256851196,-0.2030217945575714,-0.18717336654663086,-0.1713249385356903,-0.15547651052474976,-0.1396280825138092,-0.12377965450286865,-0.1079312264919281,-0.09208279848098755,-0.076234370470047,-0.060385942459106445,-0.044537514448165894,-0.028689086437225342,-0.01284065842628479,0.0030077695846557617,0.018856167793273926,0.03470459580421448,0.05055302381515503,0.06640145182609558,0.08224987983703613,0.09809830784797668,0.11394673585891724,0.1297951638698578,0.14564359188079834,0.1614920198917389,0.17734044790267944,0.19318887591362,0.20903730392456055,0.2248857319355011,0.24073415994644165,0.2565825879573822,0.27243101596832275,0.2882794439792633,0.30412787199020386,0.3199763000011444,0.33582472801208496,0.3516731560230255,0.36752158403396606,0.3833700120449066,0.39921844005584717,0.4150668680667877,0.43091529607772827,0.4467637240886688,0.4626121520996094,0.4784605801105499,0.4943090081214905,0.5101574659347534,0.5260058641433716]},"gradients/log_std":{"_type":"histogram","values":[1,0,0,0,0,0,0,0,0,0,0,0,0,0,0,0,0,0,0,0,0,0,0,0,0,0,0,0,0,0,0,0,0,0,0,0,0,1,0,0,0,1,0,0,0,1,0,0,0,0,0,0,0,0,0,0,0,0,0,0,0,0,0,1],"bins":[-0.3835647404193878,-0.37406155467033386,-0.3645583987236023,-0.35505521297454834,-0.3455520570278168,-0.3360488712787628,-0.32654571533203125,-0.3170425295829773,-0.3075393736362457,-0.2980361878871918,-0.2885330319404602,-0.27902984619140625,-0.2695266604423523,-0.2600235044956207,-0.25052034854888916,-0.2410171627998352,-0.23151399195194244,-0.22201082110404968,-0.21250765025615692,-0.20300447940826416,-0.1935013085603714,-0.18399813771247864,-0.17449496686458588,-0.16499179601669312,-0.15548861026763916,-0.1459854394197464,-0.13648226857185364,-0.12697911262512207,-0.11747592687606812,-0.10797277092933655,-0.09846958518028259,-0.08896642923355103,-0.07946322858333588,-0.06996004283428192,-0.060456886887550354,-0.0509537011384964,-0.04145054519176483,-0.031947359442710876,-0.02244420349597931,-0.012941032648086548,-0.0034378618001937866,0.0060653239488601685,0.01556849479675293,0.02507166564464569,0.03457483649253845,0.04407800734043121,0.053581178188323975,0.06308434903621674,0.0725875198841095,0.08209069073200226,0.09159386157989502,0.10109703242778778,0.11060020327568054,0.1201033815741539,0.12960654497146606,0.13910973072052002,0.1486128866672516,0.15811607241630554,0.1676192283630371,0.17712241411209106,0.18662558495998383,0.1961287558078766,0.20563192665576935,0.2151350975036621,0.22463826835155487]},"gradients/mlp_extractor.value_net.0.weight":{"bins":[-5.084897994995117,-4.93910551071167,-4.793313026428223,-4.647520542144775,-4.501728057861328,-4.355935573577881,-4.210143089294434,-4.064350128173828,-3.91855788230896,-3.7727653980255127,-3.6269729137420654,-3.481180191040039,-3.335387706756592,-3.1895952224731445,-3.0438027381896973,-2.89801025390625,-2.7522177696228027,-2.6064252853393555,-2.460632801055908,-2.314840316772461,-2.1690478324890137,-2.0232551097869873,-1.87746262550354,-1.7316701412200928,-1.5858776569366455,-1.4400851726531982,-1.294292688369751,-1.1485002040863037,-1.0027074813842773,-0.8569149971008301,-0.7111225128173828,-0.5653300285339355,-0.4195380210876465,-0.2737455368041992,-0.12795305252075195,0.017839431762695312,0.16363191604614258,0.30942463874816895,0.4552171230316162,0.6010096073150635,0.7468020915985107,0.892594575881958,1.0383870601654053,1.1841795444488525,1.329972267150879,1.4757647514343262,1.6215572357177734,1.7673497200012207,1.913142204284668,2.0589346885681152,2.2047271728515625,2.3505196571350098,2.496312141418457,2.6421046257019043,2.7878973484039307,2.933689832687378,3.079482316970825,3.2252748012542725,3.3710672855377197,3.516860008239746,3.6626524925231934,3.8084449768066406,3.954237461090088,4.100029945373535,4.245822429656982],"_type":"histogram","values":[2,0,2,0,0,0,0,0,2,0,1,4,0,2,7,0,3,1,3,7,9,5,7,3,11,9,16,6,11,17,16,25,24,35,377,43,28,25,15,18,15,9,9,5,8,3,7,4,2,5,3,3,7,4,2,0,0,2,0,0,2,4,2,2]},"battery_capacity":5448.462762523545,"battery_energy":5448.462762523545,"_step":10251,"gradients/mlp_extractor.policy_net.2.bias":{"values":[2,0,1,0,0,1,1,1,0,1,2,0,1,2,1,2,1,0,0,1,1,1,3,0,2,0,0,3,1,1,0,1,2,2,0,1,1,2,0,0,2,3,1,1,1,3,2,1,0,1,1,1,4,0,1,2,0,0,1,0,0,0,0,1],"bins":[-0.0031745624728500843,-0.0030662657227367163,-0.0029579689726233482,-0.00284967222250998,-0.002741375472396612,-0.002633078722283244,-0.002524781972169876,-0.002416485222056508,-0.00230818847194314,-0.002199891721829772,-0.002091594971716404,-0.001983298221603036,-0.001875001471489668,-0.0017667047213762999,-0.0016584079712629318,-0.0015501112211495638,-0.0014418144710361958,-0.0013335177209228277,-0.0012252209708094597,-0.0011169242206960917,-0.0010086274705827236,-0.0009003307204693556,-0.0007920339703559875,-0.0006837372202426195,-0.0005754404701292515,-0.00046714372001588345,-0.0003588469699025154,-0.0002505502197891474,-0.00014225346967577934,-3.395671956241131e-05,7.434003055095673e-05,0.00018263678066432476,0.00029093329794704914,0.0003992300480604172,0.0005075267981737852,0.0006158235482871532,0.0007241202984005213,0.0008324170485138893,0.0009407137986272573,0.0010490105487406254,0.0011573072988539934,0.0012656040489673615,0.0013739007990807295,0.0014821975491940975,0.0015904942993074656,0.0016987910494208336,0.0018070877995342016,0.0019153845496475697,0.0020236812997609377,0.0021319780498743057,0.0022402747999876738,0.002348571550101042,0.00245686830021441,0.002565165050327778,0.002673461800441146,0.002781758550554514,0.002890055300667882,0.00299835205078125,0.003106648800894618,0.003214945551007986,0.003323242301121354,0.003431539051234722,0.00353983580134809,0.003648132551461458,0.0037564293015748262],"_type":"histogram"},"risk_penalty":0.5710841748647222,"parameters/action_net.bias":{"_type":"histogram","values":[1,0,1,0,0,0,0,0,0,0,0,0,0,0,0,0,0,0,0,1,0,0,0,0,0,0,0,0,0,0,0,1,0,0,0,0,0,0,0,0,0,0,0,0,0,0,0,0,0,0,0,0,0,0,0,0,0,0,0,0,0,0,0,1],"bins":[-0.008635864593088627,-0.00828796997666359,-0.007940075360238552,-0.007592180278152227,-0.00724428566172719,-0.006896391045302153,-0.006548495963215828,-0.0062006013467907906,-0.005852706730365753,-0.005504812113940716,-0.005156917497515678,-0.004809022415429354,-0.004461127799004316,-0.004113233182579279,-0.0037653381004929543,-0.003417443484067917,-0.0030695488676428795,-0.002721654251217842,-0.0023737596347928047,-0.00202586455270648,-0.0016779699362814426,-0.0013300753198564053,-0.0009821802377700806,-0.0006342856213450432,-0.0002863910049200058,6.150361150503159e-05,0.00040939822793006897,0.0007572928443551064,0.0011051883921027184,0.0014530830085277557,0.0018009776249527931,0.0021488722413778305,0.002496766857802868,0.0028446614742279053,0.0031925560906529427,0.00354045070707798,0.0038883453235030174,0.004236240871250629,0.004584135487675667,0.004932030104100704,0.005279924720525742,0.005627819336950779,0.005975713953375816,0.006323609035462141,0.006671503651887178,0.007019398268312216,0.0073672933503985405,0.007715187966823578,0.008063082583248615,0.008410977199673653,0.00875887181609869,0.009106766432523727,0.00945466198027134,0.009802555665373802,0.010150451213121414,0.010498345829546452,0.010846240445971489,0.011194135062396526,0.011542029678821564,0.011889924295246601,0.012237818911671638,0.01258571445941925,0.012933609075844288,0.013281503692269325,0.013629398308694363]},"_timestamp":1.748549306646531e+09,"gradients/mlp_extractor.policy_net.0.weight":{"values":[4,2,2,4,0,0,0,4,2,3,2,4,3,4,6,5,1,3,7,6,11,5,6,16,18,11,28,25,41,393,43,28,30,17,9,11,11,8,5,6,5,8,3,4,2,1,4,2,3,2,1,1,1,1,0,0,2,4,0,0,2,0,0,2],"bins":[-0.0062646870501339436,-0.006053190678358078,-0.005841693840920925,-0.00563019746914506,-0.005418700631707907,-0.005207204259932041,-0.004995707422494888,-0.004784211050719023,-0.004572714678943157,-0.004361217841506004,-0.0041497210040688515,-0.003938224632292986,-0.0037267282605171204,-0.003515231655910611,-0.003303735051304102,-0.0030922384466975927,-0.0028807418420910835,-0.0026692452374845743,-0.002457748632878065,-0.0022462522611021996,-0.0020347554236650467,-0.0018232590518891811,-0.0016117622144520283,-0.0014002658426761627,-0.0011887694709002972,-0.0009772726334631443,-0.0007657762616872787,-0.0005542794242501259,-0.00034278305247426033,-0.00013128621503710747,8.021015673875809e-05,0.00029170699417591095,0.0005032029002904892,0.0007146992720663548,0.0009261961095035076,0.0011376924812793732,0.001349189318716526,0.0015606856904923916,0.0017721825279295444,0.00198367889970541,0.002195175737142563,0.0024066721089184284,0.002618168480694294,0.002829665318131447,0.0030411616899073124,0.0032526585273444653,0.003464154899120331,0.00367565150372684,0.0038871481083333492,0.004098644480109215,0.004310141317546368,0.0045216381549835205,0.004733134526759386,0.004944630898535252,0.0051561277359724045,0.00536762410774827,0.005579120479524136,0.0057906173169612885,0.006002114154398441,0.006213610526174307,0.006425106897950172,0.006636603735387325,0.006848100107163191,0.007059596944600344,0.007271093316376209],"_type":"histogram"},"parameters/mlp_extractor.value_net.2.weight":{"values":[1,0,0,2,1,1,1,0,4,3,10,5,13,16,27,18,38,35,52,50,73,62,90,92,119,124,111,131,158,142,170,165,143,187,159,169,165,148,152,147,143,112,120,111,89,69,78,77,55,55,50,26,36,20,19,13,14,8,3,7,5,1,0,1],"bins":[-0.7249271273612976,-0.7036726474761963,-0.682418167591095,-0.6611636877059937,-0.6399092078208923,-0.618654727935791,-0.5974003076553345,-0.5761457681655884,-0.5548913478851318,-0.5336368083953857,-0.5123823881149292,-0.4911279082298279,-0.46987342834472656,-0.44861894845962524,-0.4273644685745239,-0.4061099886894226,-0.3848555088043213,-0.36360102891921997,-0.34234654903411865,-0.32109206914901733,-0.299837589263916,-0.2785831391811371,-0.25732865929603577,-0.23607417941093445,-0.21481972932815552,-0.1935652494430542,-0.17231076955795288,-0.15105628967285156,-0.12980180978775024,-0.10854732990264893,-0.08729285001754761,-0.06603837013244629,-0.04478389024734497,-0.023529410362243652,-0.002274930477142334,0.018979549407958984,0.0402340292930603,0.06148850917816162,0.08274298906326294,0.10399746894836426,0.12525194883346558,0.1465063989162445,0.16776087880134583,0.18901535868644714,0.21026980876922607,0.2315242886543274,0.2527787685394287,0.27403324842453003,0.29528772830963135,0.31654220819473267,0.337796688079834,0.3590511679649353,0.3803056478500366,0.40156012773513794,0.42281457781791687,0.4440690577030182,0.4653235375881195,0.4865780174732208,0.5078325271606445,0.5290869474411011,0.5503414273262024,0.5715959072113037,0.592850387096405,0.6141048669815063,0.6353593468666077],"_type":"histogram"},"gradients/action_net.bias":{"_type":"histogram","values":[1,0,0,0,0,0,0,0,0,1,0,0,1,1,0,0,0,0,0,0,0,0,0,0,0,0,0,0,0,0,0,0,0,0,0,0,0,0,0,0,0,0,0,0,0,0,0,0,0,0,0,0,0,0,0,0,0,0,0,0,0,0,0,1],"bins":[-0.04658568650484085,-0.04212624579668045,-0.03766680136322975,-0.03320736065506935,-0.0287479180842638,-0.024288475513458252,-0.01982903480529785,-0.015369592234492302,-0.010910149663686752,-0.006450708955526352,-0.001991264522075653,0.0024681761860847473,0.006927616894245148,0.011387061327695847,0.015846502035856247,0.020305946469306946,0.024765387177467346,0.029224827885627747,0.03368426859378815,0.038143716752529144,0.042603157460689545,0.047062598168849945,0.051522038877010345,0.055981479585170746,0.060440920293331146,0.06490036845207214,0.06935980916023254,0.07381924986839294,0.07827869057655334,0.08273813873529434,0.08719757944345474,0.09165702015161514,0.09611646831035614,0.10057590901851654,0.10503534972667694,0.10949479043483734,0.11395423859357834,0.11841367930173874,0.12287312000989914,0.12733256816864014,0.13179200887680054,0.13625144958496094,0.14071089029312134,0.14517033100128174,0.14962977170944214,0.15408921241760254,0.15854865312576294,0.16300809383392334,0.16746753454208374,0.17192697525024414,0.17638643085956573,0.18084587156772614,0.18530531227588654,0.18976475298404694,0.19422419369220734,0.19868363440036774,0.20314307510852814,0.20760251581668854,0.21206197142601013,0.21652141213417053,0.22098085284233093,0.22544029355049133,0.22989973425865173,0.23435917496681213,0.23881861567497253]},"_wandb":{"runtime":1052},"solar_capacity":2751.3290305669393,"gradients/mlp_extractor.value_net.2.weight":{"bins":[-1.2017771005630493,-1.16419517993927,-1.1266133785247803,-1.089031457901001,-1.0514495372772217,-1.013867735862732,-0.9762858152389526,-0.9387039542198181,-0.9011220932006836,-0.8635402321815491,-0.8259583711624146,-0.7883764505386353,-0.7507945895195007,-0.7132127285003662,-0.6756308078765869,-0.6380489468574524,-0.6004670858383179,-0.5628852248191833,-0.5253033638000488,-0.48772144317626953,-0.450139582157135,-0.4125577211380005,-0.3749758005142212,-0.33739393949508667,-0.29981207847595215,-0.2622302174568176,-0.2246483564376831,-0.1870664358139038,-0.1494845151901245,-0.11190271377563477,-0.07432079315185547,-0.03673899173736572,0.000843048095703125,0.03842496871948242,0.07600677013397217,0.11358869075775146,0.1511704921722412,0.1887524127960205,0.2263343334197998,0.2639161944389343,0.30149805545806885,0.33907991647720337,0.3766617774963379,0.4142436981201172,0.4518255591392517,0.48940742015838623,0.5269893407821655,0.5645712018013,0.6021530628204346,0.6397349238395691,0.6773167848587036,0.7148987054824829,0.7524805665016174,0.790062427520752,0.8276443481445312,0.8652262091636658,0.9028080701828003,0.9403899312019348,0.9779717922210693,1.0155537128448486,1.053135633468628,1.0907174348831177,1.128299355506897,1.1658811569213867,1.203463077545166],"_type":"histogram","values":[1,1,1,1,3,5,5,5,8,11,13,11,19,22,29,35,44,50,65,70,87,95,89,89,106,147,132,194,240,184,211,67,77,180,211,255,191,134,117,112,98,89,96,91,81,58,44,38,39,34,25,30,10,10,13,5,4,3,3,3,1,2,1,1]},"gradients/mlp_extractor.value_net.0.bias":{"values":[1,0,1,0,0,0,0,0,1,0,0,1,0,1,3,0,1,0,1,2,4,1,1,1,2,0,4,1,0,2,1,1,3,1,1,1,1,1,1,3,1,2,2,1,1,0,2,1,0,2,1,1,2,0,0,0,0,1,0,0,1,2,1,1],"bins":[-3.389932632446289,-3.2927377223968506,-3.195542573928833,-3.0983476638793945,-3.001152515411377,-2.9039576053619385,-2.8067626953125,-2.7095675468444824,-2.612372636795044,-2.5151774883270264,-2.417982578277588,-2.3207874298095703,-2.223592519760132,-2.1263976097106934,-2.029202461242676,-1.9320075511932373,-1.8348125219345093,-1.7376174926757812,-1.6404224634170532,-1.5432275533676147,-1.4460325241088867,-1.3488373756408691,-1.2516424655914307,-1.1544475555419922,-1.0572524070739746,-0.9600574970245361,-0.8628623485565186,-0.7656674385070801,-0.6684725284576416,-0.571277379989624,-0.47408246994018555,-0.37688732147216797,-0.2796924114227295,-0.18249750137329102,-0.08530235290527344,0.011892557144165039,0.10908770561218262,0.2062826156616211,0.30347752571105957,0.40067267417907715,0.4978675842285156,0.5950627326965332,0.6922576427459717,0.7894525527954102,0.8866477012634277,0.9838427305221558,1.0810376405715942,1.1782326698303223,1.2754276990890503,1.3726227283477783,1.4698177576065063,1.5670126676559448,1.6642076969146729,1.7614027261734009,1.858597755432129,1.9557926654815674,2.052987813949585,2.1501827239990234,2.247377872467041,2.3445727825164795,2.441767692565918,2.5389628410339355,2.636157751083374,2.7333528995513916,2.83054780960083],"_type":"histogram"},"parameters/log_std":{"bins":[-0.01794593036174774,-0.01769888959825039,-0.017451848834753036,-0.017204806208610535,-0.016957765445113182,-0.01671072468161583,-0.016463682055473328,-0.016216641291975975,-0.015969600528478622,-0.01572255976498127,-0.015475518070161343,-0.015228476375341415,-0.014981435611844063,-0.01473439484834671,-0.014487353153526783,-0.014240311458706856,-0.013993270695209503,-0.01374622993171215,-0.013499188236892223,-0.013252146542072296,-0.013005105778574944,-0.012758065015077591,-0.012511023320257664,-0.012263981625437737,-0.012016940861940384,-0.011769900098443031,-0.011522858403623104,-0.011275816708803177,-0.011028775945305824,-0.010781735181808472,-0.010534693486988544,-0.010287651792168617,-0.01004061009734869,-0.009793568402528763,-0.00954652763903141,-0.009299486875534058,-0.00905244518071413,-0.008805403485894203,-0.00855836272239685,-0.008311321958899498,-0.00806428026407957,-0.007817238569259644,-0.007570197805762291,-0.007323156576603651,-0.007076115347445011,-0.006829074118286371,-0.006582032889127731,-0.006334991659969091,-0.0060879504308104515,-0.005840909201651812,-0.005593867972493172,-0.005346826743334532,-0.005099785514175892,-0.004852744285017252,-0.004605703055858612,-0.004358661826699972,-0.004111620597541332,-0.0038645793683826923,-0.0036175381392240524,-0.0033704969100654125,-0.0031234556809067726,-0.0028764144517481327,-0.002629373222589493,-0.002382331993430853,-0.002135290764272213],"_type":"histogram","values":[1,0,0,0,0,0,0,0,0,0,0,0,0,0,0,1,0,0,0,0,0,0,0,0,0,0,0,0,0,0,0,0,0,0,0,0,0,0,0,0,0,0,0,0,1,0,0,0,0,0,1,0,0,0,0,0,0,0,0,0,0,0,0,1]},"gradients/value_net.weight":{"_type":"histogram","values":[30,0,0,0,0,0,0,0,0,0,0,0,0,0,0,0,0,0,0,0,0,0,0,0,0,0,0,0,0,0,0,0,0,0,0,0,0,0,0,0,0,0,0,0,0,0,0,0,0,0,0,0,0,0,0,0,0,0,0,0,0,0,0,34],"bins":[-1337.3245849609375,-1295.533203125,-1253.7418212890625,-1211.950439453125,-1170.1590576171875,-1128.36767578125,-1086.5762939453125,-1044.784912109375,-1002.9935302734375,-961.2021484375,-919.4107666015625,-877.619384765625,-835.8280639648438,-794.0366821289062,-752.2453002929688,-710.4539184570312,-668.6625366210938,-626.8711547851562,-585.0797729492188,-543.2883911132812,-501.49700927734375,-459.70562744140625,-417.91424560546875,-376.12286376953125,-334.33154296875,-292.5401611328125,-250.748779296875,-208.9573974609375,-167.166015625,-125.3746337890625,-83.583251953125,-41.7918701171875,-0.00048828125,41.7908935546875,83.582275390625,125.3736572265625,167.1650390625,208.9564208984375,250.747802734375,292.5391845703125,334.33056640625,376.12188720703125,417.91326904296875,459.70465087890625,501.49603271484375,543.2874145507812,585.0787963867188,626.8701782226562,668.6615600585938,710.4529418945312,752.2443237304688,794.0357055664062,835.8270874023438,877.618408203125,919.4097900390625,961.201171875,1002.9925537109375,1044.783935546875,1086.5753173828125,1128.36669921875,1170.1580810546875,1211.949462890625,1253.7408447265625,1295.5322265625,1337.3236083984375]},"parameters/mlp_extractor.policy_net.2.bias":{"values":[2,0,0,0,1,2,0,2,0,0,2,1,1,1,1,3,0,1,1,1,0,2,0,3,0,3,1,1,4,1,0,1,0,0,0,0,1,0,1,0,1,1,0,3,0,0,2,1,2,1,1,0,0,1,3,0,2,0,3,3,0,1,1,1],"bins":[-0.00013495160965248942,-0.00013064377708360553,-0.00012633594451472163,-0.00012202811194583774,-0.00011772027210099623,-0.00011341243953211233,-0.00010910460696322843,-0.00010479677439434454,-0.00010048893454950303,-9.618110198061913e-05,-9.187326941173524e-05,-8.756543684285134e-05,-8.325760427396744e-05,-7.894977170508355e-05,-7.464193913619965e-05,-7.033409929135814e-05,-6.602626672247425e-05,-6.171843415359035e-05,-5.7410601584706455e-05,-5.3102761739864945e-05,-4.879492917098105e-05,-4.4487096602097154e-05,-4.017926403321326e-05,-3.587143146432936e-05,-3.1563598895445466e-05,-2.7255759050603956e-05,-2.294792648172006e-05,-1.8640093912836164e-05,-1.4332261343952268e-05,-1.0024421499110758e-05,-5.7165889302268624e-06,-1.4087563613429666e-06,2.8990762075409293e-06,7.206908776424825e-06,1.1514741345308721e-05,1.5822573914192617e-05,2.0130413759034127e-05,2.4438246327918023e-05,2.874607889680192e-05,3.3053911465685815e-05,3.7361751310527325e-05,4.166958387941122e-05,4.5977416448295116e-05,5.028524901717901e-05,5.459308158606291e-05,5.8900914154946804e-05,6.320875399978831e-05,6.751658656867221e-05,7.18244191375561e-05,7.613225170644e-05,8.044009155128151e-05,8.474792412016541e-05,8.90557566890493e-05,9.33635892579332e-05,9.76714218268171e-05,0.00010197925439570099,0.00010628708696458489,0.0001105949268094264,0.00011490275937831029,0.00011921059194719419,0.0001235184317920357,0.0001278262643609196,0.0001321340969298035,0.0001364419294986874,0.00014074976206757128],"_type":"histogram"},"parameters/action_net.weight":{"bins":[-0.015126022510230541,-0.014660976827144623,-0.01419593021273613,-0.013730884529650211,-0.013265837915241718,-0.0128007922321558,-0.012335745617747307,-0.011870699934661388,-0.01140565425157547,-0.010940607637166977,-0.010475561022758484,-0.010010515339672565,-0.009545469656586647,-0.009080423042178154,-0.008615377359092236,-0.008150331676006317,-0.007685285061597824,-0.007220239378511906,-0.006755192764103413,-0.006290147081017494,-0.005825100466609001,-0.005360054783523083,-0.00489500816911459,-0.004429962486028671,-0.003964916802942753,-0.00349987018853426,-0.0030348245054483414,-0.0025697778910398483,-0.00210473220795393,-0.0016396855935454369,-0.0011746399104595184,-0.0007095932960510254,-0.0002445485442876816,0.00022049713879823685,0.0006855437532067299,0.0011505894362926483,0.0016156360507011414,0.00208068173378706,0.002545728348195553,0.0030107740312814713,0.0034758206456899643,0.003940866328775883,0.004405912011861801,0.004870958626270294,0.005336004309356213,0.005801050923764706,0.006266096606850624,0.006731143221259117,0.0071961889043450356,0.007661235053092241,0.008126281201839447,0.00859132781624794,0.009056373499333858,0.009521419182419777,0.00998646579682827,0.010451511479914188,0.010916557163000107,0.0113816037774086,0.011846650391817093,0.012311696074903011,0.01277674175798893,0.013241788372397423,0.013706834055483341,0.014171880669891834,0.014636926352977753],"_type":"histogram","values":[1,1,1,0,0,1,0,0,3,2,1,1,2,3,1,1,5,5,1,3,7,11,5,4,4,16,11,14,15,9,13,16,15,8,19,12,13,7,9,8,3,10,5,5,9,7,2,10,2,3,4,0,3,3,0,1,1,1,1,1,0,0,0,1]},"parameters/value_net.bias":{"_type":"histogram","values":[1],"bins":[0.3563987612724304,0.3563987612724304]},"gradients/mlp_extractor.policy_net.0.bias":{"_type":"histogram","values":[2,1,1,2,0,0,0,2,0,0,0,1,1,1,2,1,0,1,1,2,3,1,2,0,0,1,2,3,3,1,1,3,5,1,1,0,1,2,1,0,1,2,1,2,1,0,2,1,0,0,0,0,0,0,0,0,1,2,0,0,1,0,0,1],"bins":[-0.004176457412540913,-0.004035459831357002,-0.0038944620173424482,-0.003753464203327894,-0.003612466622143984,-0.0034714690409600735,-0.0033304712269455194,-0.0031894734129309654,-0.003048475831747055,-0.0029074782505631447,-0.0027664804365485907,-0.0026254826225340366,-0.0024844850413501263,-0.002343487460166216,-0.002202489646151662,-0.002061491832137108,-0.0019204942509531975,-0.0017794966697692871,-0.001638498855754733,-0.001497501041740179,-0.0013565034605562687,-0.0012155058793723583,-0.0010745080653578043,-0.0009335102513432503,-0.0007925126701593399,-0.0006515150889754295,-0.0005105172749608755,-0.0003695194609463215,-0.00022852187976241112,-8.752429857850075e-05,5.347374826669693e-05,0.0001944713294506073,0.00033546844497323036,0.00047646602615714073,0.0006174636073410511,0.0007584616541862488,0.0008994592353701591,0.0010404568165540695,0.0011814546305686235,0.0013224524445831776,0.001463450025767088,0.0016044476069509983,0.0017454454209655523,0.0018864432349801064,0.0020274408161640167,0.002168438397347927,0.002309436211362481,0.002450434025377035,0.0025914316065609455,0.002732429187744856,0.00287342700175941,0.003014424815773964,0.0031554223969578743,0.0032964199781417847,0.0034374177921563387,0.0035784156061708927,0.003719413187354803,0.0038604107685387135,0.004001408815383911,0.0041424063965678215,0.004283403977751732,0.004424401558935642,0.004565399140119553,0.00470639718696475,0.004847394768148661]}}