{"parameters/mlp_extractor.value_net.0.weight":{"bins":[-0.6036325693130493,-0.5863568782806396,-0.56908118724823,-0.5518055558204651,-0.5345298647880554,-0.5172541737556458,-0.49997851252555847,-0.4827028512954712,-0.4654271602630615,-0.44815146923065186,-0.4308758080005646,-0.4136001467704773,-0.3963244557380676,-0.37904876470565796,-0.3617731034755707,-0.3444974422454834,-0.32722175121307373,-0.30994606018066406,-0.2926703989505768,-0.2753947377204895,-0.25811904668807983,-0.24084335565567017,-0.22356769442558289,-0.2062920331954956,-0.18901634216308594,-0.17174065113067627,-0.154464989900589,-0.1371893286705017,-0.11991363763809204,-0.10263794660568237,-0.08536231517791748,-0.06808662414550781,-0.05081087350845337,-0.0335351824760437,-0.016259491443634033,0.0010161399841308594,0.018291831016540527,0.035567522048950195,0.052843183279037476,0.07011884450912476,0.08739453554153442,0.10467022657394409,0.12194588780403137,0.13922154903411865,0.15649724006652832,0.173772931098938,0.19104859232902527,0.20832425355911255,0.22559994459152222,0.24287563562393188,0.26015129685401917,0.27742695808410645,0.2947026491165161,0.3119783401489258,0.32925400137901306,0.34652966260910034,0.36380535364151,0.3810810446739197,0.39835670590400696,0.41563236713409424,0.4329080581665039,0.4501837491989136,0.46745941042900085,0.48473507165908813,0.5020107626914978],"_type":"histogram","values":[1,0,2,0,0,2,0,0,1,3,1,4,2,4,1,6,7,4,5,4,9,8,6,9,14,15,16,14,14,8,12,16,12,18,26,9,10,18,20,16,14,22,14,17,13,10,13,8,11,13,3,8,11,5,11,4,1,4,4,2,3,1,1,2]},"gradients/action_net.weight":{"values":[1,0,0,1,1,0,1,3,3,0,1,4,3,1,5,8,5,4,7,10,14,6,8,4,8,12,8,9,10,9,10,10,11,10,13,7,6,11,6,10,9,11,11,3,9,7,8,3,5,4,1,2,2,0,1,0,0,2,1,0,0,0,0,1],"bins":[-0.15923066437244415,-0.15415136516094208,-0.14907206594944,-0.14399276673793793,-0.13891346752643585,-0.13383415341377258,-0.1287548542022705,-0.12367555499076843,-0.11859625577926636,-0.11351695656776428,-0.10843765735626221,-0.10335835814476013,-0.09827905893325806,-0.09319975972175598,-0.08812045305967331,-0.08304115384817123,-0.07796185463666916,-0.07288255542516708,-0.06780325621366501,-0.06272394955158234,-0.05764465034008026,-0.052565351128578186,-0.04748605191707611,-0.042406752705574036,-0.03732745349407196,-0.032248154282569885,-0.02716885507106781,-0.02208954095840454,-0.017010241746902466,-0.01193094253540039,-0.006851643323898315,-0.0017723441123962402,0.003306955099105835,0.00838625431060791,0.013465553522109985,0.01854485273361206,0.023624151945114136,0.02870345115661621,0.03378276526927948,0.038862064480781555,0.04394136369228363,0.049020662903785706,0.05409996211528778,0.059179261326789856,0.06425856053829193,0.069337859749794,0.07441716641187668,0.07949646562337875,0.08457576483488083,0.0896550640463829,0.09473436325788498,0.09981366991996765,0.10489296913146973,0.1099722683429718,0.11505156755447388,0.12013086676597595,0.12521016597747803,0.1302894651889801,0.13536876440048218,0.14044806361198425,0.14552737772464752,0.1506066769361496,0.15568597614765167,0.16076527535915375,0.16584457457065582],"_type":"histogram"},"_step":10251,"gradients/mlp_extractor.value_net.0.bias":{"_type":"histogram","values":[1,0,0,0,0,0,0,0,0,1,0,1,0,1,0,0,2,0,1,1,1,2,2,0,3,0,2,3,1,2,2,4,3,0,0,2,0,3,1,2,1,1,1,1,2,3,1,1,0,1,3,1,0,0,1,0,0,1,0,2,1,1,0,1],"bins":[-4.029812812805176,-3.9149742126464844,-3.800135850906372,-3.6852972507476807,-3.5704588890075684,-3.455620288848877,-3.3407816886901855,-3.2259433269500732,-3.111104726791382,-2.9962663650512695,-2.881427764892578,-2.7665891647338867,-2.6517508029937744,-2.536912441253662,-2.4220738410949707,-2.3072352409362793,-2.192396640777588,-2.0775582790374756,-1.9627196788787842,-1.8478813171386719,-1.7330427169799805,-1.6182043552398682,-1.5033657550811768,-1.3885271549224854,-1.273688793182373,-1.1588501930236816,-1.0440118312835693,-0.9291732311248779,-0.8143346309661865,-0.6994962692260742,-0.5846576690673828,-0.4698193073272705,-0.3549807071685791,-0.2401421070098877,-0.1253037452697754,-0.010465145111083984,0.10437321662902832,0.21921181678771973,0.33405041694641113,0.44888877868652344,0.5637273788452148,0.6785657405853271,0.7934043407440186,0.90824294090271,1.0230813026428223,1.1379199028015137,1.252758264541626,1.3675968647003174,1.4824353456497192,1.597273826599121,1.712112307548523,1.8269509077072144,1.9417893886566162,2.0566277503967285,2.17146635055542,2.2863049507141113,2.4011433124542236,2.515981912612915,2.6308202743530273,2.7456588745117188,2.86049747467041,2.9753358364105225,3.090174436569214,3.205012798309326,3.3198513984680176]},"gradients/mlp_extractor.value_net.0.weight":{"values":[2,0,0,0,0,0,0,0,0,2,1,2,1,2,0,0,4,1,3,5,2,6,6,3,10,2,10,10,11,15,19,25,33,31,25,90,26,28,15,21,12,12,5,7,8,13,3,3,1,3,10,4,3,2,2,0,1,2,0,4,2,2,0,2],"bins":[-6.044717788696289,-5.872459888458252,-5.700202465057373,-5.527944564819336,-5.355687141418457,-5.18342924118042,-5.011171340942383,-4.838913917541504,-4.666656017303467,-4.49439811706543,-4.322140693664551,-4.149882793426514,-3.9776251316070557,-3.8053674697875977,-3.6331095695495605,-3.4608519077301025,-3.2885942459106445,-3.1163365840911865,-2.9440789222717285,-2.7718210220336914,-2.5995633602142334,-2.4273056983947754,-2.2550477981567383,-2.0827901363372803,-1.9105324745178223,-1.7382745742797852,-1.5660171508789062,-1.3937592506408691,-1.221501350402832,-1.0492439270019531,-0.876986026763916,-0.7047286033630371,-0.532470703125,-0.3602128028869629,-0.18795537948608398,-0.015697479248046875,0.15655994415283203,0.32881784439086914,0.5010757446289062,0.6733331680297852,0.8455910682678223,1.0178487300872803,1.1901063919067383,1.3623642921447754,1.5346219539642334,1.7068796157836914,1.8791375160217285,2.0513951778411865,2.2236528396606445,2.3959105014801025,2.5681681632995605,2.7404260635375977,2.9126837253570557,3.0849413871765137,3.257199287414551,3.429456949234009,3.601714611053467,3.773972272872925,3.946229934692383,4.11848783493042,4.290745735168457,4.463003158569336,4.635261058807373,4.807518482208252,4.979776382446289],"_type":"histogram"},"parameters/action_net.bias":{"_type":"histogram","values":[1,0,0,0,0,0,0,0,0,0,0,0,0,0,0,0,0,1,0,0,0,1,0,0,0,0,0,0,0,0,0,0,0,0,0,0,0,0,0,1,0,0,0,0,0,0,0,0,0,0,0,0,0,0,0,0,0,0,0,0,0,0,0,1],"bins":[-0.007066065911203623,-0.006840780843049288,-0.0066154953092336655,-0.0063902102410793304,-0.006164925172924995,-0.005939639639109373,-0.005714354570955038,-0.005489069037139416,-0.005263783968985081,-0.005038498900830746,-0.004813213367015123,-0.004587928298860788,-0.004362642765045166,-0.004137357696890831,-0.003912072628736496,-0.0036867873277515173,-0.0034615020267665386,-0.00323621672578156,-0.0030109314247965813,-0.0027856463566422462,-0.002560360822826624,-0.002335075754672289,-0.002109790686517954,-0.0018845051527023315,-0.0016592200845479965,-0.0014339350163936615,-0.0012086494825780392,-0.0009833644144237041,-0.0007580793462693691,-0.0005327938124537468,-0.0003075087442994118,-8.222321048378944e-05,0.00014306185767054558,0.0003683469258248806,0.0005936324596405029,0.000818917527794838,0.0010442030616104603,0.0012694881297647953,0.0014947731979191303,0.0017200587317347527,0.0019453437998890877,0.0021706288680434227,0.002395914401859045,0.00262119947001338,0.002846484538167715,0.0030717700719833374,0.0032970551401376724,0.003522340441122651,0.0037476257421076298,0.003972911275923252,0.004198196344077587,0.004423481412231922,0.004648766480386257,0.0048740520142018795,0.0050993370823562145,0.005324622616171837,0.005549907684326172,0.005775192752480507,0.006000478286296129,0.006225763354450464,0.006451048888266087,0.006676333956420422,0.006901619024574757,0.007126904558390379,0.007352189626544714]},"parameters/log_std":{"values":[1,0,0,0,0,0,0,1,0,0,0,0,0,0,0,0,0,0,0,0,0,0,0,0,0,0,0,0,0,0,0,0,0,0,0,1,0,0,0,0,0,0,0,0,0,0,0,0,0,0,1,0,0,0,0,0,0,0,0,0,0,0,0,1],"bins":[-0.01732160523533821,-0.016920067369937897,-0.016518527641892433,-0.01611698977649212,-0.015715450048446655,-0.015313912183046341,-0.014912372455000877,-0.014510834589600563,-0.014109295792877674,-0.013707756996154785,-0.013306218199431896,-0.012904679402709007,-0.012503140605986118,-0.01210160180926323,-0.011700063943862915,-0.011298524215817451,-0.010896986350417137,-0.010495446622371674,-0.01009390875697136,-0.00969236996024847,-0.009290831163525581,-0.008889292366802692,-0.008487753570079803,-0.008086214773356915,-0.007684675976634026,-0.007283137179911137,-0.006881598383188248,-0.006480060517787933,-0.006078521721065044,-0.0056769829243421555,-0.0052754441276192665,-0.0048739053308963776,-0.004472366534173489,-0.0040708277374506,-0.0036692889407277107,-0.0032677501440048218,-0.002866211347281933,-0.002464672550559044,-0.0020631346851587296,-0.0016615958884358406,-0.0012600570917129517,-0.0008585182949900627,-0.00045697949826717377,-5.544070154428482e-05,0.0003460980951786041,0.0007476368919014931,0.0011491752229630947,0.0015507140196859837,0.0019522528164088726,0.0023537916131317616,0.0027553304098546505,0.003156868740916252,0.003558407537639141,0.00395994633436203,0.004361485131084919,0.004763023927807808,0.005164562724530697,0.005566101521253586,0.0059676398523151875,0.006369178649038076,0.006770717445760965,0.007172255776822567,0.007573794573545456,0.007975333370268345,0.008376872166991234],"_type":"histogram"},"battery_capacity":6181.527199528511,"parameters/mlp_extractor.value_net.0.bias":{"values":[1,1,1,1,1,4,2,0,2,2,2,4,1,1,1,1,0,0,0,1,1,0,1,1,1,0,1,1,0,0,0,0,1,0,0,1,0,2,0,1,0,0,0,0,0,0,1,0,0,1,1,1,1,0,0,7,1,1,2,3,1,4,2,1],"bins":[-0.13078227639198303,-0.12679477035999298,-0.12280727177858353,-0.11881976574659348,-0.11483225971460342,-0.11084476113319397,-0.10685725510120392,-0.10286974906921387,-0.09888224303722382,-0.09489474445581436,-0.09090723842382431,-0.08691973984241486,-0.0829322338104248,-0.07894472777843475,-0.0749572217464447,-0.07096971571445465,-0.0669822171330452,-0.06299471110105515,-0.05900721251964569,-0.05501970648765564,-0.05103220045566559,-0.047044701874256134,-0.04305719584226608,-0.03906968981027603,-0.03508219122886658,-0.031094685196876526,-0.027107179164886475,-0.023119673132896423,-0.01913217455148697,-0.015144668519496918,-0.011157162487506866,-0.007169663906097412,-0.0031821653246879578,0.0008053407073020935,0.004792839288711548,0.008780345320701599,0.01276785135269165,0.016755349934101105,0.020742855966091156,0.024730361998081207,0.02871786803007126,0.03270536661148071,0.036692872643470764,0.040680378675460815,0.04466787725687027,0.04865538328886032,0.05264288932085037,0.05663038790225983,0.06061789393424988,0.06460539996623993,0.06859290599822998,0.07258040457963943,0.07656791061162949,0.08055540919303894,0.08454291522502899,0.08853042125701904,0.0925179272890091,0.09650542587041855,0.1004929319024086,0.10448043048381805,0.1084679365158081,0.11245544254779816,0.11644294857978821,0.12043044716119766,0.12441795319318771],"_type":"histogram"},"battery_energy":0,"_timestamp":1.7476082491856248e+09,"parameters/mlp_extractor.value_net.2.bias":{"_type":"histogram","values":[1,0,2,2,0,1,2,0,3,1,0,2,0,3,2,3,1,4,1,0,0,0,0,0,0,0,0,0,0,0,0,0,0,0,0,0,0,0,0,0,0,0,0,1,1,1,2,1,3,2,1,4,1,5,2,1,3,2,4,0,0,0,1,1],"bins":[-0.1042456105351448,-0.10100759565830231,-0.0977695882320404,-0.0945315733551979,-0.09129355847835541,-0.0880555510520935,-0.08481753617525101,-0.08157952129840851,-0.0783415138721466,-0.0751035064458847,-0.0718654915690422,-0.06862747669219971,-0.0653894692659378,-0.062151454389095306,-0.05891343951225281,-0.05567542836070061,-0.05243741720914841,-0.04919940605759621,-0.045961394906044006,-0.04272338002920151,-0.039485372602939606,-0.03624735772609711,-0.03300934284925461,-0.029771335422992706,-0.026533320546150208,-0.02329530566930771,-0.020057298243045807,-0.016819283366203308,-0.01358126848936081,-0.010343261063098907,-0.007105246186256409,-0.003867238759994507,-0.000629231333732605,0.002608783543109894,0.005846790969371796,0.009084805846214294,0.012322813272476196,0.015560828149318695,0.018798843026161194,0.022036850452423096,0.025274865329265594,0.028512880206108093,0.031750887632369995,0.034988902509212494,0.03822691738605499,0.041464924812316895,0.04470293968915939,0.047940950840711594,0.051178961992263794,0.054416973143815994,0.057654984295368195,0.06089299917221069,0.0641310065984726,0.0673690214753151,0.07060703635215759,0.0738450437784195,0.077083058655262,0.08032107353210449,0.0835590809583664,0.08679709583520889,0.09003511071205139,0.0932731181383133,0.09651113301515579,0.0997491404414177,0.10298715531826019]},"net_profit":8.182259563357769e+06,"gradients/mlp_extractor.policy_net.2.weight":{"bins":[-0.0022499749902635813,-0.0021758866496384144,-0.002101798076182604,-0.002027709735557437,-0.00195362139493227,-0.0018795330543071032,-0.0018054445972666144,-0.0017313561402261257,-0.0016572677996009588,-0.001583179458975792,-0.0015090910019353032,-0.0014350025448948145,-0.0013609142042696476,-0.0012868258636444807,-0.001212737406603992,-0.0011386489495635033,-0.0010645606089383364,-0.0009904722683131695,-0.0009163838112726808,-0.000842295354232192,-0.0007682070136070251,-0.0006941186729818583,-0.0006200302159413695,-0.0005459417589008808,-0.0004718534182757139,-0.00039776507765054703,-0.0003236766206100583,-0.0002495881635695696,-0.0001754998229444027,-0.0001014114823192358,-2.7322908863425255e-05,4.676543176174164e-05,0.00012085377238690853,0.00019494211301207542,0.0002690304536372423,0.00034311902709305286,0.00041720736771821976,0.0004912957083433867,0.0005653841653838754,0.0006394726224243641,0.000713560963049531,0.0007876493036746979,0.0008617377607151866,0.0009358262177556753,0.0010099145583808422,0.001084002899006009,0.0011580913560464978,0.0012321798130869865,0.0013062681537121534,0.0013803564943373203,0.001454444951377809,0.0015285334084182978,0.0016026217490434647,0.0016767100896686316,0.0017507985467091203,0.001824887003749609,0.0018989753443747759,0.0019730636849999428,0.0020471522584557533,0.0021212405990809202,0.002195328939706087,0.002269417280331254,0.002343505620956421,0.0024175941944122314,0.0024916825350373983],"_type":"histogram","values":[2,0,2,3,3,2,4,1,4,6,2,5,1,12,6,13,13,17,17,31,29,31,66,70,104,114,157,250,317,561,620,434,309,235,151,116,93,63,44,40,24,29,26,12,11,9,10,5,5,0,3,4,1,1,2,0,0,0,1,3,0,0,1,1]},"parameters/mlp_extractor.value_net.2.weight":{"_type":"histogram","values":[4,3,4,4,4,6,6,10,14,12,16,29,25,38,44,50,74,79,79,87,100,127,132,146,128,153,153,151,177,166,163,172,143,167,111,152,138,128,128,110,104,86,84,70,53,41,44,42,39,17,25,16,13,3,5,3,5,5,3,1,0,2,1,1],"bins":[-0.6274919509887695,-0.6067190170288086,-0.5859460830688477,-0.5651731491088867,-0.5444002151489258,-0.5236272811889648,-0.5028543472290039,-0.4820813834667206,-0.46130844950675964,-0.4405355155467987,-0.41976258158683777,-0.39898961782455444,-0.3782166838645935,-0.35744374990463257,-0.33667081594467163,-0.3158978819847107,-0.29512494802474976,-0.2743520140647888,-0.2535790801048279,-0.23280614614486694,-0.212033212184906,-0.19126024842262268,-0.17048731446266174,-0.1497143805027008,-0.12894144654273987,-0.10816848278045654,-0.0873955488204956,-0.06662261486053467,-0.04584968090057373,-0.025076746940612793,-0.0043038129806518555,0.016469120979309082,0.037241995334625244,0.05801492929458618,0.07878786325454712,0.09956079721450806,0.120333731174469,0.14110666513442993,0.16187959909439087,0.1826525330543518,0.20342549681663513,0.22419843077659607,0.244971364736557,0.26574429869651794,0.28651726245880127,0.3072901964187622,0.32806313037872314,0.3488360643386841,0.369608998298645,0.39038193225860596,0.4111548662185669,0.43192780017852783,0.45270073413848877,0.4734736680984497,0.49424663186073303,0.5150195360183716,0.5357924699783325,0.5565654039382935,0.5773383975028992,0.5981113314628601,0.618884265422821,0.639657199382782,0.6604301333427429,0.6812030673027039,0.7019760012626648]},"parameters/action_net.weight":{"values":[1,0,0,1,1,2,0,0,1,1,1,2,1,5,3,5,4,3,6,3,2,5,7,14,11,9,7,8,10,17,8,8,14,5,8,9,9,10,16,7,7,5,13,11,8,8,7,6,6,4,2,0,3,3,2,3,2,1,0,2,0,2,0,1],"bins":[-0.011190121993422508,-0.010858116671442986,-0.010526111349463463,-0.01019410602748394,-0.009862099774181843,-0.00953009445220232,-0.009198089130222797,-0.008866083808243275,-0.008534077554941177,-0.008202072232961655,-0.007870066910982132,-0.007538061589002609,-0.0072060562670230865,-0.0068740504793822765,-0.006542045157402754,-0.006210039369761944,-0.005878034047782421,-0.005546028725802898,-0.005214022938162088,-0.004882017616182566,-0.004550011828541756,-0.004218006506562233,-0.0038860011845827103,-0.0035539953969419003,-0.003221990540623665,-0.0028899842873215675,-0.002557978965342045,-0.002225973643362522,-0.0018939683213829994,-0.0015619629994034767,-0.0012299567461013794,-0.0008979514241218567,-0.000565946102142334,-0.00023394078016281128,9.806454181671143e-05,0.00043007079511880875,0.0007620761170983315,0.0010940814390778542,0.0014260867610573769,0.0017580920830368996,0.002090098336338997,0.0024221031926572323,0.0027541089802980423,0.003086114302277565,0.0034181196242570877,0.0037501254118978977,0.00408213073387742,0.0044141365215182304,0.004746141843497753,0.005078147165477276,0.005410152953118086,0.0057421582750976086,0.006074164062738419,0.006406169384717941,0.006738174706697464,0.007070180028676987,0.007402185816317797,0.007734191603958607,0.00806619692593813,0.008398202247917652,0.008730207569897175,0.009062213823199272,0.009394219145178795,0.009726224467158318,0.01005822978913784],"_type":"histogram"},"wind_capacity":2035.1162756203398,"gradients/mlp_extractor.value_net.2.bias":{"_type":"histogram","values":[1,1,0,0,0,0,0,1,0,0,0,0,3,0,1,0,2,0,2,0,3,1,1,0,1,2,2,1,2,0,2,3,2,2,2,1,0,0,1,3,1,2,3,2,2,1,3,2,1,0,1,2,1,0,0,0,0,0,0,0,1,0,1,1],"bins":[-1.4587286710739136,-1.418559193611145,-1.378389835357666,-1.3382203578948975,-1.298050880432129,-1.25788152217865,-1.2177120447158813,-1.1775426864624023,-1.1373732089996338,-1.0972037315368652,-1.0570343732833862,-1.0168648958206177,-0.9766954779624939,-0.9365260601043701,-0.8963565826416016,-0.8561871647834778,-0.816017746925354,-0.7758483290672302,-0.7356789112091064,-0.6955094337463379,-0.6553400158882141,-0.6151705980300903,-0.5750011205673218,-0.534831702709198,-0.4946622848510742,-0.45449280738830566,-0.41432344913482666,-0.3741539716720581,-0.33398449420928955,-0.29381513595581055,-0.253645658493042,-0.213476300239563,-0.17330682277679443,-0.13313734531402588,-0.09296798706054688,-0.05279850959777832,-0.012629151344299316,0.02754032611846924,0.06770980358123779,0.1078791618347168,0.14804863929748535,0.18821805715560913,0.2283874750137329,0.26855695247650146,0.30872637033462524,0.348895788192749,0.3890652656555176,0.42923468351364136,0.46940410137176514,0.5095735192298889,0.5497429370880127,0.5899124145507812,0.630081832408905,0.6702512502670288,0.7104207277297974,0.7505901455879211,0.7907595634460449,0.8309289813041687,0.8710983991622925,0.911267876625061,0.9514372944831848,0.9916067123413086,1.0317761898040771,1.0719455480575562,1.1121150255203247]},"_wandb":{"runtime":66},"step":10239,"reward":81.82259259409929,"gradients/value_net.bias":{"_type":"histogram","values":[1],"bins":[-1191.3841552734375,-1191.3841552734375]},"_runtime":66.1630792,"gradients/value_net.weight":{"values":[36,0,0,0,0,0,0,0,0,0,0,0,0,0,0,0,0,0,0,0,0,0,0,0,0,0,0,0,0,0,0,0,0,0,0,0,0,0,0,0,0,0,0,0,0,0,0,0,0,0,0,0,0,0,0,0,0,0,0,0,0,0,0,28],"bins":[-1191.3321533203125,-1154.103271484375,-1116.874267578125,-1079.6453857421875,-1042.41650390625,-1005.1875610351562,-967.9586181640625,-930.729736328125,-893.5007934570312,-856.2718505859375,-819.04296875,-781.8140258789062,-744.5850830078125,-707.356201171875,-670.1272583007812,-632.8983764648438,-595.66943359375,-558.4404907226562,-521.2116088867188,-483.982666015625,-446.7537841796875,-409.52484130859375,-372.2958984375,-335.0670166015625,-297.83807373046875,-260.609130859375,-223.3802490234375,-186.15130615234375,-148.92236328125,-111.6934814453125,-74.464599609375,-37.235595703125,-0.0068359375,37.2220458984375,74.4510498046875,111.679931640625,148.9088134765625,186.13775634765625,223.36669921875,260.5955810546875,297.82452392578125,335.053466796875,372.2823486328125,409.51129150390625,446.740234375,483.9691162109375,521.1980590820312,558.4269409179688,595.6558837890625,632.8848266601562,670.1137084960938,707.3426513671875,744.571533203125,781.8004760742188,819.0294189453125,856.25830078125,893.4872436523438,930.7161865234375,967.945068359375,1005.1740112304688,1042.4029541015625,1079.6318359375,1116.8607177734375,1154.0897216796875,1191.318603515625],"_type":"histogram"},"hydro_capacity":2103.0838108787816,"parameters/mlp_extractor.policy_net.2.bias":{"values":[1,0,0,0,0,0,0,1,1,0,0,0,0,2,1,2,1,3,0,0,2,2,3,0,1,1,0,1,1,2,3,2,3,2,1,4,1,1,1,1,0,2,2,1,1,2,5,0,0,1,0,1,0,1,0,0,0,0,1,0,0,1,0,2],"bins":[-9.675805631559342e-05,-9.383809810969979e-05,-9.091813990380615e-05,-8.799818169791251e-05,-8.507822349201888e-05,-8.215826528612524e-05,-7.923830708023161e-05,-7.631834887433797e-05,-7.339839066844434e-05,-7.04784324625507e-05,-6.755847425665706e-05,-6.463851605076343e-05,-6.171855784486979e-05,-5.879859963897616e-05,-5.587864143308252e-05,-5.2958683227188885e-05,-5.003872502129525e-05,-4.7118766815401614e-05,-4.419880860950798e-05,-4.127885040361434e-05,-3.8358892197720706e-05,-3.543893399182707e-05,-3.2518975785933435e-05,-2.95990175800398e-05,-2.6679059374146163e-05,-2.3759101168252528e-05,-2.0839142962358892e-05,-1.7919184756465256e-05,-1.499922655057162e-05,-1.2079268344677985e-05,-9.159310138784349e-06,-6.239351932890713e-06,-3.3194010029546916e-06,-3.994427970610559e-07,2.52051540883258e-06,5.440473614726216e-06,8.360431820619851e-06,1.1280390026513487e-05,1.4200348232407123e-05,1.712030643830076e-05,2.0040264644194394e-05,2.296022285008803e-05,2.5880181055981666e-05,2.88001392618753e-05,3.172009746776894e-05,3.464005567366257e-05,3.756001387955621e-05,4.0479972085449845e-05,4.339993029134348e-05,4.6319888497237116e-05,4.923984670313075e-05,5.215980490902439e-05,5.507976311491802e-05,5.799972132081166e-05,6.0919679526705295e-05,6.383963773259893e-05,6.675959593849257e-05,6.96795541443862e-05,7.259951235027984e-05,7.551947055617347e-05,7.843942876206711e-05,8.135938696796075e-05,8.427934517385438e-05,8.719930337974802e-05,9.011926158564165e-05],"_type":"histogram"},"solar_capacity":3710.715358392436,"parameters/value_net.weight":{"values":[1,2,3,0,2,0,6,4,6,4,0,0,0,0,0,0,0,0,0,0,0,0,0,0,0,0,0,0,0,0,0,0,0,0,0,0,0,0,0,0,0,0,0,0,0,0,0,0,0,4,1,2,5,2,5,2,4,2,2,2,0,2,0,3],"bins":[-0.6070314049720764,-0.5869022607803345,-0.5667731165885925,-0.5466439723968506,-0.5265148282051086,-0.5063856840133667,-0.48625651001930237,-0.46612733602523804,-0.4459981918334961,-0.42586904764175415,-0.4057399034500122,-0.38561075925827026,-0.3654816150665283,-0.3453524708747864,-0.32522329688072205,-0.3050941526889801,-0.28496500849723816,-0.2648358643054962,-0.24470672011375427,-0.22457754611968994,-0.204448401927948,-0.18431925773620605,-0.1641901135444641,-0.14406096935272217,-0.12393182516098022,-0.10380268096923828,-0.08367353677749634,-0.06354433298110962,-0.043415188789367676,-0.023286044597625732,-0.003156900405883789,0.016972243785858154,0.0371013879776001,0.05723053216934204,0.07735967636108398,0.09748882055282593,0.11761796474456787,0.13774710893630981,0.15787631273269653,0.17800545692443848,0.19813460111618042,0.21826374530792236,0.2383928894996643,0.25852203369140625,0.2786511778831482,0.29878032207489014,0.31890949606895447,0.3390386402606964,0.35916778445243835,0.3792969286441803,0.39942607283592224,0.4195552468299866,0.4396843910217285,0.45981353521347046,0.4799426794052124,0.5000718235969543,0.5202009677886963,0.5403301119804382,0.5604592561721802,0.5805884599685669,0.6007176041603088,0.6208467483520508,0.6409758925437927,0.6611050367355347,0.6812341809272766],"_type":"histogram"},"gradients/mlp_extractor.policy_net.0.weight":{"bins":[-0.00491307070478797,-0.004788427148014307,-0.0046637835912406445,-0.004539140034466982,-0.004414496477693319,-0.004289852920919657,-0.004165209364145994,-0.004040566273033619,-0.003915922716259956,-0.00379127892665565,-0.0036666353698819876,-0.0035419920459389687,-0.003417348489165306,-0.0032927049323916435,-0.003168061375617981,-0.0030434178188443184,-0.002918774262070656,-0.0027941307052969933,-0.0026694871485233307,-0.002544843591749668,-0.0024202000349760056,-0.0022955567110329866,-0.002170913154259324,-0.0020462695974856615,-0.001921626040711999,-0.0017969824839383364,-0.0016723389271646738,-0.0015476953703910112,-0.0014230520464479923,-0.0012984084896743298,-0.0011737649329006672,-0.0010491213761270046,-0.0009244780521839857,-0.0007998344954103231,-0.0006751909386366606,-0.000550547381862998,-0.00042590382508933544,-0.00030126050114631653,-0.00017661694437265396,-5.1973387598991394e-05,7.267016917467117e-05,0.00019731372594833374,0.0003219572827219963,0.0004466008394956589,0.0005712441634386778,0.0006958877202123404,0.0008205312769860029,0.0009451748337596655,0.001069818390533328,0.0011944619473069906,0.0013191055040806532,0.001443748944438994,0.0015683925012126565,0.001693036057986319,0.0018176794983446598,0.0019423230551183224,0.002066966611891985,0.0021916101686656475,0.00231625372543931,0.0024408972822129726,0.002565540838986635,0.002690184162929654,0.0028148277197033167,0.0029394712764769793,0.003064114833250642],"_type":"histogram","values":[2,0,0,0,1,0,0,1,2,0,2,4,2,1,0,0,1,3,7,2,7,3,5,3,6,5,10,5,8,10,7,16,5,7,14,21,20,45,40,112,29,23,6,9,10,5,7,3,12,2,3,6,1,1,3,1,0,0,3,2,2,2,3,2]},"revenue":8.182416541666666e+06,"parameters/mlp_extractor.policy_net.2.weight":{"_type":"histogram","values":[2,0,3,1,1,2,4,6,13,11,13,14,31,35,42,49,50,67,84,91,96,116,119,145,133,180,173,165,179,195,206,189,180,189,171,141,128,129,109,120,92,81,78,38,50,34,37,29,17,15,8,9,9,4,5,4,1,2,0,0,0,0,0,1],"bins":[-0.6127954721450806,-0.5924229621887207,-0.5720504522323608,-0.551677942276001,-0.5313054323196411,-0.5109328627586365,-0.4905603528022766,-0.47018784284591675,-0.4498153328895569,-0.429442822933197,-0.40907031297683716,-0.3886977732181549,-0.36832526326179504,-0.3479527533054352,-0.32758021354675293,-0.30720770359039307,-0.2868351936340332,-0.26646268367767334,-0.24609017372131348,-0.22571763396263123,-0.20534512400627136,-0.1849726140499115,-0.16460007429122925,-0.14422756433486938,-0.12385505437850952,-0.10348254442214966,-0.0831100344657898,-0.06273752450942993,-0.04236495494842529,-0.02199244499206543,-0.0016199350357055664,0.018752574920654297,0.039125025272369385,0.05949753522872925,0.07987004518508911,0.10024255514144897,0.12061506509780884,0.14098763465881348,0.16136014461517334,0.1817326545715332,0.20210516452789307,0.22247767448425293,0.2428501844406128,0.26322272419929504,0.2835952341556549,0.30396774411201477,0.324340283870697,0.3447127938270569,0.36508530378341675,0.3854578137397766,0.4058303236961365,0.4262028634548187,0.4465753734111786,0.46694788336753845,0.4873204231262207,0.5076929330825806,0.5280654430389404,0.5484379529953003,0.5688104629516602,0.58918297290802,0.6095554828643799,0.6299280524253845,0.6503005623817444,0.6706730723381042,0.6910455822944641]},"cumulative_reward":834471.9118697236,"risk_penalty":0.607895677,"gradients/mlp_extractor.policy_net.0.bias":{"_type":"histogram","values":[1,0,0,0,0,0,0,0,1,0,0,1,1,0,0,0,0,0,3,1,1,2,1,2,1,0,2,2,2,1,2,2,3,0,0,1,1,1,7,3,3,1,2,0,0,1,2,2,0,3,0,1,2,0,0,1,0,0,0,1,0,0,2,1],"bins":[-0.003275380004197359,-0.003193854121491313,-0.003112328238785267,-0.0030308023560792208,-0.0029492764733731747,-0.002867750823497772,-0.002786224940791726,-0.00270469905808568,-0.002623173175379634,-0.002541647292673588,-0.0024601214099675417,-0.0023785955272614956,-0.002297069877386093,-0.0022155437618494034,-0.002134018111974001,-0.002052492229267955,-0.0019709663465619087,-0.0018894404638558626,-0.0018079145811498165,-0.0017263888148590922,-0.0016448629321530461,-0.001563337049447,-0.0014818112831562757,-0.0014002854004502296,-0.0013187595177441835,-0.0012372336350381374,-0.0011557077523320913,-0.0010741818696260452,-0.0009926562197506428,-0.0009111303370445967,-0.0008296044543385506,-0.0007480785716325045,-0.0006665525725111365,-0.0005850266898050904,-0.0005035008070990443,-0.0004219749243929982,-0.0003404490416869521,-0.00025892339181154966,-0.00017739750910550356,-9.587162639945745e-05,-1.434574369341135e-05,6.718013901263475e-05,0.00014870602171868086,0.00023023178800940514,0.00031175767071545124,0.00039328355342149734,0.0004748093197122216,0.0005563352024182677,0.0006378610851243138,0.0007193869678303599,0.000800912850536406,0.0008824386168271303,0.0009639644995331764,0.0010454903822392225,0.0011270162649452686,0.001208542031235993,0.001290067913942039,0.0013715937966480851,0.0014531195629388094,0.0015346454456448555,0.0016161713283509016,0.0016976972110569477,0.0017792230937629938,0.001860748860053718,0.0019422747427597642]},"parameters/mlp_extractor.policy_net.0.weight":{"values":[2,0,1,1,0,3,1,0,2,2,3,3,3,7,4,11,7,4,9,7,20,21,15,16,17,15,19,20,18,13,19,15,20,15,16,14,23,16,14,12,15,9,10,9,8,6,8,6,2,5,5,4,2,2,4,2,3,1,1,0,0,1,0,1],"bins":[-0.5046651363372803,-0.48853474855422974,-0.4724043905735016,-0.45627403259277344,-0.4401436448097229,-0.42401325702667236,-0.4078828990459442,-0.39175254106521606,-0.3756221532821655,-0.359491765499115,-0.34336140751838684,-0.3272310495376587,-0.31110066175460815,-0.2949702739715576,-0.27883991599082947,-0.2627095580101013,-0.24657917022705078,-0.23044878244400024,-0.2143184244632721,-0.19818806648254395,-0.1820576786994934,-0.16592729091644287,-0.14979693293571472,-0.13366657495498657,-0.11753618717193604,-0.1014057993888855,-0.08527544140815735,-0.0691450834274292,-0.05301469564437866,-0.036884307861328125,-0.020753949880599976,-0.004623591899871826,0.011506736278533936,0.027637124061584473,0.04376748204231262,0.05989784002304077,0.07602822780609131,0.09215861558914185,0.10828897356987,0.12441933155059814,0.14054971933364868,0.15668010711669922,0.17281046509742737,0.18894082307815552,0.20507121086120605,0.2212015986442566,0.23733195662498474,0.2534623146057129,0.2695927023887634,0.28572309017181396,0.3018534481525421,0.31798380613327026,0.3341141939163208,0.35024458169937134,0.3663749396800995,0.38250529766082764,0.3986356854438782,0.4147660732269287,0.43089643120765686,0.447026789188385,0.46315717697143555,0.4792875647544861,0.49541792273521423,0.5115482807159424,0.5276786684989929],"_type":"histogram"},"gradients/action_net.bias":{"values":[1,0,0,0,0,0,0,0,0,0,0,0,0,0,0,0,0,0,1,0,1,0,0,0,0,0,0,0,0,0,0,0,0,0,0,0,0,0,0,0,0,0,0,0,0,0,0,0,0,0,0,0,0,0,0,0,0,0,0,0,0,0,0,2],"bins":[-0.1874857246875763,-0.1829041987657547,-0.1783226728439331,-0.1737411469221115,-0.16915962100028992,-0.16457810997962952,-0.15999658405780792,-0.15541505813598633,-0.15083353221416473,-0.14625200629234314,-0.14167048037052155,-0.13708895444869995,-0.13250744342803955,-0.12792590260505676,-0.12334439158439636,-0.11876286566257477,-0.11418133974075317,-0.10959981381893158,-0.10501828789710999,-0.10043676942586899,-0.0958552435040474,-0.0912737175822258,-0.0866921991109848,-0.08211067318916321,-0.07752914726734161,-0.07294762134552002,-0.06836609542369843,-0.06378457695245743,-0.05920305848121643,-0.054621532559394836,-0.05004000663757324,-0.04545848071575165,-0.04087694734334946,-0.03629542142152786,-0.03171389549970627,-0.027132369577884674,-0.02255084365606308,-0.017969325184822083,-0.013387806713581085,-0.008806280791759491,-0.004224754869937897,0.0003567710518836975,0.004938296973705292,0.009519815444946289,0.014101341366767883,0.018682867288589478,0.023264385759830475,0.02784591168165207,0.03242743760347366,0.03700896352529526,0.04159048944711685,0.04617200791835785,0.05075353384017944,0.05533505976200104,0.05991658195853233,0.06449810415506363,0.06907963007688522,0.07366115599870682,0.07824267446994781,0.08282420039176941,0.087405726313591,0.0919872522354126,0.09656877815723419,0.10115029662847519,0.10573182255029678],"_type":"histogram"},"gradients/log_std":{"values":[1,0,0,0,0,0,0,1,0,0,0,0,0,0,0,0,0,0,0,0,0,0,0,0,0,1,0,0,0,0,0,0,0,0,0,0,0,0,0,0,0,0,1,0,0,0,0,0,0,0,0,0,0,0,0,0,0,0,0,0,0,0,0,1],"bins":[7.40052928449586e-05,0.0024596694856882095,0.004845333751291037,0.007230998016893864,0.009616662748157978,0.012002327479422092,0.014387991279363632,0.016773654147982597,0.01915931887924671,0.021544983610510826,0.02393064834177494,0.026316311210393906,0.02870197594165802,0.031087640672922134,0.03347330540418625,0.03585897013545036,0.03824463486671448,0.04063029959797859,0.043015964329242706,0.04540162906050682,0.047787293791770935,0.05017295479774475,0.052558619529008865,0.05494428426027298,0.057329948991537094,0.05971561372280121,0.06210127845406532,0.06448694318532944,0.06687260419130325,0.06925827264785767,0.07164393365383148,0.0740296021103859,0.07641525566577911,0.07880091667175293,0.08118658512830734,0.08357224613428116,0.08595791459083557,0.08834357559680939,0.0907292366027832,0.09311490505933762,0.09550057351589203,0.09788623452186584,0.10027189552783966,0.10265756398439407,0.10504322499036789,0.1074288934469223,0.10981455445289612,0.11220021545886993,0.11458588391542435,0.11697155237197876,0.11935721337795258,0.12174287438392639,0.1241285428404808,0.12651421129703522,0.12889987230300903,0.13128553330898285,0.13367119431495667,0.13605687022209167,0.1384425312280655,0.1408281922340393,0.14321385324001312,0.14559951424598694,0.14798519015312195,0.15037085115909576,0.15275651216506958],"_type":"histogram"},"gradients/mlp_extractor.value_net.2.weight":{"values":[2,6,5,2,5,5,10,9,11,9,11,25,26,23,33,36,40,41,52,57,69,74,78,116,131,145,144,157,185,220,192,166,148,195,225,173,153,131,147,123,106,85,61,76,67,46,42,23,25,44,21,24,24,18,10,6,6,11,6,4,2,3,2,4],"bins":[-1.3644238710403442,-1.3216631412506104,-1.278902292251587,-1.2361414432525635,-1.1933807134628296,-1.1506199836730957,-1.1078591346740723,-1.0650982856750488,-1.022337555885315,-0.9795767664909363,-0.9368159770965576,-0.894055187702179,-0.8512943983078003,-0.8085336089134216,-0.765772819519043,-0.7230120301246643,-0.6802512407302856,-0.637490451335907,-0.5947296619415283,-0.5519688725471497,-0.509208083152771,-0.46644729375839233,-0.42368650436401367,-0.380925714969635,-0.33816492557525635,-0.2954040765762329,-0.252643346786499,-0.20988261699676514,-0.1671217679977417,-0.12436091899871826,-0.08160018920898438,-0.03883945941925049,0.003921389579772949,0.04668223857879639,0.08944296836853027,0.13220369815826416,0.1749645471572876,0.21772539615631104,0.2604861259460449,0.3032468557357788,0.34600770473480225,0.3887684941291809,0.43152928352355957,0.47429007291793823,0.5170508623123169,0.5598116517066956,0.6025724411010742,0.6453332304954529,0.6880940198898315,0.7308548092842102,0.7736155986785889,0.8163763880729675,0.8591371774673462,0.9018979668617249,0.9446587562561035,0.9874195456504822,1.0301803350448608,1.0729410648345947,1.1157019138336182,1.1584627628326416,1.2012234926223755,1.2439842224121094,1.2867450714111328,1.3295059204101562,1.3722666501998901],"_type":"histogram"},"parameters/value_net.bias":{"values":[1],"bins":[0.35824069380760193,0.35824069380760193],"_type":"histogram"},"gradients/mlp_extractor.policy_net.2.bias":{"_type":"histogram","values":[1,0,0,1,0,1,0,1,2,3,0,0,1,2,0,0,1,1,1,3,5,2,2,2,3,1,3,2,2,1,2,0,2,2,1,5,0,1,2,1,1,0,0,0,1,1,0,0,0,0,0,1,0,0,0,0,0,0,0,1,1,0,0,1],"bins":[-0.0018542162142693996,-0.0017820008797571063,-0.001709785545244813,-0.0016375703271478415,-0.0015653549926355481,-0.0014931396581232548,-0.0014209244400262833,-0.00134870910551399,-0.0012764937710016966,-0.0012042784364894032,-0.00113206310197711,-0.0010598478838801384,-0.000987632549367845,-0.0009154172148555517,-0.0008432019967585802,-0.0007709866622462869,-0.0006987713277339935,-0.0006265559932217002,-0.0005543406587094069,-0.00048212544061243534,-0.000409910106100142,-0.00033769477158784866,-0.00026547955349087715,-0.0001932642189785838,-0.00012104888446629047,-4.8833549953997135e-05,2.3381784558296204e-05,9.559700265526772e-05,0.00016781222075223923,0.0002400276716798544,0.0003122428897768259,0.00038445834070444107,0.0004566735588014126,0.0005288887768983841,0.0006011042278259993,0.0006733194459229708,0.0007455348968505859,0.0008177501149475574,0.000889965333044529,0.0009621806675568223,0.0010343960020691156,0.001106611336581409,0.0011788266710937023,0.0012510418891906738,0.0013232572237029672,0.0013954725582152605,0.001467687776312232,0.0015399031108245254,0.0016121184453368187,0.001684333779849112,0.0017565491143614054,0.0018287643324583769,0.0019009796669706702,0.0019731950014829636,0.002045410219579935,0.0021176254376769066,0.0021898408886045218,0.002262056339532137,0.0023342715576291084,0.00240648677572608,0.0024787019938230515,0.0025509174447506666,0.002623132662847638,0.0026953481137752533,0.002767563331872225]},"parameters/mlp_extractor.policy_net.0.bias":{"bins":[-0.00011577014811336994,-0.00011179588182130828,-0.00010782162280520424,-0.00010384735651314259,-9.987309749703854e-05,-9.589883120497689e-05,-9.192456491291523e-05,-8.795030589681119e-05,-8.397603960474953e-05,-8.000177331268787e-05,-7.602751429658383e-05,-7.205324800452217e-05,-6.807898171246052e-05,-6.410472269635648e-05,-6.013045640429482e-05,-5.615619375021197e-05,-5.218193109612912e-05,-4.820766480406746e-05,-4.423340578796342e-05,-4.0259139495901763e-05,-3.628488047979772e-05,-3.2310614187736064e-05,-2.8336347895674407e-05,-2.4362088879570365e-05,-2.0387822587508708e-05,-1.641355629544705e-05,-1.2439297279343009e-05,-8.465030987281352e-06,-4.4907646952196956e-06,-5.16505679115653e-07,3.4577606129460037e-06,7.43202690500766e-06,1.1406300473026931e-05,1.5380559489130974e-05,1.935482578119263e-05,2.3329092073254287e-05,2.730335108935833e-05,3.1277617381419986e-05,3.525188367348164e-05,3.9226142689585686e-05,4.320040898164734e-05,4.7174675273709e-05,5.114893428981304e-05,5.51232005818747e-05,5.9097466873936355e-05,6.30717258900404e-05,6.704599218210205e-05,7.10202511982061e-05,7.499451749026775e-05,7.89687765063718e-05,8.294304279843345e-05,8.691730909049511e-05,9.089156810659915e-05,9.486583439866081e-05,9.884010069072247e-05,0.00010281435970682651,0.00010678862599888816,0.00011076289229094982,0.00011473715130705386,0.00011871141759911552,0.00012268568389117718,0.00012665994290728122,0.00013063420192338526,0.00013460847549140453,0.00013858273450750858],"_type":"histogram","values":[1,0,0,0,0,0,0,2,0,0,1,0,1,1,1,0,0,0,1,0,0,2,0,4,2,0,1,3,1,4,3,3,2,1,5,2,1,1,0,1,4,0,1,2,1,2,2,0,0,1,0,2,1,0,0,1,1,1,0,0,0,0,0,1]}}