{"gradients/mlp_extractor.policy_net.0.weight":{"bins":[-0.00784133281558752,-0.00747306551784277,-0.007104798220098019,-0.00673653045669198,-0.006368263158947229,-0.005999995861202478,-0.00563172809779644,-0.005263460800051689,-0.004895193502306938,-0.004526926204562187,-0.004158658906817436,-0.003790391143411398,-0.003422123845666647,-0.003053856547921896,-0.0026855887845158577,-0.0023173214867711067,-0.0019490541890263557,-0.0015807868912816048,-0.0012125195935368538,-0.0008442518301308155,-0.00047598453238606453,-0.00010771723464131355,0.00026055052876472473,0.0006288178265094757,0.0009970851242542267,0.0013653524219989777,0.0017336197197437286,0.0021018870174884796,0.002470155246555805,0.002838422544300556,0.003206689842045307,0.003574957139790058,0.003943225368857384,0.004311492666602135,0.004679759964346886,0.005048027262091637,0.005416294559836388,0.005784562788903713,0.006152830086648464,0.006521097384393215,0.006889364682137966,0.007257631979882717,0.007625899277627468,0.007994167506694794,0.008362434804439545,0.008730702102184296,0.009098969399929047,0.009467236697673798,0.009835503995418549,0.0102037712931633,0.01057203859090805,0.010940305888652802,0.011308573186397552,0.011676840484142303,0.012045108713209629,0.01241337601095438,0.012781643308699131,0.013149910606443882,0.013518177904188633,0.013886445201933384,0.01425471343100071,0.01462298072874546,0.014991248026490211,0.015359515324234962,0.015727782621979713],"_type":"histogram","values":[1,0,0,1,0,1,1,3,0,0,5,3,3,7,6,4,15,11,27,38,104,474,51,23,22,5,4,5,4,2,1,0,2,1,2,0,0,1,1,0,0,0,0,1,0,0,0,2,0,0,0,0,0,0,0,0,0,0,0,0,0,0,0,1]},"parameters/log_std":{"_type":"histogram","values":[1,0,0,0,0,0,0,0,0,0,0,0,0,0,0,0,0,0,0,0,0,0,0,0,0,0,0,0,0,1,0,0,0,0,0,0,0,0,0,0,0,0,0,0,0,0,0,0,0,0,2,0,0,0,0,0,0,0,0,0,0,0,0,1],"bins":[-0.018664004281163216,-0.018146870657801628,-0.01762973703444004,-0.017112603411078453,-0.016595469787716866,-0.016078336164355278,-0.01556120254099369,-0.015044068917632103,-0.014526935294270515,-0.014009801670908928,-0.01349266804754734,-0.012975534424185753,-0.012458400800824165,-0.011941267177462578,-0.01142413355410099,-0.010906999930739403,-0.010389866307377815,-0.009872732684016228,-0.00935559906065464,-0.008838465437293053,-0.008321331813931465,-0.007804198190569878,-0.00728706456720829,-0.006769930943846703,-0.006252797320485115,-0.0057356636971235275,-0.00521853007376194,-0.0047013964504003525,-0.004184262827038765,-0.0036671292036771774,-0.00314999558031559,-0.0026328619569540024,-0.002115728333592415,-0.0015985947102308273,-0.0010814610868692398,-0.0005643274635076523,-4.719384014606476e-05,0.00046993978321552277,0.0009870734065771103,0.0015042070299386978,0.0020213406533002853,0.002538474276661873,0.0030556079000234604,0.003572741523385048,0.0040898751467466354,0.004607008770108223,0.0051241423934698105,0.005641276016831398,0.0061584096401929855,0.006675543263554573,0.007192676886916161,0.007709810510277748,0.008226944133639336,0.008744077757000923,0.00926121138036251,0.009778345003724098,0.010295478627085686,0.010812612250447273,0.01132974587380886,0.011846879497170448,0.012364013120532036,0.012881146743893623,0.013398280367255211,0.013915413990616798,0.014432547613978386]},"solar_capacity":3690.810523125181,"parameters/action_net.bias":{"_type":"histogram","values":[1,0,0,0,0,0,0,0,0,0,0,0,0,0,0,0,0,0,0,0,0,0,0,1,0,0,0,0,0,0,0,0,0,0,0,0,0,0,0,0,0,0,0,0,0,0,0,0,0,0,0,0,0,0,0,0,0,0,0,0,1,1,0,1],"bins":[-0.005133168306201696,-0.004997908137738705,-0.004862648434937,-0.0047273882664740086,-0.004592128563672304,-0.0044568683952093124,-0.004321608692407608,-0.004186348523944616,-0.004051088355481625,-0.00391582865267992,-0.003780568717047572,-0.003645308781415224,-0.0035100486129522324,-0.003374788910150528,-0.0032395287416875362,-0.003104268806055188,-0.00296900887042284,-0.002833748934790492,-0.002698488999158144,-0.002563229063525796,-0.002427969127893448,-0.002292708959430456,-0.002157449023798108,-0.00202218908816576,-0.001886929152533412,-0.001751669216901064,-0.0016164092812687159,-0.0014811493456363678,-0.001345889177173376,-0.0012106294743716717,-0.00107536930590868,-0.0009401096031069756,-0.0008048489689826965,-0.0006695888005197048,-0.0005343290977180004,-0.0003990689292550087,-0.0002638092264533043,-0.00012854905799031258,6.710877642035484e-06,0.00014197081327438354,0.0002772307489067316,0.00041249068453907967,0.0005477506201714277,0.0006830105558037758,0.0008182707242667675,0.0009535306598991156,0.0010887905955314636,0.0012240505311638117,0.0013593104667961597,0.0014945704024285078,0.0016298303380608559,0.0017650903901085258,0.0019003503257408738,0.0020356103777885437,0.0021708703134208918,0.00230613024905324,0.002441390184685588,0.002576650120317936,0.002711910055950284,0.002847169991582632,0.0029824301600456238,0.003117690095677972,0.00325295003131032,0.003388209966942668,0.003523469902575016]},"_wandb":{"runtime":950},"parameters/action_net.weight":{"_type":"histogram","values":[1,0,3,0,0,0,1,5,4,4,4,8,8,3,8,8,5,14,5,10,5,12,3,8,8,7,8,9,8,5,8,10,8,10,13,13,6,14,6,9,8,8,7,3,8,6,7,1,1,3,0,1,0,2,3,0,0,0,0,0,0,0,0,1],"bins":[-0.007323648314923048,-0.007063041441142559,-0.006802434101700783,-0.006541827227920294,-0.006281220354139805,-0.0060206130146980286,-0.00576000614091754,-0.005499399267137051,-0.005238791927695274,-0.004978184588253498,-0.004717577714473009,-0.00445697084069252,-0.004196363501250744,-0.003935756627470255,-0.003675149753689766,-0.0034145424142479897,-0.0031539355404675007,-0.0028933286666870117,-0.0026327213272452354,-0.0023721144534647465,-0.00211150711402297,-0.0018509002402424812,-0.0015902933664619923,-0.001329686027020216,-0.001069079153239727,-0.000808472279459238,-0.0005478649400174618,-0.0002872580662369728,-2.665119245648384e-05,0.00023395614698529243,0.0004945634864270687,0.0007551698945462704,0.001015777699649334,0.0012763850390911102,0.0015369914472103119,0.0017975987866520882,0.0020582061260938644,0.0023188129998743534,0.0025794198736548424,0.0028400272130966187,0.0031006340868771076,0.0033612409606575966,0.003621848300099373,0.003882455173879862,0.004143062047660351,0.004403669387102127,0.004664276260882616,0.004924883600324392,0.005185490474104881,0.00544609734788537,0.0057067046873271465,0.0059673115611076355,0.006227918900549412,0.006488525774329901,0.00674913264811039,0.007009739987552166,0.007270346861332655,0.007530953735113144,0.00779156107455492,0.008052168413996696,0.008312774822115898,0.008573382161557674,0.00883398950099945,0.009094595909118652,0.009355203248560429]},"gradients/mlp_extractor.policy_net.2.bias":{"_type":"histogram","values":[1,0,0,2,0,0,0,0,0,0,1,0,0,0,0,1,3,1,0,0,0,2,1,0,1,0,0,1,3,2,3,0,3,3,1,3,5,4,0,2,2,1,2,1,1,3,0,3,0,0,1,0,2,0,2,1,0,0,0,1,0,0,0,1],"bins":[-0.0015442126896232367,-0.001501389779150486,-0.0014585668686777353,-0.0014157439582049847,-0.001372921047732234,-0.0013300980208441615,-0.0012872751103714108,-0.0012444521998986602,-0.0012016292894259095,-0.0011588063789531589,-0.0011159834684804082,-0.0010731604415923357,-0.001030337531119585,-0.0009875146206468344,-0.0009446917101740837,-0.000901868799701333,-0.0008590458892285824,-0.0008162229787558317,-0.0007734000682830811,-0.0007305770996026695,-0.0006877541891299188,-0.0006449312786571681,-0.0006021083099767566,-0.0005592853995040059,-0.0005164624890312552,-0.0004736395785585046,-0.0004308166680857539,-0.00038799375761300325,-0.00034517073072493076,-0.0003023478202521801,-0.00025952490977942944,-0.00021670199930667877,-0.00017387920524924994,-0.00013105629477649927,-8.823338430374861e-05,-4.5410473830997944e-05,-2.58756335824728e-06,4.023546352982521e-05,8.305837400257587e-05,0.00012588128447532654,0.0001687041949480772,0.00021152710542082787,0.00025435001589357853,0.0002971729845739901,0.00033999589504674077,0.00038281880551949143,0.000425641774199903,0.0004684646846726537,0.0005112875951454043,0.000554110505618155,0.0005969334160909057,0.0006397563847713172,0.0006825792952440679,0.0007254022057168186,0.0007682251743972301,0.0008110480848699808,0.0008538709953427315,0.0008966939058154821,0.0009395168162882328,0.0009823397267609835,0.0010251626372337341,0.0010679856641218066,0.0011108085745945573,0.001153631485067308,0.0011964543955400586]},"gradients/mlp_extractor.policy_net.0.bias":{"bins":[-0.0009700994705781341,-0.0009257427300326526,-0.0008813859894871712,-0.0008370293071493506,-0.0007926725666038692,-0.0007483158260583878,-0.0007039591437205672,-0.0006596024031750858,-0.0006152456626296043,-0.0005708889220841229,-0.0005265321815386415,-0.0004821754992008209,-0.0004378187586553395,-0.00039346201810985804,-0.0003491053357720375,-0.00030474859522655606,-0.0002603918546810746,-0.00021603511413559318,-0.00017167837359011173,-0.0001273216912522912,-8.296495070680976e-05,-3.8608210161328316e-05,5.748472176492214e-06,5.010527092963457e-05,9.44619532674551e-05,0.00013881863560527563,0.000183175434358418,0.00022753211669623852,0.00027188879903405905,0.0003162455977872014,0.00036060228012502193,0.0004049590788781643,0.000449315644800663,0.0004936723271384835,0.0005380291258916259,0.0005823858082294464,0.0006267426069825888,0.0006710992893204093,0.0007154559716582298,0.0007598127704113722,0.0008041694527491927,0.0008485261350870132,0.0008928829338401556,0.0009372396161779761,0.0009815962985157967,0.001025953097268939,0.0010703097796067595,0.00111466646194458,0.0011590232606977224,0.0012033800594508648,0.0012477367417886853,0.0012920934241265059,0.0013364502228796482,0.0013808069052174687,0.0014251635875552893,0.0014695203863084316,0.0015138770686462522,0.0015582337509840727,0.001602590549737215,0.0016469472320750356,0.001691303914412856,0.0017356607131659985,0.001780017395503819,0.0018243741942569613,0.0018687308765947819],"_type":"histogram","values":[1,0,0,0,1,0,1,0,2,1,2,0,0,1,2,2,0,3,2,3,6,13,8,2,1,2,2,4,0,1,0,1,0,0,0,0,0,0,0,0,1,0,1,0,0,0,0,0,0,0,0,0,0,0,0,0,0,0,0,0,0,0,0,1]},"gradients/action_net.bias":{"_type":"histogram","values":[1,0,0,0,0,0,0,0,0,0,0,0,0,0,0,0,0,0,0,0,0,0,0,0,0,0,0,0,0,0,0,0,0,1,0,0,0,0,0,0,0,0,1,0,0,0,0,0,1,0,0,0,0,0,0,0,0,0,0,0,0,0,0,1],"bins":[-0.27998265624046326,-0.2750004529953003,-0.27001821994781494,-0.265036016702652,-0.260053813457489,-0.25507161021232605,-0.2500893771648407,-0.24510717391967773,-0.24012497067451477,-0.2351427525281906,-0.23016054928302765,-0.2251783311367035,-0.22019612789154053,-0.21521390974521637,-0.2102316915988922,-0.20524948835372925,-0.20026728510856628,-0.19528506696224213,-0.19030284881591797,-0.185320645570755,-0.18033844232559204,-0.17535622417926788,-0.17037400603294373,-0.16539180278778076,-0.1604095846414566,-0.15542736649513245,-0.15044516324996948,-0.14546296000480652,-0.14048074185848236,-0.1354985386133194,-0.13051632046699524,-0.12553411722183228,-0.12055189162492752,-0.11556967347860336,-0.1105874702334404,-0.10560525208711624,-0.10062304884195328,-0.09564083069562912,-0.09065862745046616,-0.0856764167547226,-0.08069420605897903,-0.07571198791265488,-0.07072977721691132,-0.06574756652116776,-0.060765355825424194,-0.055783145129680634,-0.05080093443393707,-0.04581872373819351,-0.04083651304244995,-0.03585430234670639,-0.03087209165096283,-0.02588988095521927,-0.020907670259475708,-0.01592545583844185,-0.010943245142698288,-0.005961034446954727,-0.0009788237512111664,0.004003386944532394,0.008985597640275955,0.013967810198664665,0.018950020894408226,0.023932231590151787,0.028914444148540497,0.03389665484428406,0.03887886554002762]},"gradients/log_std":{"_type":"histogram","values":[1,0,0,0,1,0,0,0,0,0,0,1,0,0,0,0,0,0,0,0,0,0,0,0,0,0,0,0,0,0,0,0,0,1,0,0,0,0,0,0,0,0,0,0,0,0,0,0,0,0,0,0,0,0,0,0,0,0,0,0,0,0,0,1],"bins":[0.07290071249008179,0.07650519162416458,0.08010967820882797,0.08371415734291077,0.08731864392757416,0.09092312306165695,0.09452760219573975,0.09813208878040314,0.10173656791448593,0.10534104704856873,0.10894553363323212,0.11255001276731491,0.1161544919013977,0.1197589784860611,0.12336345762014389,0.12696793675422668,0.13057242333889008,0.13417690992355347,0.13778138160705566,0.14138586819171906,0.14499035477638245,0.14859482645988464,0.15219931304454803,0.15580379962921143,0.15940827131271362,0.16301275789737701,0.1666172444820404,0.1702217161655426,0.173826202750206,0.17743068933486938,0.18103516101837158,0.18463966250419617,0.18824413418769836,0.19184860587120056,0.19545310735702515,0.19905757904052734,0.20266206562519073,0.20626655220985413,0.20987102389335632,0.21347551047801971,0.2170799970626831,0.2206844687461853,0.2242889553308487,0.22789344191551208,0.23149791359901428,0.23510240018367767,0.23870688676834106,0.24231135845184326,0.24591584503650665,0.24952033162117004,0.25312480330467224,0.2567293047904968,0.260333776473999,0.2639382481575012,0.2675427198410034,0.271147221326828,0.2747516930103302,0.2783561944961548,0.281960666179657,0.2855651378631592,0.28916963934898376,0.29277411103248596,0.29637858271598816,0.29998308420181274,0.30358755588531494]},"gradients/action_net.weight":{"bins":[-0.27792778611183167,-0.2693057060241699,-0.2606836259365082,-0.25206154584884644,-0.2434394657611847,-0.23481738567352295,-0.2261952906847,-0.21757321059703827,-0.20895113050937653,-0.20032905042171478,-0.19170697033405304,-0.1830848753452301,-0.17446279525756836,-0.16584071516990662,-0.15721863508224487,-0.14859655499458313,-0.1399744749069214,-0.13135239481925964,-0.1227303147315979,-0.11410823464393616,-0.10548615455627441,-0.09686405956745148,-0.08824197947978973,-0.07961989939212799,-0.07099781930446625,-0.062375739216804504,-0.05375365912914276,-0.04513157904148102,-0.03650948405265808,-0.027887403964996338,-0.019265323877334595,-0.010643243789672852,-0.0020211338996887207,0.0066009461879730225,0.015223026275634766,0.02384510636329651,0.03246718645095825,0.04108928143978119,0.04971136152744293,0.058333441615104675,0.06695552170276642,0.07557760179042816,0.0841996818780899,0.09282176196575165,0.10144385695457458,0.11006593704223633,0.11868801712989807,0.12731009721755981,0.13593217730522156,0.1445542573928833,0.15317633748054504,0.1617984175682068,0.17042049765586853,0.17904257774353027,0.1876646727323532,0.19628675282001495,0.2049088329076767,0.21353091299533844,0.22215299308300018,0.23077508807182312,0.23939716815948486,0.2480192482471466,0.25664132833480835,0.2652634084224701,0.27388548851013184],"_type":"histogram","values":[1,1,3,2,1,0,1,3,0,2,1,0,2,1,0,3,0,0,4,3,6,5,4,2,16,13,10,17,21,15,10,17,7,18,16,14,16,18,15,9,6,3,3,5,4,2,1,0,1,1,1,1,0,1,0,0,1,4,1,0,3,1,1,3]},"gradients/value_net.bias":{"values":[1],"bins":[-1318.236328125,-1318.236328125],"_type":"histogram"},"parameters/value_net.bias":{"values":[1],"bins":[0.38139066100120544,0.38139066100120544],"_type":"histogram"},"parameters/mlp_extractor.value_net.2.bias":{"_type":"histogram","values":[3,1,1,1,0,0,1,1,1,0,1,3,4,2,2,2,1,2,2,0,2,2,0,0,0,0,0,0,0,0,0,0,0,0,0,0,0,0,0,0,0,0,0,1,1,1,0,2,1,3,3,3,1,3,4,2,2,0,1,0,1,0,2,1],"bins":[-0.10380475968122482,-0.10071458667516708,-0.09762441366910934,-0.0945342406630516,-0.09144406020641327,-0.08835388720035553,-0.08526371419429779,-0.08217354118824005,-0.07908336818218231,-0.07599319517612457,-0.07290302217006683,-0.0698128491640091,-0.06672267615795135,-0.06363250315189362,-0.06054232269525528,-0.05745214968919754,-0.0543619766831398,-0.05127180367708206,-0.04818163067102432,-0.045091453939676285,-0.042001280933618546,-0.03891110420227051,-0.03582093119621277,-0.03273075819015503,-0.02964058518409729,-0.02655041217803955,-0.02346023917198181,-0.020370066165924072,-0.017279885709285736,-0.014189712703227997,-0.011099539697170258,-0.008009366691112518,-0.004919201135635376,-0.0018290281295776367,0.0012611448764801025,0.004351317882537842,0.007441490888595581,0.010531671345233917,0.013621844351291656,0.016712017357349396,0.019802190363407135,0.022892363369464874,0.025982536375522614,0.029072709381580353,0.03216288611292839,0.03525305911898613,0.03834323585033417,0.04143340885639191,0.044523581862449646,0.047613754868507385,0.050703927874565125,0.05379410460591316,0.0568842776119709,0.05997445061802864,0.06306462734937668,0.06615480035543442,0.06924497336149216,0.0723351463675499,0.07542531937360764,0.07851549237966537,0.08160567283630371,0.08469584584236145,0.08778601884841919,0.09087619185447693,0.09396636486053467]},"_step":10251,"gradients/value_net.weight":{"values":[32,0,0,0,0,0,0,0,0,0,0,0,0,0,0,0,0,0,0,0,0,0,0,0,0,0,0,0,0,0,0,0,0,0,0,0,0,0,0,0,0,0,0,0,0,0,0,0,0,0,0,0,0,0,0,0,0,0,0,0,0,0,0,32],"bins":[-1318.2174072265625,-1277.0233154296875,-1235.8292236328125,-1194.6351318359375,-1153.4410400390625,-1112.246826171875,-1071.052734375,-1029.858642578125,-988.66455078125,-947.470458984375,-906.2763671875,-865.082275390625,-823.88818359375,-782.694091796875,-741.4999389648438,-700.3058471679688,-659.1117553710938,-617.9176635742188,-576.7235717773438,-535.5294189453125,-494.3353271484375,-453.1412353515625,-411.9471435546875,-370.7530517578125,-329.5589599609375,-288.3648681640625,-247.1707763671875,-205.9765625,-164.782470703125,-123.58837890625,-82.394287109375,-41.2001953125,-0.006103515625,41.18798828125,82.382080078125,123.576171875,164.770263671875,205.96435546875,247.1585693359375,288.3526611328125,329.5467529296875,370.7408447265625,411.9349365234375,453.1290283203125,494.3231201171875,535.5172119140625,576.7113647460938,617.9054565429688,659.0995483398438,700.2936401367188,741.4877319335938,782.681884765625,823.8759765625,865.070068359375,906.26416015625,947.458251953125,988.65234375,1029.846435546875,1071.04052734375,1112.234619140625,1153.4288330078125,1194.6229248046875,1235.8170166015625,1277.0111083984375,1318.2052001953125],"_type":"histogram"},"gradients/mlp_extractor.value_net.2.bias":{"_type":"histogram","values":[1,0,0,0,0,0,1,0,0,1,0,0,0,1,0,1,0,2,1,2,0,0,1,2,0,0,3,2,1,0,3,4,1,4,1,2,1,4,3,1,1,5,0,1,0,1,3,0,0,1,0,0,2,0,1,0,1,2,0,0,1,1,0,1],"bins":[-0.9735654592514038,-0.945482611656189,-0.9173997044563293,-0.8893168568611145,-0.8612339496612549,-0.83315110206604,-0.8050682544708252,-0.7769854068756104,-0.7489024996757507,-0.7208195924758911,-0.6927367448806763,-0.6646538972854614,-0.6365710496902466,-0.608488142490387,-0.5804052948951721,-0.5523223876953125,-0.5242395401000977,-0.4961566627025604,-0.4680737853050232,-0.43999093770980835,-0.41190803050994873,-0.3838251829147339,-0.35574233531951904,-0.3276594281196594,-0.2995765805244446,-0.27149373292922974,-0.24341082572937012,-0.21532797813415527,-0.18724513053894043,-0.1591622233390808,-0.13107937574386597,-0.10299646854400635,-0.07491368055343628,-0.046830832958221436,-0.018747925758361816,0.009334921836853027,0.037417829036712646,0.06550067663192749,0.09358352422714233,0.12166643142700195,0.1497492790222168,0.17783212661743164,0.20591503381729126,0.2339978814125061,0.26208072900772095,0.29016363620758057,0.3182464838027954,0.34632936120033264,0.3744122385978699,0.4024951159954071,0.43057799339294434,0.4586608409881592,0.4867437183856964,0.5148265957832336,0.5429094433784485,0.5709923505783081,0.599075198173523,0.6271580457687378,0.6552409529685974,0.6833238005638123,0.7114067077636719,0.7394895553588867,0.7675724029541016,0.7956553101539612,0.823738157749176]},"_timestamp":1.7486462637825184e+09,"step":10239,"wind_capacity":1955.1433163810989,"revenue":8.298270195666135e+06,"cumulative_reward":835183.7679352631,"gradients/mlp_extractor.policy_net.2.weight":{"_type":"histogram","values":[12,3,2,25,7,4,6,10,7,20,7,10,14,19,49,48,47,37,45,57,58,51,69,75,79,112,120,109,145,212,248,350,331,266,207,146,108,113,113,69,94,53,61,56,57,43,50,34,60,47,11,9,21,14,14,6,15,0,6,6,16,2,3,8],"bins":[-0.0015441696159541607,-0.0014959258260205388,-0.001447682036086917,-0.001399438246153295,-0.0013511944562196732,-0.001302950782701373,-0.0012547069927677512,-0.0012064632028341293,-0.0011582194129005075,-0.0011099756229668856,-0.0010617318330332637,-0.0010134880430996418,-0.0009652443113736808,-0.000917000521440059,-0.000868756789714098,-0.0008205129997804761,-0.0007722692098468542,-0.0007240254199132323,-0.0006757816299796104,-0.0006275378982536495,-0.0005792941083200276,-0.0005310503765940666,-0.00048280658666044474,-0.00043456279672682285,-0.00038631900679320097,-0.0003380752168595791,-0.0002898314269259572,-0.00024158763699233532,-0.00019334396347403526,-0.00014510017354041338,-9.68563836067915e-05,-4.861259367316961e-05,-3.688037395477295e-07,4.7874986194074154e-05,9.611877612769604e-05,0.00014436256606131792,0.0001926063559949398,0.00024085002951323986,0.00028909381944686174,0.00033733760938048363,0.0003855813993141055,0.0004338251892477274,0.0004820689791813493,0.0005303127691149712,0.0005785565008409321,0.000626800290774554,0.000675044022500515,0.0007232878124341369,0.0007715316023677588,0.0008197753923013806,0.0008680191822350025,0.0009162629139609635,0.0009645067038945854,0.0010127504356205463,0.0010609942255541682,0.00110923801548779,0.001157481805421412,0.0012057255953550339,0.0012539693852886558,0.0013022131752222776,0.0013504568487405777,0.0013987006386741996,0.0014469444286078215,0.0014951882185414433,0.0015434320084750652]},"risk_penalty":0.571084175,"parameters/mlp_extractor.value_net.0.bias":{"bins":[-0.08611894398927689,-0.08334285020828247,-0.08056676387786865,-0.07779067009687424,-0.07501458376646042,-0.072238489985466,-0.06946240365505219,-0.06668630987405777,-0.06391021609306335,-0.061134129762649536,-0.05835803970694542,-0.0555819496512413,-0.05280585587024689,-0.05002976581454277,-0.047253675758838654,-0.04447758570313454,-0.04170149564743042,-0.0389254055917263,-0.036149315536022186,-0.03337322548031807,-0.030597135424613953,-0.027821041643619537,-0.02504495158791542,-0.022268861532211304,-0.01949276775121689,-0.01671668142080307,-0.013940587639808655,-0.011164501309394836,-0.008388407528400421,-0.005612321197986603,-0.0028362274169921875,-6.014108657836914e-05,0.002715952694416046,0.005492046475410461,0.00826813280582428,0.011044226586818695,0.013820312917232513,0.01659640669822693,0.019372493028640747,0.022148586809635162,0.02492467314004898,0.027700766921043396,0.030476856976747513,0.03325294703245163,0.036029040813446045,0.03880513086915016,0.04158122092485428,0.044357310980558395,0.04713340103626251,0.04990949109196663,0.052685581147670746,0.05546167120337486,0.05823776125907898,0.061013855040073395,0.06378994882106781,0.06656603515148163,0.06934212148189545,0.07211821526288986,0.07489430904388428,0.0776703953742981,0.08044648915529251,0.08322257548570633,0.08599866926670074,0.08877475559711456,0.09155084937810898],"_type":"histogram","values":[1,2,0,0,1,2,1,1,1,2,1,0,1,5,6,2,3,1,0,0,2,2,0,1,1,0,0,0,2,0,0,1,0,1,0,0,0,0,1,1,0,2,1,1,0,0,2,0,1,4,0,1,3,2,0,2,1,0,0,1,0,0,0,1]},"battery_energy":5284.332423343609,"_runtime":950.5404696,"parameters/mlp_extractor.policy_net.2.bias":{"bins":[-4.973425529897213e-05,-4.8455029173055664e-05,-4.7175806685118005e-05,-4.589658055920154e-05,-4.461735807126388e-05,-4.3338131945347413e-05,-4.205890581943095e-05,-4.077968333149329e-05,-3.950046084355563e-05,-3.822123471763916e-05,-3.69420085917227e-05,-3.566278610378504e-05,-3.438355997786857e-05,-3.3104333851952106e-05,-3.182511136401445e-05,-3.054588887607679e-05,-2.926666275016032e-05,-2.798743844323326e-05,-2.6708214136306196e-05,-2.5428989829379134e-05,-2.414976552245207e-05,-2.2870539396535605e-05,-2.1591315089608543e-05,-2.031209078268148e-05,-1.9032864656765014e-05,-1.7753642168827355e-05,-1.647441604291089e-05,-1.519519355497323e-05,-1.3915967429056764e-05,-1.2636744941119105e-05,-1.1357518815202639e-05,-1.007829632726498e-05,-8.799070201348513e-06,-7.519844075432047e-06,-6.240621587494388e-06,-4.961395461577922e-06,-3.682172973640263e-06,-2.402946847723797e-06,-1.123724359786138e-06,1.5550176613032818e-07,1.4347242540679872e-06,2.7139503799844533e-06,3.993174686911516e-06,5.2723989938385785e-06,6.551625119755045e-06,7.830849426682107e-06,9.11007373360917e-06,1.0389298040536232e-05,1.1668522347463295e-05,1.2947746654390357e-05,1.422697096131742e-05,1.5506195268244483e-05,1.6785419575171545e-05,1.806464570108801e-05,1.9343870008015074e-05,2.0623094314942136e-05,2.19023186218692e-05,2.318154292879626e-05,2.4460767235723324e-05,2.5739991542650387e-05,2.7019217668566853e-05,2.8298440156504512e-05,2.9577666282420978e-05,3.085688877035864e-05,3.21361148962751e-05],"_type":"histogram","values":[1,0,0,0,0,1,0,0,0,0,0,0,0,0,0,0,0,0,0,0,0,3,0,1,1,1,0,1,1,1,0,1,2,1,3,1,2,3,4,4,2,4,1,2,4,1,4,1,0,1,2,2,1,0,1,0,3,0,0,0,0,1,1,1]},"gradients/mlp_extractor.value_net.0.weight":{"_type":"histogram","values":[2,0,1,1,0,3,0,0,2,1,0,1,6,0,1,2,3,0,7,6,2,14,5,12,23,38,65,386,113,44,23,15,11,6,4,4,6,8,1,2,2,0,2,3,1,0,0,0,0,1,2,0,0,0,0,0,0,1,0,0,0,0,0,2],"bins":[-3.697361469268799,-3.563286304473877,-3.429211139678955,-3.295135974884033,-3.1610605716705322,-3.0269854068756104,-2.8929102420806885,-2.7588350772857666,-2.6247596740722656,-2.4906845092773438,-2.356609344482422,-2.2225341796875,-2.088459014892578,-1.9543837308883667,-1.8203085660934448,-1.6862332820892334,-1.5521581172943115,-1.4180829524993896,-1.2840077877044678,-1.1499323844909668,-1.015857219696045,-0.881782054901123,-0.7477068901062012,-0.6136317253112793,-0.4795565605163574,-0.34548115730285645,-0.21140599250793457,-0.0773308277130127,0.05674433708190918,0.19081950187683105,0.32489490509033203,0.4589700698852539,0.5930452346801758,0.7271203994750977,0.8611955642700195,0.9952709674835205,1.1293461322784424,1.2634212970733643,1.3974964618682861,1.531571626663208,1.665647029876709,1.7997221946716309,1.9337973594665527,2.0678725242614746,2.2019476890563965,2.3360228538513184,2.4700982570648193,2.604173421859741,2.738248586654663,2.872323751449585,3.006399154663086,3.140474319458008,3.2745494842529297,3.4086246490478516,3.5426998138427734,3.6767749786376953,3.810850143432617,3.944925546646118,4.079000473022461,4.213075637817383,4.347151279449463,4.481226444244385,4.615301609039307,4.7493767738342285,4.88345193862915]},"hydro_capacity":2010.1007894024629,"gradients/mlp_extractor.value_net.2.weight":{"values":[10,6,4,3,5,19,17,19,40,28,22,59,44,31,40,55,65,31,69,22,38,115,71,28,75,166,147,83,174,249,162,151,163,185,232,165,108,115,145,114,26,61,89,49,26,76,38,83,62,38,28,39,36,34,24,27,21,18,10,3,0,1,9,23],"bins":[-0.9735162258148193,-0.943093478679657,-0.9126707315444946,-0.8822479248046875,-0.8518251776695251,-0.8214024305343628,-0.7909796237945557,-0.7605568766593933,-0.730134129524231,-0.6997113823890686,-0.6692886352539062,-0.6388658285140991,-0.6084430813789368,-0.5780203342437744,-0.5475975275039673,-0.5171747803688049,-0.4867520332336426,-0.4563292860984802,-0.42590653896331787,-0.39548373222351074,-0.3650609850883484,-0.33463823795318604,-0.3042154312133789,-0.27379268407821655,-0.2433699369430542,-0.21294718980789185,-0.1825244426727295,-0.15210163593292236,-0.12167888879776001,-0.09125614166259766,-0.06083333492279053,-0.030410587787628174,1.2218952178955078e-05,0.03043496608734131,0.06085771322250366,0.09128051996231079,0.12170326709747314,0.1521260142326355,0.18254882097244263,0.21297156810760498,0.24339431524276733,0.2738170623779297,0.30423980951309204,0.33466261625289917,0.3650853633880615,0.3955081105232239,0.425930917263031,0.45635366439819336,0.4867764115333557,0.5171991586685181,0.5476219654083252,0.5780447125434875,0.6084674596786499,0.6388902068138123,0.6693129539489746,0.6997357606887817,0.7301585078239441,0.7605812549591064,0.7910040616989136,0.8214268088340759,0.8518495559692383,0.8822723031044006,0.912695050239563,0.9431178569793701,0.9735406041145325],"_type":"histogram"},"gradients/mlp_extractor.value_net.0.bias":{"bins":[-0.7032926082611084,-0.6777899861335754,-0.6522874236106873,-0.6267848014831543,-0.6012821793556213,-0.5757796168327332,-0.5502769947052002,-0.524774432182312,-0.49927181005477905,-0.4737691879272461,-0.4482665956020355,-0.42276400327682495,-0.397261381149292,-0.3717587888240814,-0.34625619649887085,-0.3207535743713379,-0.2952509820461273,-0.26974838972091675,-0.2442457675933838,-0.21874317526817322,-0.19324058294296265,-0.1677379608154297,-0.1422353982925415,-0.11673277616500854,-0.09123015403747559,-0.0657275915145874,-0.04022496938705444,-0.014722347259521484,0.0107802152633667,0.03628283739089966,0.06178545951843262,0.0872880220413208,0.11279064416885376,0.13829326629638672,0.1637958288192749,0.18929845094680786,0.21480107307434082,0.240303635597229,0.26580625772476196,0.2913088798522949,0.3168114423751831,0.34231406450271606,0.367816686630249,0.3933192491531372,0.41882187128067017,0.44432446360588074,0.4698270559310913,0.49532967805862427,0.5208323001861572,0.5463348627090454,0.5718374848365784,0.5973401069641113,0.6228426694869995,0.6483452916145325,0.6738479137420654,0.6993504762649536,0.7248530983924866,0.7503557205200195,0.7758582830429077,0.8013609051704407,0.8268634676933289,0.8523660898208618,0.8778687119483948,0.903371274471283,0.9288738965988159],"_type":"histogram","values":[1,0,0,0,0,1,0,0,0,0,0,0,3,0,0,1,1,0,1,1,0,5,0,1,2,4,3,9,6,7,2,4,1,0,2,2,1,2,0,0,0,0,1,1,1,0,0,0,0,0,0,0,0,0,0,0,0,0,0,0,0,0,0,1]},"battery_capacity":6700.217980006688,"parameters/value_net.weight":{"bins":[-0.6416090130805969,-0.6204918026924133,-0.5993746519088745,-0.5782574415206909,-0.5571402907371521,-0.5360230803489685,-0.5149059295654297,-0.4937887191772461,-0.4726715385913849,-0.4515543580055237,-0.4304371774196625,-0.40931999683380127,-0.3882027864456177,-0.36708560585975647,-0.34596842527389526,-0.32485124468803406,-0.30373406410217285,-0.28261688351631165,-0.26149970293045044,-0.24038252234458923,-0.21926534175872803,-0.19814813137054443,-0.17703095078468323,-0.15591377019882202,-0.13479655981063843,-0.11367940902709961,-0.09256219863891602,-0.0714450478553772,-0.050327837467193604,-0.029210686683654785,-0.008093476295471191,0.013023674488067627,0.034140944480895996,0.05525815486907959,0.07637530565261841,0.097492516040802,0.11860966682434082,0.13972687721252441,0.16084402799606323,0.18196123838424683,0.20307838916778564,0.22419559955596924,0.24531278014183044,0.26642996072769165,0.28754717111587524,0.30866435170173645,0.32978153228759766,0.35089871287345886,0.37201589345932007,0.3931330740451813,0.4142502546310425,0.4353674352169037,0.4564846158027649,0.4776018261909485,0.4987190067768097,0.5198361873626709,0.5409533977508545,0.5620705485343933,0.5831876993179321,0.6043049097061157,0.6254221200942993,0.6465392708778381,0.6676564812660217,0.6887736320495605,0.7098908424377441],"_type":"histogram","values":[1,0,3,3,4,3,2,2,3,1,6,4,0,0,0,0,0,0,0,0,0,0,0,0,0,0,0,0,0,0,0,0,0,0,0,0,0,0,0,0,0,0,0,0,0,0,0,1,1,2,7,4,3,2,4,3,1,1,0,0,0,0,2,1]},"parameters/mlp_extractor.policy_net.0.bias":{"values":[1,0,0,0,1,0,0,0,0,0,0,0,1,0,0,0,0,1,0,0,0,2,0,3,1,0,1,2,1,2,3,4,2,5,5,2,4,3,3,4,0,2,4,0,0,2,1,0,0,0,2,1,0,0,0,0,0,0,0,0,0,0,0,1],"bins":[-5.612248423858546e-05,-5.4532793001271784e-05,-5.294310540193692e-05,-5.1353414164623246e-05,-4.976372656528838e-05,-4.817403532797471e-05,-4.658434772863984e-05,-4.499465649132617e-05,-4.3404965254012495e-05,-4.181527765467763e-05,-4.0225586417363957e-05,-3.8635895180050284e-05,-3.704620758071542e-05,-3.545651998138055e-05,-3.386682510608807e-05,-3.2277137506753206e-05,-3.068744990741834e-05,-2.9097758670104668e-05,-2.7508069251780398e-05,-2.5918378014466725e-05,-2.4328688596142456e-05,-2.273900099680759e-05,-2.1149309759493917e-05,-1.9559618522180244e-05,-1.796993092284538e-05,-1.6380239685531706e-05,-1.479055208619684e-05,-1.3200860848883167e-05,-1.1611169611569494e-05,-1.0021482012234628e-05,-8.431790774920955e-06,-6.8421031755860895e-06,-5.252411938272417e-06,-3.6627207009587437e-06,-2.073033101623878e-06,-4.83341864310205e-07,1.1063457350246608e-06,2.6960369723383337e-06,4.285728209652007e-06,5.8754158089868724e-06,7.465107046300545e-06,9.054794645635411e-06,1.0644485882949084e-05,1.2234177120262757e-05,1.3823864719597623e-05,1.5413554137921892e-05,1.7003245375235565e-05,1.8592934793559834e-05,2.0182624211884104e-05,2.1772313630208373e-05,2.3362003048532642e-05,2.4951694285846315e-05,2.6541383704170585e-05,2.8131073122494854e-05,2.9720762540819123e-05,3.1310453778132796e-05,3.290014137746766e-05,3.4489832614781335e-05,3.607952385209501e-05,3.7669211451429874e-05,3.9258902688743547e-05,4.084859028807841e-05,4.2438281525392085e-05,4.402796912472695e-05,4.5617660362040624e-05],"_type":"histogram"},"parameters/mlp_extractor.policy_net.2.weight":{"_type":"histogram","values":[5,2,1,1,2,7,1,7,15,12,19,20,32,33,53,60,59,69,76,91,103,104,123,125,136,169,161,188,185,164,166,182,147,166,157,142,133,151,107,117,69,91,84,72,43,57,42,33,26,22,19,10,5,11,4,5,2,4,4,1,0,0,0,1],"bins":[-0.5769569277763367,-0.5579932928085327,-0.5390296578407288,-0.5200660228729248,-0.5011024475097656,-0.48213881254196167,-0.4631751775741577,-0.44421154260635376,-0.4252479076385498,-0.40628430247306824,-0.3873206675052643,-0.3683570623397827,-0.34939342737197876,-0.3304297924041748,-0.31146615743637085,-0.2925025522708893,-0.2735389173030853,-0.25457528233528137,-0.2356116771697998,-0.21664804220199585,-0.1976844072341919,-0.17872080206871033,-0.15975716710090637,-0.14079353213310242,-0.12182992696762085,-0.1028662919998169,-0.08390265703201294,-0.06493902206420898,-0.04597538709640503,-0.02701181173324585,-0.008048176765441895,0.01091545820236206,0.029879093170166016,0.04884272813796997,0.06780636310577393,0.08676999807357788,0.10573357343673706,0.12469720840454102,0.14366084337234497,0.16262447834014893,0.18158811330795288,0.20055171847343445,0.2195153534412384,0.23847898840904236,0.2574425935745239,0.2764062285423279,0.29536986351013184,0.3143334686756134,0.33329710364341736,0.3522607386112213,0.3712243437767029,0.39018797874450684,0.4091516137123108,0.42811524868011475,0.4470788538455963,0.46604248881340027,0.48500609397888184,0.5039697289466858,0.5229333639144897,0.5418969988822937,0.5608606338500977,0.5798242092132568,0.5987878441810608,0.6177514791488647,0.6367151141166687]},"net_profit":8.298117074573557e+06,"parameters/mlp_extractor.policy_net.0.weight":{"values":[1,0,0,2,0,0,1,5,1,2,2,2,4,5,2,7,7,7,8,9,15,7,15,19,19,23,24,28,38,33,41,36,27,25,34,28,29,21,31,19,26,21,24,17,26,17,21,13,15,14,12,6,4,10,2,5,6,3,4,5,0,1,1,2],"bins":[-0.5737355351448059,-0.5570930242538452,-0.5404505729675293,-0.5238080620765686,-0.5071655511856079,-0.4905230402946472,-0.4738805592060089,-0.4572380781173706,-0.4405955672264099,-0.4239530563354492,-0.4073105752468109,-0.3906680941581726,-0.3740255832672119,-0.3573830723762512,-0.3407405912876129,-0.3240981101989746,-0.3074555993080139,-0.2908130884170532,-0.2741706073284149,-0.2575281262397766,-0.24088561534881592,-0.22424310445785522,-0.20760062336921692,-0.1909581422805786,-0.17431563138961792,-0.15767312049865723,-0.14103063941001892,-0.12438815832138062,-0.10774564743041992,-0.09110313653945923,-0.07446065545082092,-0.05781817436218262,-0.0411757230758667,-0.024533212184906006,-0.0078907310962677,0.008751749992370605,0.0253942608833313,0.04203677177429199,0.0586792528629303,0.0753217339515686,0.0919642448425293,0.10860675573348999,0.1252492368221283,0.1418917179107666,0.1585342288017273,0.175176739692688,0.1918192207813263,0.2084617018699646,0.2251042127609253,0.2417467087507248,0.2583892047405243,0.2750316858291626,0.2916741967201233,0.308316707611084,0.3249591886997223,0.3416016697883606,0.3582441806793213,0.374886691570282,0.3915291726589203,0.4081716537475586,0.4248141646385193,0.44145667552948,0.4580991566181183,0.4747416377067566,0.4913841485977173],"_type":"histogram"},"parameters/mlp_extractor.value_net.2.weight":{"bins":[-0.6891798377037048,-0.6688233613967896,-0.6484668850898743,-0.628110408782959,-0.6077539324760437,-0.5873974561691284,-0.5670409798622131,-0.5466845035552979,-0.5263280272483826,-0.5059715509414673,-0.485615074634552,-0.4652585983276367,-0.44490212202072144,-0.42454564571380615,-0.40418916940689087,-0.3838326930999756,-0.3634762167930603,-0.343119740486145,-0.32276326417922974,-0.30240678787231445,-0.28205031156539917,-0.2616938352584839,-0.2413373589515686,-0.22098088264465332,-0.20062440633773804,-0.18026793003082275,-0.15991145372390747,-0.1395549774169922,-0.1191985011100769,-0.09884202480316162,-0.07848554849624634,-0.058129072189331055,-0.03777265548706055,-0.017416179180145264,0.0029402971267700195,0.023296773433685303,0.043653249740600586,0.06400972604751587,0.08436620235443115,0.10472267866134644,0.12507915496826172,0.145435631275177,0.16579210758209229,0.18614858388900757,0.20650506019592285,0.22686153650283813,0.24721801280975342,0.2675744891166687,0.287930965423584,0.30828744173049927,0.32864391803741455,0.34900039434432983,0.3693568706512451,0.3897133469581604,0.4100698232650757,0.43042629957199097,0.45078277587890625,0.47113925218582153,0.4914957284927368,0.5118522047996521,0.5322086811065674,0.5525651574134827,0.572921633720398,0.5932781100273132,0.6136345863342285],"_type":"histogram","values":[1,1,1,1,1,4,3,1,5,4,6,4,19,14,9,25,40,43,36,67,56,85,91,98,115,112,125,161,149,153,159,171,159,169,164,154,178,145,162,132,135,115,123,98,90,88,87,63,43,53,37,24,26,27,13,12,15,6,6,5,3,1,2,1]},"reward":82.9811678903147,"parameters/mlp_extractor.value_net.0.weight":{"values":[1,1,0,1,1,1,3,2,3,4,3,7,3,8,11,13,12,15,25,16,24,32,25,27,26,22,30,37,32,37,26,22,35,33,27,26,30,26,27,18,19,17,15,16,8,14,8,5,6,9,4,3,3,3,2,2,0,2,1,1,0,0,1,1],"bins":[-0.5488477349281311,-0.5307514667510986,-0.5126551985740662,-0.4945589303970337,-0.4764626622200012,-0.45836639404296875,-0.4402701258659363,-0.4221738576889038,-0.40407758951187134,-0.38598132133483887,-0.3678850531578064,-0.3497887849807739,-0.33169254660606384,-0.31359627842903137,-0.2955000102519989,-0.27740374207496643,-0.25930747389793396,-0.2412112057209015,-0.22311493754386902,-0.20501866936683655,-0.18692240118980408,-0.1688261330127716,-0.15072986483573914,-0.13263359665870667,-0.11453735828399658,-0.09644109010696411,-0.07834482192993164,-0.06024855375289917,-0.0421522855758667,-0.02405601739883423,-0.005959749221801758,0.012136518955230713,0.030232787132263184,0.048329055309295654,0.06642532348632812,0.0845215916633606,0.10261785984039307,0.12071412801742554,0.138810396194458,0.15690666437149048,0.17500293254852295,0.19309917092323303,0.2111954391002655,0.22929170727729797,0.24738797545433044,0.2654842436313629,0.2835805118083954,0.30167677998542786,0.3197730481624603,0.3378693163394928,0.35596558451652527,0.37406185269355774,0.3921581208705902,0.4102543592453003,0.42835062742233276,0.44644689559936523,0.4645431637763977,0.4826394319534302,0.5007357001304626,0.5188319683074951,0.5369282364845276,0.5550245046615601,0.5731207728385925,0.591217041015625,0.6093133091926575],"_type":"histogram"}}