{"action_wind":-1,"_step":29037,"price_forecast":3.147003412246704,"gradients/mlp_extractor.value_net.0.bias":{"values":[1,0,0,0,0,0,0,0,0,0,0,0,0,1,1,1,0,0,0,0,0,0,1,0,3,2,1,2,3,2,2,2,9,9,2,4,4,2,1,1,2,0,1,0,0,0,0,1,0,4,0,0,0,0,0,0,0,0,0,0,1,0,0,1],"bins":[-0.9873340725898743,-0.957571804523468,-0.927809476852417,-0.8980472087860107,-0.8682849407196045,-0.8385226130485535,-0.8087603449821472,-0.7789980173110962,-0.7492357492446899,-0.7194734811782837,-0.6897111535072327,-0.6599488854408264,-0.6301865577697754,-0.6004242897033691,-0.5706620216369629,-0.5408997535705566,-0.5111374258995056,-0.48137515783309937,-0.45161283016204834,-0.4218505620956421,-0.39208823442459106,-0.3623259663581848,-0.33256369829177856,-0.30280137062072754,-0.2730391025543213,-0.24327683448791504,-0.213514506816864,-0.18375223875045776,-0.1539899706840515,-0.12422764301300049,-0.09446537494659424,-0.06470304727554321,-0.03494071960449219,-0.0051784515380859375,0.024583876132965088,0.05434614419937134,0.08410847187042236,0.11387073993682861,0.14363300800323486,0.1733953356742859,0.20315760374069214,0.2329198718070984,0.2626821994781494,0.29244446754455566,0.3222067356109619,0.35196906328201294,0.3817313313484192,0.4114936590194702,0.44125592708587646,0.4710182249546051,0.5007805228233337,0.53054279088974,0.560305118560791,0.5900673866271973,0.6198296546936035,0.6495919227600098,0.6793542504310608,0.7091165781021118,0.7388788461685181,0.7686411142349243,0.7984033823013306,0.8281657099723816,0.8579279780387878,0.8876903057098389,0.9174525737762451],"_type":"histogram"},"gradients/mlp_extractor.policy_net.0.bias":{"_type":"histogram","values":[1,0,0,0,0,0,0,0,0,0,0,0,0,0,0,0,0,1,1,2,0,0,2,1,1,1,2,0,0,0,0,1,4,2,3,2,6,8,9,3,0,2,3,0,0,1,0,2,0,1,0,0,0,0,1,2,0,0,1,0,0,0,0,1],"bins":[-0.0011581408325582743,-0.0011270600371062756,-0.0010959792416542768,-0.0010648984462022781,-0.0010338176507502794,-0.0010027368552982807,-0.0009716560016386211,-0.0009405752061866224,-0.0009094943525269628,-0.000878413557074964,-0.0008473327616229653,-0.0008162519661709666,-0.0007851711707189679,-0.0007540903752669692,-0.0007230095798149705,-0.0006919287261553109,-0.0006608479307033122,-0.0006297671352513134,-0.0005986863397993147,-0.0005676054861396551,-0.0005365246906876564,-0.0005054438952356577,-0.000474363099783659,-0.00044328230433166027,-0.00041220150887966156,-0.00038112065522000194,-0.0003500398597680032,-0.0003189590643160045,-0.0002878782688640058,-0.0002567974734120071,-0.00022571661975234747,-0.00019463582430034876,-0.00016355502884835005,-0.00013247423339635134,-0.00010139343794435263,-7.0312584284693e-05,-3.923178883269429e-05,-8.150993380695581e-06,2.292980207130313e-05,5.401059752330184e-05,8.509145118296146e-05,0.00011617224663496017,0.00014725304208695889,0.0001783338375389576,0.0002094146329909563,0.00024049542844295502,0.00027157628210261464,0.00030265707755461335,0.00033373787300661206,0.0003648186684586108,0.00039589949301443994,0.00042698028846643865,0.0004580611130222678,0.0004891419084742665,0.0005202227039262652,0.000551303499378264,0.0005823842948302627,0.0006134651484899223,0.000644545943941921,0.0006756267393939197,0.0007067075348459184,0.000737788388505578,0.0007688691839575768,0.0007999499794095755,0.0008310307748615742]},"action_battery_use":-0.8913910984992981,"cumulative_reward":832130.9841773326,"action_hydro":-0.956501841545105,"gradients/mlp_extractor.policy_net.2.weight":{"_type":"histogram","values":[1,0,0,1,0,1,10,1,2,1,0,2,2,2,6,7,2,10,13,12,23,16,15,24,34,60,62,62,92,79,172,234,320,430,653,450,363,244,169,87,78,66,60,50,33,17,9,15,26,13,13,8,9,3,8,6,0,2,1,3,2,4,6,2],"bins":[-0.0018307771533727646,-0.0017777212196961045,-0.0017246654024347663,-0.0016716094687581062,-0.001618553651496768,-0.001565497717820108,-0.0015124417841434479,-0.0014593859668821096,-0.0014063300332054496,-0.0013532742159441113,-0.0013002182822674513,-0.001247162465006113,-0.001194106531329453,-0.001141050597652793,-0.0010879947803914547,-0.0010349388467147946,-0.0009818829130381346,-0.0009288270957767963,-0.0008757712203077972,-0.000822715344838798,-0.000769659411162138,-0.0007166035939007998,-0.0006635476602241397,-0.0006104917265474796,-0.0005574359092861414,-0.0005043799756094813,-0.0004513241583481431,-0.00039826822467148304,-0.000345212290994823,-0.00029215647373348475,-0.00023910054005682468,-0.00018604472279548645,-0.0001329887891188264,-7.993285544216633e-05,-2.6877038180828094e-05,2.6178895495831966e-05,7.92347127571702e-05,0.00013229064643383026,0.00018534658011049032,0.00023840239737182856,0.0002914583310484886,0.00034451414830982685,0.0003975700819864869,0.00045062601566314697,0.0005036818329244852,0.0005567377666011453,0.0006097936420701444,0.0006628495175391436,0.0007159053930081427,0.0007689612684771419,0.000822017143946141,0.0008750730776228011,0.0009281289530918002,0.0009811848867684603,0.0010342407040297985,0.0010872966377064586,0.0011403524549677968,0.0011934083886444569,0.001246464205905795,0.0012995201395824552,0.0013525760732591152,0.0014056318905204535,0.0014586878241971135,0.0015117436414584517,0.0015647995751351118]},"_timestamp":1.7488225982492366e+09,"gradients/mlp_extractor.policy_net.2.bias":{"bins":[-0.0014711789553985,-0.0014316739980131388,-0.0013921691570430994,-0.0013526641996577382,-0.001313159242272377,-0.0012736544013023376,-0.0012341494439169765,-0.0011946444865316153,-0.0011551396455615759,-0.0011156348045915365,-0.0010761298472061753,-0.0010366248898208141,-0.0009971200488507748,-0.0009576150914654136,-0.0009181101340800524,-0.0008786052349023521,-0.0008391003357246518,-0.0007995954365469515,-0.0007600905373692513,-0.0007205855799838901,-0.0006810806808061898,-0.0006415757816284895,-0.0006020708242431283,-0.000562565925065428,-0.0005230610258877277,-0.00048355606850236654,-0.0004440512275323272,-0.000404546270146966,-0.0003650413127616048,-0.0003255364717915654,-0.0002860315144062042,-0.00024652667343616486,-0.0002070218324661255,-0.0001675168750807643,-0.00012801203411072493,-8.850707672536373e-05,-4.9002235755324364e-05,-9.497278369963169e-06,3.0007679015398026e-05,6.951251998543739e-05,0.00010901747737079859,0.00014852237654849887,0.00018802727572619915,0.00022753223311156034,0.0002670371322892606,0.0003065420314669609,0.0003460469888523221,0.0003855518880300224,0.00042505678720772266,0.00046456168638542295,0.0005040665855631232,0.0005435715429484844,0.0005830764421261847,0.000622581341303885,0.0006620862986892462,0.0007015911978669465,0.0007410960970446467,0.000780600996222347,0.0008201058954000473,0.0008596108527854085,0.0008991157519631088,0.0009386206511408091,0.0009781256085261703,0.0010176304494962096,0.0010571354068815708],"_type":"histogram","values":[1,0,0,0,0,0,0,0,0,0,0,0,0,0,0,1,0,0,0,0,0,0,0,0,0,2,1,3,0,1,1,2,3,2,4,5,2,9,3,5,4,4,2,1,1,1,1,0,0,1,1,0,0,0,0,1,1,0,0,0,0,0,0,1]},"parameters/mlp_extractor.value_net.0.bias":{"values":[1,2,0,0,0,0,1,2,2,1,1,2,1,3,2,5,4,1,0,0,0,2,0,1,0,0,0,0,1,0,0,0,1,1,1,0,0,0,0,0,2,1,1,2,3,1,3,4,1,0,2,1,1,1,0,1,1,2,0,1,0,0,0,1],"bins":[-0.09068616479635239,-0.08753882348537445,-0.08439148962497711,-0.08124414831399918,-0.07809681445360184,-0.0749494731426239,-0.07180213928222656,-0.06865479797124863,-0.06550745666027069,-0.06236012279987335,-0.059212785214185715,-0.05606544762849808,-0.05291810631752014,-0.049770768731832504,-0.04662343114614487,-0.04347609356045723,-0.04032875597476959,-0.037181418389081955,-0.03403408080339432,-0.03088674321770668,-0.027739405632019043,-0.024592064321041107,-0.02144473046064377,-0.018297389149665833,-0.015150047838687897,-0.012002713978290558,-0.008855372667312622,-0.005708038806915283,-0.0025606974959373474,0.0005866363644599915,0.0037339776754379272,0.006881311535835266,0.010028645396232605,0.01317598670721054,0.01632332056760788,0.019470661878585815,0.022617995738983154,0.02576533704996109,0.02891267091035843,0.032060012221336365,0.035207346081733704,0.03835468739271164,0.041502028703689575,0.044649362564086914,0.04779670387506485,0.05094404146075249,0.054091379046440125,0.05723871663212776,0.0603860542178154,0.06353339552879333,0.06668072938919067,0.06982806324958801,0.07297540456056595,0.07612274587154388,0.07927007973194122,0.08241742104291916,0.0855647623538971,0.08871209621429443,0.09185943007469177,0.09500677138566971,0.09815411269664764,0.10130144655704498,0.10444878786802292,0.10759612172842026,0.1107434630393982],"_type":"histogram"},"action_solar":0.9535516500473022,"gradients/mlp_extractor.policy_net.0.weight":{"_type":"histogram","values":[1,0,0,0,0,0,0,0,0,0,0,0,0,0,2,1,0,1,1,1,1,0,1,1,6,8,2,7,8,12,5,12,32,49,96,433,60,21,20,12,4,12,2,2,4,4,0,2,1,1,1,2,1,1,0,0,1,0,0,0,0,0,0,1],"bins":[-0.01045278925448656,-0.010157175362110138,-0.00986156240105629,-0.009565948508679867,-0.009270334616303444,-0.008974721655249596,-0.008679107762873173,-0.00838349387049675,-0.008087880909442902,-0.007792267482727766,-0.0074966540560126305,-0.007201040163636208,-0.006905426736921072,-0.006609813310205936,-0.0063141994178295135,-0.006018585991114378,-0.005722972564399242,-0.005427359137684107,-0.005131745710968971,-0.004836131818592548,-0.004540518391877413,-0.004244904965162277,-0.003949291072785854,-0.0036536776460707188,-0.003358064219355583,-0.0030624507926404476,-0.002766837365925312,-0.002471223473548889,-0.0021756095811724663,-0.001879996620118618,-0.0015843827277421951,-0.0012887697666883469,-0.0009931568056344986,-0.0006975429132580757,-0.00040192995220422745,-0.00010631605982780457,0.0001892969012260437,0.0004849107936024666,0.0007805246859788895,0.001076138112694025,0.0013717515394091606,0.0016673649661242962,0.0019629783928394318,0.0022585922852158546,0.0025542057119309902,0.002849819138646126,0.0031454330310225487,0.0034410464577376842,0.00373665988445282,0.004032273311167955,0.004327886737883091,0.004623500630259514,0.004919114056974649,0.005214727483689785,0.005510341376066208,0.0058059548027813435,0.006101568229496479,0.006397181656211615,0.00669279508292675,0.006988408975303173,0.007284022402018309,0.007579635828733444,0.007875249721109867,0.008170862682163715,0.008466476574540138]},"price_actual":495.829987,"parameters/mlp_extractor.value_net.2.bias":{"values":[1,0,0,0,0,1,0,0,0,2,0,2,1,1,1,5,3,2,3,2,1,3,1,1,0,0,0,0,0,0,0,0,0,1,0,0,0,0,0,0,0,1,0,0,0,0,3,2,3,4,1,4,2,0,3,3,3,1,0,2,0,0,0,1],"bins":[-0.12212027609348297,-0.11852951347827911,-0.11493875086307526,-0.1113479882478714,-0.10775721818208694,-0.10416645556688309,-0.10057569295167923,-0.09698493033647537,-0.09339416027069092,-0.08980339765548706,-0.0862126350402832,-0.08262187242507935,-0.07903110980987549,-0.07544034719467163,-0.07184958457946777,-0.06825881451368332,-0.06466805189847946,-0.061077289283275604,-0.05748652666807175,-0.05389575660228729,-0.050304993987083435,-0.04671423137187958,-0.04312346875667572,-0.03953270614147186,-0.035941943526268005,-0.03235117346048355,-0.028760410845279694,-0.025169648230075836,-0.02157888561487198,-0.01798812299966812,-0.014397352933883667,-0.01080659031867981,-0.007215820252895355,-0.003625057637691498,-3.429502248764038e-05,0.003556475043296814,0.007147237658500671,0.010738000273704529,0.014328762888908386,0.017919525504112244,0.021510295569896698,0.025101058185100555,0.028691820800304413,0.03228258341550827,0.03587334603071213,0.039464108645915985,0.04305487871170044,0.0466456413269043,0.050236403942108154,0.05382716655731201,0.05741793289780617,0.061008695513010025,0.06459946185350418,0.06819022446870804,0.0717809870839119,0.07537175714969635,0.07896251976490021,0.08255328238010406,0.08614404499530792,0.08973480761051178,0.09332557022571564,0.0969163328409195,0.10050710290670395,0.1040978655219078,0.10768862813711166],"_type":"histogram"},"parameters/value_net.weight":{"_type":"histogram","values":[1,0,0,0,0,1,1,0,4,2,2,2,5,3,6,3,0,0,0,0,0,0,0,0,0,0,0,0,0,0,0,0,0,0,0,0,0,0,0,0,0,0,0,0,0,0,2,2,3,4,5,5,4,2,2,2,1,1,0,0,0,0,0,1],"bins":[-0.7618485689163208,-0.737718403339386,-0.7135881781578064,-0.6894580125808716,-0.6653278470039368,-0.641197681427002,-0.6170674562454224,-0.5929372906684875,-0.5688071250915527,-0.5446768999099731,-0.5205467343330383,-0.49641653895378113,-0.4722863435745239,-0.4481561779975891,-0.4240259826183319,-0.3998958170413971,-0.3757656216621399,-0.3516354262828827,-0.3275052607059479,-0.3033750653266907,-0.27924489974975586,-0.25511467456817627,-0.23098450899124146,-0.20685434341430664,-0.18272411823272705,-0.15859395265579224,-0.13446378707885742,-0.11033362150192261,-0.08620339632034302,-0.0620732307434082,-0.03794306516647339,-0.013812839984893799,0.01031726598739624,0.034447431564331055,0.058577656745910645,0.08270782232284546,0.10683798789978027,0.13096821308135986,0.15509837865829468,0.1792285442352295,0.2033587098121643,0.2274889349937439,0.2516191005706787,0.2757492661476135,0.2998794913291931,0.32400965690612793,0.34813985228538513,0.37227001786231995,0.39640021324157715,0.42053040862083435,0.44466057419776917,0.46879076957702637,0.4929209351539612,0.517051100730896,0.5411813259124756,0.5653114914894104,0.5894416570663452,0.6135718822479248,0.6377020478248596,0.6618322134017944,0.685962438583374,0.7100926041603088,0.7342227697372437,0.7583529949188232,0.7824831604957581]},"forecast_solar":-0.00010084733366966248,"gradients/action_net.bias":{"values":[1,0,0,0,0,0,0,0,0,0,0,0,0,0,1,0,0,0,0,0,0,0,0,0,0,0,0,0,0,0,0,0,1,0,0,0,0,0,0,0,0,0,0,0,0,0,0,0,0,0,0,1,0,0,0,0,0,0,0,0,0,0,0,1],"bins":[-0.1419944316148758,-0.13885849714279175,-0.1357225626707077,-0.13258662819862366,-0.1294506937265396,-0.12631475925445557,-0.12317882478237152,-0.12004289031028748,-0.11690695583820343,-0.11377102136611938,-0.11063508689403534,-0.1074991524219513,-0.10436321794986725,-0.1012272834777832,-0.09809134900569916,-0.09495541453361511,-0.09181948006153107,-0.08868354558944702,-0.08554761111736298,-0.08241167664527893,-0.07927573472261429,-0.07613980025053024,-0.0730038657784462,-0.06986793130636215,-0.0667319968342781,-0.06359606236219406,-0.060460127890110016,-0.05732419341802597,-0.054188258945941925,-0.05105232447385788,-0.047916390001773834,-0.04478045552968979,-0.041644517332315445,-0.0385085828602314,-0.035372648388147354,-0.03223671391606331,-0.029100779443979263,-0.025964844971895218,-0.022828910499811172,-0.019692976027727127,-0.01655704155564308,-0.013421107083559036,-0.01028517261147499,-0.0071492381393909454,-0.0040133036673069,-0.0008773654699325562,0.0022585690021514893,0.005394503474235535,0.00853043794631958,0.011666372418403625,0.014802306890487671,0.017938241362571716,0.02107417583465576,0.024210110306739807,0.027346044778823853,0.030481981113553047,0.03361791372299194,0.03675384819507599,0.039889782667160034,0.04302571713924408,0.04616165533661842,0.04929758980870247,0.052433524280786514,0.05556945875287056,0.058705393224954605],"_type":"histogram"},"hydro_actual":494.006,"parameters/mlp_extractor.value_net.2.weight":{"_type":"histogram","values":[1,0,0,0,0,0,5,0,4,1,6,6,8,9,20,18,21,28,32,46,53,61,44,77,91,83,90,103,138,152,145,164,147,159,159,185,192,165,148,168,170,145,145,121,114,105,95,76,69,57,47,51,46,28,25,16,15,9,10,8,7,3,2,3],"bins":[-0.728404700756073,-0.7081184983253479,-0.687832236289978,-0.6675460338592529,-0.6472598314285278,-0.6269736289978027,-0.6066873669624329,-0.5864011645317078,-0.5661149024963379,-0.5458287000656128,-0.5255424976348877,-0.5052562952041626,-0.4849700331687927,-0.4646838307380676,-0.44439759850502014,-0.42411139607429504,-0.40382516384124756,-0.3835389316082001,-0.363252729177475,-0.3429664969444275,-0.3226802945137024,-0.3023940622806549,-0.2821078300476074,-0.2618216276168823,-0.24153539538383484,-0.22124916315078735,-0.20096296072006226,-0.18067675828933716,-0.16039049625396729,-0.1401042938232422,-0.11981809139251709,-0.09953182935714722,-0.0792456865310669,-0.0589594841003418,-0.038673222064971924,-0.018387019634246826,0.0018991827964782715,0.022185444831848145,0.04247164726257324,0.06275784969329834,0.08304408192634583,0.10333031415939331,0.12361651659011841,0.1439027488231659,0.16418898105621338,0.18447518348693848,0.20476141571998596,0.22504761815071106,0.24533385038375854,0.26562008261680603,0.28590628504753113,0.3061925172805786,0.3264787197113037,0.3467649519443512,0.3670511841773987,0.3873373866081238,0.40762361884117126,0.42790985107421875,0.44819605350494385,0.46848228573799133,0.4887685179710388,0.5090547204017639,0.529340922832489,0.5496271848678589,0.569913387298584]},"gradients/mlp_extractor.value_net.2.weight":{"bins":[-1.033361554145813,-1.0010641813278198,-0.9687668085098267,-0.9364694356918335,-0.9041720628738403,-0.8718746900558472,-0.8395772576332092,-0.8072798848152161,-0.7749825119972229,-0.7426851391792297,-0.7103877663612366,-0.6780903339385986,-0.6457929611206055,-0.6134955883026123,-0.5811982154846191,-0.548900842666626,-0.5166034698486328,-0.48430609703063965,-0.4520087242126465,-0.4197113513946533,-0.38741397857666016,-0.3551165461540222,-0.32281917333602905,-0.2905218005180359,-0.2582244277000427,-0.22592705488204956,-0.1936296820640564,-0.16133230924606323,-0.1290348768234253,-0.09673750400543213,-0.06444013118743896,-0.0321427583694458,0.0001544952392578125,0.03245186805725098,0.06474924087524414,0.0970466136932373,0.12934398651123047,0.1616414189338684,0.19393879175186157,0.22623616456985474,0.2585335373878479,0.29083091020584106,0.32312828302383423,0.3554256558418274,0.38772308826446533,0.4200204610824585,0.45231783390045166,0.4846152067184448,0.516912579536438,0.5492099523544312,0.5815073251724243,0.6138046979904175,0.6461020708084106,0.6783994436264038,0.7106968760490417,0.7429942488670349,0.7752916216850281,0.8075889945030212,0.8398863673210144,0.8721837997436523,0.9044811725616455,0.9367785453796387,0.9690759181976318,1.001373291015625,1.0336706638336182],"_type":"histogram","values":[14,16,14,19,12,4,4,2,3,18,39,25,20,22,31,41,53,74,115,123,118,86,100,29,109,137,160,98,77,112,169,202,205,168,107,84,114,147,135,123,29,81,88,108,147,112,68,51,32,34,27,19,26,38,21,3,2,2,5,11,18,15,16,14]},"wind_forecast":8.602559089660645,"risk_penalty":0.571084175,"_runtime":1054.3496768,"solar_capacity":2672.8140824263087,"parameters/mlp_extractor.policy_net.2.weight":{"_type":"histogram","values":[1,0,1,1,0,1,5,2,5,4,5,10,9,13,22,26,33,38,40,56,58,75,83,98,118,125,144,155,131,159,152,153,199,162,181,179,166,175,167,147,118,127,115,91,89,69,71,67,63,24,35,33,21,20,13,8,10,8,7,2,2,2,0,2],"bins":[-0.6503918170928955,-0.6311026215553284,-0.611813485622406,-0.5925242900848389,-0.5732350945472717,-0.5539458990097046,-0.5346567630767822,-0.5153675675392151,-0.49607840180397034,-0.4767892360687256,-0.45750004053115845,-0.4382108747959137,-0.41892170906066895,-0.3996325135231018,-0.38034334778785706,-0.3610541522502899,-0.34176498651504517,-0.3224758207798004,-0.3031866252422333,-0.2838974595069885,-0.2646082639694214,-0.24531909823417664,-0.22602993249893188,-0.20674073696136475,-0.18745157122612,-0.16816240549087524,-0.1488732099533081,-0.12958401441574097,-0.1102948784828186,-0.09100568294525146,-0.07171648740768433,-0.05242735147476196,-0.033138155937194824,-0.013848960399627686,0.005440175533294678,0.024729371070861816,0.044018566608428955,0.06330770254135132,0.08259689807891846,0.1018860936164856,0.12117525935173035,0.1404644250869751,0.15975362062454224,0.179042786359787,0.19833195209503174,0.21762114763259888,0.23691031336784363,0.25619950890541077,0.2754886746406555,0.29477784037590027,0.3140670359134674,0.33335620164871216,0.3526453971862793,0.37193456292152405,0.3912237286567688,0.41051292419433594,0.4298020899295807,0.44909125566482544,0.4683804512023926,0.48766961693763733,0.5069587826728821,0.5262479782104492,0.5455371737480164,0.5648263096809387,0.5841155052185059]},"forecast_hydro":5.150047302246094,"gradients/value_net.bias":{"values":[1],"bins":[-1244.760498046875,-1244.760498046875],"_type":"histogram"},"step":10239,"parameters/mlp_extractor.value_net.0.weight":{"_type":"histogram","values":[2,1,0,1,2,1,1,4,5,1,9,3,11,10,9,17,10,12,13,18,16,24,26,18,23,32,30,28,23,25,23,19,30,30,26,30,25,26,32,30,29,17,18,17,17,14,10,10,13,5,7,3,3,4,8,6,2,1,1,0,0,0,0,1],"bins":[-0.5295988321304321,-0.512832522392273,-0.49606627225875854,-0.47929999232292175,-0.46253371238708496,-0.4457674026489258,-0.429001122713089,-0.4122348427772522,-0.3954685628414154,-0.3787022829055786,-0.3619360029697418,-0.34516972303390503,-0.32840341329574585,-0.31163716316223145,-0.29487085342407227,-0.2781045734882355,-0.2613382935523987,-0.2445720136165619,-0.2278057336807251,-0.2110394537448883,-0.1942731738090515,-0.17750686407089233,-0.16074058413505554,-0.14397430419921875,-0.12720802426338196,-0.11044174432754517,-0.09367546439170837,-0.07690918445587158,-0.0601428747177124,-0.04337659478187561,-0.02661031484603882,-0.009844064712524414,0.00692218542098999,0.02368849515914917,0.040454745292663574,0.057221025228500366,0.07398730516433716,0.09075361490249634,0.10751989483833313,0.12428617477416992,0.1410524547100067,0.1578187346458435,0.1745850145816803,0.1913512945175171,0.20811760425567627,0.22488388419151306,0.24165016412734985,0.25841644406318665,0.27518272399902344,0.29194900393486023,0.308715283870697,0.3254815936088562,0.3422478437423706,0.3590141534805298,0.3757804334163666,0.39254671335220337,0.40931299328804016,0.42607927322387695,0.44284555315971375,0.45961183309555054,0.4763781428337097,0.4931444227695465,0.5099107027053833,0.5266769528388977,0.5434432625770569]},"gradients/log_std":{"_type":"histogram","values":[1,0,0,1,0,0,0,0,0,0,0,0,0,0,0,1,0,0,0,0,0,0,0,0,0,0,0,0,0,0,0,0,1,0,0,0,0,0,0,0,0,0,0,0,0,0,0,0,0,0,0,0,0,0,0,0,0,0,0,0,0,0,0,1],"bins":[-0.02272169664502144,-0.01761976256966591,-0.012517828494310379,-0.007415894418954849,-0.0023139603435993195,0.0027879737317562103,0.00788990780711174,0.01299184188246727,0.0180937759578228,0.02319571003317833,0.02829764410853386,0.03339957818388939,0.03850151225924492,0.04360344633460045,0.04870538040995598,0.05380731448531151,0.05890924856066704,0.06401118636131287,0.0691131204366684,0.07421505451202393,0.07931698858737946,0.08441892266273499,0.08952085673809052,0.09462279081344604,0.09972472488880157,0.1048266589641571,0.10992859303951263,0.11503052711486816,0.1201324611902237,0.12523439526557922,0.13033632934093475,0.13543826341629028,0.14054018259048462,0.14564211666584015,0.15074405074119568,0.1558459848165512,0.16094791889190674,0.16604985296726227,0.1711517870426178,0.17625372111797333,0.18135565519332886,0.1864575892686844,0.19155952334403992,0.19666145741939545,0.20176339149475098,0.2068653255701065,0.21196725964546204,0.21706919372081757,0.2221711277961731,0.22727306187152863,0.23237499594688416,0.23747693002223969,0.24257886409759521,0.24768079817295074,0.2527827322483063,0.257884681224823,0.26298660039901733,0.26808851957321167,0.2731904685497284,0.2782924175262451,0.28339433670043945,0.2884962558746338,0.2935982048511505,0.29870015382766724,0.3038020730018616]},"gradients/action_net.weight":{"_type":"histogram","values":[1,0,0,0,0,0,0,0,0,1,0,0,1,2,1,0,3,0,2,3,2,1,4,3,5,6,3,11,9,12,7,16,7,14,11,16,20,15,12,19,12,12,15,14,5,7,4,5,5,2,4,7,5,1,2,0,1,2,2,2,2,0,3,1],"bins":[-0.22833111882209778,-0.22210432589054108,-0.21587753295898438,-0.20965072512626648,-0.20342393219470978,-0.19719713926315308,-0.19097034633159637,-0.18474355340003967,-0.17851676046848297,-0.17228996753692627,-0.16606315970420837,-0.15983638167381287,-0.15360957384109497,-0.14738278090953827,-0.14115598797798157,-0.13492918014526367,-0.12870240211486816,-0.12247560173273087,-0.11624880135059357,-0.11002200841903687,-0.10379521548748016,-0.09756842255592346,-0.09134162962436676,-0.08511482179164886,-0.07888802886009216,-0.07266123592853546,-0.06643444299697876,-0.06020765006542206,-0.053980857133865356,-0.04775404930114746,-0.04152725636959076,-0.03530046343803406,-0.029073670506477356,-0.022846877574920654,-0.016620084643363953,-0.010393291711807251,-0.0041664838790893555,0.002060309052467346,0.008287101984024048,0.01451389491558075,0.02074068784713745,0.026967480778694153,0.03319428861141205,0.03942108154296875,0.04564787447452545,0.05187466740608215,0.058101460337638855,0.06432826071977615,0.07055505365133286,0.07678184658288956,0.08300864696502686,0.08923543989658356,0.09546223282814026,0.10168903321027756,0.10791582614183426,0.11414261907339096,0.12036941945552826,0.12659621238708496,0.13282300531864166,0.13904979825019836,0.14527659118175507,0.15150338411331177,0.15773019194602966,0.16395698487758636,0.17018377780914307]},"reward":75.28683960689142,"forecast_load":5.260684490203857,"hydro_forecast":5.150047302246094,"parameters/mlp_extractor.policy_net.0.bias":{"bins":[-8.885908755473793e-05,-8.569583587814122e-05,-8.253257692558691e-05,-7.936932524899021e-05,-7.620606629643589e-05,-7.304281461983919e-05,-6.987956294324249e-05,-6.671631126664579e-05,-6.355305231409147e-05,-6.0389796999515966e-05,-5.722654168494046e-05,-5.4063290008343756e-05,-5.090003469376825e-05,-4.773677937919274e-05,-4.457352770259604e-05,-4.141027238802053e-05,-3.824701707344502e-05,-3.5083761758869514e-05,-3.1920506444294006e-05,-2.8757254767697304e-05,-2.559399581514299e-05,-2.2430744138546288e-05,-1.9267492461949587e-05,-1.610423350939527e-05,-1.294098183279857e-05,-9.77773015620187e-06,-6.614471203647554e-06,-3.4512195270508528e-06,-2.8796785045415163e-07,2.8752911021001637e-06,6.038542778696865e-06,9.20180173125118e-06,1.2365060683805496e-05,1.5528312360402197e-05,1.8691571312956512e-05,2.1854822989553213e-05,2.501808194210753e-05,2.818133361870423e-05,3.134458529530093e-05,3.4507844247855246e-05,3.767109592445195e-05,4.083434760104865e-05,4.3997606553602964e-05,4.7160858230199665e-05,5.0324109906796366e-05,5.348736885935068e-05,5.665062053594738e-05,5.981387585052289e-05,6.29771311650984e-05,6.614039011765271e-05,6.930364179424942e-05,7.246689347084612e-05,7.563014514744282e-05,7.879340409999713e-05,8.195665577659383e-05,8.511991472914815e-05,8.828316640574485e-05,9.144641808234155e-05,9.460967703489587e-05,9.777292871149257e-05,0.00010093618766404688,0.00010409943934064358,0.00010726269101724029,0.0001104259499697946,0.0001135892016463913],"_type":"histogram","values":[1,0,0,0,0,0,1,0,0,0,0,0,0,1,1,1,0,0,0,2,0,1,1,3,1,1,8,7,9,6,3,1,1,2,4,1,1,1,1,0,3,0,1,0,0,0,0,0,0,0,0,0,0,0,0,0,0,0,0,0,0,0,0,1]},"revenue":7.528815833247788e+06,"parameters/mlp_extractor.policy_net.0.weight":{"bins":[-0.4648217558860779,-0.4483295679092407,-0.43183737993240356,-0.4153451919555664,-0.39885297417640686,-0.3823607861995697,-0.36586859822273254,-0.3493764102458954,-0.33288419246673584,-0.3163920044898987,-0.2998998165130615,-0.28340762853622437,-0.2669154405593872,-0.25042325258255005,-0.2339310497045517,-0.21743884682655334,-0.2009466588497162,-0.18445447087287903,-0.16796228289604187,-0.15147006511688232,-0.13497787714004517,-0.11848568916320801,-0.10199350118637085,-0.08550131320953369,-0.06900912523269653,-0.05251690745353699,-0.03602471947669983,-0.01953253149986267,-0.0030403435230255127,0.013451844453811646,0.02994406223297119,0.04643625020980835,0.06292843818664551,0.07942062616348267,0.09591281414031982,0.11240503191947937,0.12889721989631653,0.1453894078731537,0.16188159584999084,0.178373783826828,0.19486600160598755,0.2113581895828247,0.22785037755966187,0.24434256553649902,0.2608347535133362,0.27732694149017334,0.2938191592693329,0.31031134724617004,0.3268035352230072,0.34329572319984436,0.3597879409790039,0.37628012895584106,0.3927723169326782,0.4092645049095154,0.42575669288635254,0.4422488808631897,0.45874106884002686,0.4752332866191864,0.49172547459602356,0.5082176923751831,0.5247098803520203,0.5412020683288574,0.5576942563056946,0.5741864442825317,0.5906786322593689],"_type":"histogram","values":[2,1,0,3,2,6,5,6,6,5,11,7,14,19,16,14,27,14,18,19,32,19,25,31,27,25,33,33,34,25,36,31,26,24,21,27,19,19,19,21,24,11,13,9,9,8,2,5,5,5,3,6,2,1,2,0,1,1,1,0,0,0,0,2]},"battery_energy":8961.12709736793,"forecast_price":3.147003412246704,"wind_actual":793.3,"parameters/action_net.bias":{"bins":[-0.00130094971973449,-0.0011925601866096258,-0.0010841706534847617,-0.0009757811203598976,-0.0008673915872350335,-0.0007590021123178303,-0.0006506125791929662,-0.0005422230460681021,-0.000433833512943238,-0.0003254439798183739,-0.00021705450490117073,-0.00010866497177630663,-2.7543865144252777e-07,0.00010811409447342157,0.00021650362759828568,0.0003248931607231498,0.0004332826938480139,0.000541672226972878,0.0006500617600977421,0.0007584512932226062,0.0008668407099321485,0.0009752303594723344,0.0010836197761818767,0.0011920094257220626,0.0013003988424316049,0.0014087884919717908,0.001517177908681333,0.001625567558221519,0.0017339569749310613,0.0018423466244712472,0.0019507360411807895,0.0020591258071362972,0.0021675152238458395,0.0022759046405553818,0.0023842942900955677,0.00249268370680511,0.002601073356345296,0.002709462773054838,0.002817852422595024,0.0029262418393045664,0.0030346314888447523,0.0031430209055542946,0.0032514105550944805,0.003359799971804023,0.0034681896213442087,0.003576579038053751,0.003684968687593937,0.003793358104303479,0.0039017475210130215,0.004010137170553207,0.004118526820093393,0.004226916469633579,0.004335305653512478,0.004443695303052664,0.00455208495259285,0.004660474136471748,0.004768863786011934,0.00487725343555212,0.004985643085092306,0.005094032268971205,0.005202421918511391,0.005310811568051577,0.0054192012175917625,0.005527590401470661,0.005635980051010847],"_type":"histogram","values":[2,0,0,0,0,0,0,0,0,0,0,1,0,0,0,0,0,0,0,0,0,0,0,0,0,0,0,0,0,0,0,0,0,0,0,0,0,0,0,0,0,0,0,0,0,0,0,0,0,0,1,0,0,0,0,0,0,0,0,0,0,0,0,1]},"load_forecast":5.260684490203857,"gradients/mlp_extractor.value_net.2.bias":{"values":[1,0,0,1,0,0,0,0,0,0,1,0,0,1,1,1,1,2,1,3,3,1,3,0,0,2,3,2,0,2,2,1,2,4,1,4,0,2,1,2,3,1,1,0,0,1,2,3,1,0,0,0,0,1,0,2,0,0,0,0,0,0,0,1],"bins":[-1.033988118171692,-1.0025789737701416,-0.9711698889732361,-0.9397607445716858,-0.9083516597747803,-0.87694251537323,-0.8455333709716797,-0.8141242265701294,-0.7827151417732239,-0.7513060569763184,-0.7198969125747681,-0.6884877681732178,-0.6570786237716675,-0.625669538974762,-0.5942603945732117,-0.5628513097763062,-0.5314421653747559,-0.5000330209732056,-0.46862393617630005,-0.43721479177474976,-0.40580570697784424,-0.37439656257629395,-0.34298741817474365,-0.31157833337783813,-0.28016918897628784,-0.24876004457473755,-0.21735095977783203,-0.18594181537628174,-0.15453267097473145,-0.12312358617782593,-0.09171444177627563,-0.06030535697937012,-0.0288962721824646,0.0025128722190856934,0.03392195701599121,0.0653311014175415,0.09674018621444702,0.12814933061599731,0.1595584750175476,0.19096755981445312,0.22237670421600342,0.2537858486175537,0.28519493341445923,0.3166040778160095,0.3480132222175598,0.37942230701446533,0.4108314514160156,0.44224053621292114,0.47364968061447144,0.505058765411377,0.5364679098129272,0.5678770542144775,0.5992861986160278,0.6306952834129333,0.6621044278144836,0.6935135126113892,0.7249226570129395,0.7563318014144897,0.7877408862113953,0.8191500306129456,0.8505591154098511,0.8819682598114014,0.9133774042129517,0.9447864890098572,0.9761956334114075],"_type":"histogram"},"load_actual":3591.764629,"battery_capacity":8961.12709736793,"parameters/action_net.weight":{"bins":[-0.008726052939891815,-0.008437546901404858,-0.008149039931595325,-0.007860533893108368,-0.007572027388960123,-0.007283520884811878,-0.006995014846324921,-0.006706508342176676,-0.006418001838028431,-0.006129495333880186,-0.005840988829731941,-0.005552482791244984,-0.005263976287096739,-0.004975469782948494,-0.004686963744461536,-0.0043984572403132915,-0.004109950736165047,-0.003821444232016802,-0.003532937727868557,-0.0032444316893815994,-0.0029559251852333546,-0.0026674186810851097,-0.002378912642598152,-0.0020904061384499073,-0.0018018996343016624,-0.0015133931301534176,-0.0012248866260051727,-0.0009363805875182152,-0.0006478745490312576,-0.00035936757922172546,-7.086154073476791e-05,0.00021764542907476425,0.0005061523988842964,0.000794658437371254,0.0010831654071807861,0.0013716714456677437,0.0016601784154772758,0.0019486844539642334,0.002237190492451191,0.002525696996599436,0.0028142035007476807,0.0031027100048959255,0.0033912165090441704,0.003679722547531128,0.003968229051679373,0.004256735555827618,0.004545241594314575,0.00483374809846282,0.005122254602611065,0.00541076110675931,0.005699267610907555,0.005987773649394512,0.006276280153542757,0.006564786657691002,0.0068532926961779594,0.007141799200326204,0.007430305704474449,0.007718812208622694,0.008007318712770939,0.008295824751257896,0.008584331721067429,0.008872837759554386,0.009161343798041344,0.009449850767850876,0.009738356806337833],"_type":"histogram","values":[1,1,0,1,1,0,0,1,1,1,1,2,1,4,4,7,5,10,10,6,9,7,9,5,12,10,13,16,14,17,10,15,10,12,10,9,7,17,7,5,3,6,5,5,2,5,4,3,3,5,2,1,0,1,0,0,2,0,0,1,0,0,0,1]},"forecast_wind":8.602559089660645,"action_battery":1,"hydro_capacity":1853.8054759444472,"gradients/value_net.weight":{"_type":"histogram","values":[34,0,0,0,0,0,0,0,0,0,0,0,0,0,0,0,0,0,0,0,0,0,0,0,0,0,0,0,0,0,0,0,0,0,0,0,0,0,0,0,0,0,0,0,0,0,0,0,0,0,0,0,0,0,0,0,0,0,0,0,0,0,0,30],"bins":[-1244.744384765625,-1205.84619140625,-1166.9478759765625,-1128.0496826171875,-1089.1513671875,-1050.253173828125,-1011.3549194335938,-972.4566650390625,-933.5584106445312,-894.66015625,-855.7619018554688,-816.8636474609375,-777.9654541015625,-739.067138671875,-700.1689453125,-661.2706909179688,-622.3724365234375,-583.4741821289062,-544.575927734375,-505.67767333984375,-466.7794189453125,-427.8812255859375,-388.98297119140625,-350.084716796875,-311.18646240234375,-272.2882080078125,-233.38995361328125,-194.49169921875,-155.593505859375,-116.6951904296875,-77.7969970703125,-38.898681640625,-0.00048828125,38.897705078125,77.7960205078125,116.6942138671875,155.592529296875,194.49072265625,233.38897705078125,272.2872314453125,311.18548583984375,350.083740234375,388.98199462890625,427.8802490234375,466.7784423828125,505.67669677734375,544.574951171875,583.4732055664062,622.3714599609375,661.2697143554688,700.16796875,739.066162109375,777.9644775390625,816.8626708984375,855.7609252929688,894.6591796875,933.5574340820312,972.4556884765625,1011.3539428710938,1050.252197265625,1089.150390625,1128.0487060546875,1166.9468994140625,1205.84521484375,1244.743408203125]},"solar_actual":0,"parameters/value_net.bias":{"_type":"histogram","values":[1],"bins":[0.38167399168014526,0.38167399168014526]},"parameters/mlp_extractor.policy_net.2.bias":{"bins":[-8.310148405143991e-05,-8.093075302895159e-05,-7.876002200646326e-05,-7.658929098397493e-05,-7.441855996148661e-05,-7.224782893899828e-05,-7.007709791650996e-05,-6.790636689402163e-05,-6.573564314749092e-05,-6.356490484904498e-05,-6.139418110251427e-05,-5.922345008002594e-05,-5.7052719057537615e-05,-5.488198803504929e-05,-5.2711257012560964e-05,-5.054052599007264e-05,-4.836979496758431e-05,-4.6199063945095986e-05,-4.402833292260766e-05,-4.1857601900119334e-05,-3.968687087763101e-05,-3.751614349312149e-05,-3.5345412470633164e-05,-3.317468144814484e-05,-3.100395042565651e-05,-2.8833219403168187e-05,-2.666248838067986e-05,-2.4491757358191535e-05,-2.2321029973682016e-05,-2.015029895119369e-05,-1.7979567928705364e-05,-1.580883690621704e-05,-1.3638098607771099e-05,-1.1467367585282773e-05,-9.296636562794447e-06,-7.125905540306121e-06,-4.955174517817795e-06,-2.7844471333082765e-06,-6.137161108199507e-07,1.5570149116683751e-06,3.727745934156701e-06,5.898476956645027e-06,8.069207979133353e-06,1.0239939001621678e-05,1.2410666386131197e-05,1.4581397408619523e-05,1.675212843110785e-05,1.8922859453596175e-05,2.10935904760845e-05,2.3264321498572826e-05,2.5435052521061152e-05,2.7605781724560075e-05,2.97765127470484e-05,3.194724558852613e-05,3.411797297303565e-05,3.6288703995523974e-05,3.84594350180123e-05,4.0630166040500626e-05,4.280089706298895e-05,4.497162444749847e-05,4.7142355469986796e-05,4.931308649247512e-05,5.148381751496345e-05,5.3654548537451774e-05,5.58252795599401e-05],"_type":"histogram","values":[1,0,1,0,0,0,0,1,0,0,2,0,0,0,0,0,0,2,0,0,0,0,0,1,1,0,0,2,1,1,1,2,2,0,3,5,3,1,4,6,1,4,3,4,0,1,0,2,1,1,1,1,2,1,0,0,0,1,0,0,0,0,0,1]},"solar_forecast":-0.00010084733366966248,"net_profit":7.52868424623123e+06,"timestep":10240,"gradients/mlp_extractor.value_net.0.weight":{"bins":[-5.189382553100586,-5.03292179107666,-4.876461029052734,-4.71999979019165,-4.563539028167725,-4.407078266143799,-4.250617027282715,-4.094156265258789,-3.9376955032348633,-3.7812347412109375,-3.6247737407684326,-3.4683127403259277,-3.311851978302002,-3.155391216278076,-2.9989302158355713,-2.8424692153930664,-2.6860084533691406,-2.529547691345215,-2.37308669090271,-2.216625690460205,-2.0601649284362793,-1.9037041664123535,-1.7472431659698486,-1.5907821655273438,-1.434321403503418,-1.2778606414794922,-1.1213998794555664,-0.9649386405944824,-0.8084778785705566,-0.6520171165466309,-0.4955558776855469,-0.3390951156616211,-0.1826338768005371,-0.026173114776611328,0.13028764724731445,0.28674888610839844,0.4432096481323242,0.59967041015625,0.756131649017334,0.9125924110412598,1.0690531730651855,1.2255139350891113,1.3819749355316162,1.538435935974121,1.6948966979980469,1.8513574600219727,2.0078184604644775,2.1642794609069824,2.320740222930908,2.477200984954834,2.633661985397339,2.7901229858398438,2.9465837478637695,3.1030445098876953,3.2595055103302,3.415966510772705,3.572427272796631,3.7288880348205566,3.8853490352630615,4.041810035705566,4.198270797729492,4.354731559753418,4.511192321777344,4.667653560638428,4.8241143226623535],"_type":"histogram","values":[2,0,0,1,0,0,0,0,0,0,0,0,1,2,4,2,0,1,1,0,0,3,4,3,7,6,5,11,17,12,30,49,134,348,63,30,22,21,8,7,6,3,6,1,0,1,0,2,0,9,0,2,2,0,0,0,0,1,1,0,2,0,0,2]},"parameters/log_std":{"bins":[-0.010706798173487186,-0.010303633287549019,-0.009900468401610851,-0.009497303515672684,-0.009094138629734516,-0.008690973743796349,-0.008287809789180756,-0.007884643971920013,-0.007481479551643133,-0.007078314665704966,-0.006675149779766798,-0.0062719848938286304,-0.00586882047355175,-0.005465655587613583,-0.005062490701675415,-0.0046593258157372475,-0.00425616092979908,-0.0038529960438609123,-0.0034498311579227448,-0.003046666271984577,-0.0026435013860464096,-0.002240336500108242,-0.0018371716141700745,-0.0014340067282319069,-0.001030842773616314,-0.0006276778876781464,-0.0002245130017399788,0.00017865188419818878,0.0005818167701363564,0.000984981656074524,0.0013881465420126915,0.001791311427950859,0.0021944772452116013,0.002597642131149769,0.0030008070170879364,0.003403971903026104,0.0038071367889642715,0.004210301674902439,0.004613466560840607,0.005016631446778774,0.005419796332716942,0.005822960287332535,0.006226125173270702,0.00662929005920887,0.0070324549451470375,0.007435619831085205,0.007838784717023373,0.00824194960296154,0.008645114488899708,0.009048279374837875,0.009451444260776043,0.00985460914671421,0.010257774032652378,0.010660938918590546,0.011064102873206139,0.01146726869046688,0.011870432645082474,0.012273598462343216,0.012676762416958809,0.013079927302896976,0.013483092188835144,0.013886257074773312,0.01428942196071148,0.014692586846649647,0.015095751732587814],"_type":"histogram","values":[1,0,0,0,0,0,0,0,1,0,0,0,1,0,0,0,0,0,0,0,0,0,0,0,0,0,0,0,0,0,0,0,0,0,0,0,0,0,0,0,0,0,0,0,0,0,0,0,0,0,0,0,0,0,1,0,0,0,0,0,0,0,0,1]},"_wandb":{"runtime":1054},"wind_capacity":2052.7312695576943}