{"gradients/mlp_extractor.policy_net.2.bias":{"values":[1,0,0,0,1,0,1,0,0,2,0,1,0,0,0,0,0,1,3,0,2,0,2,3,1,0,1,4,2,2,2,0,2,3,2,3,3,2,0,2,1,3,0,0,0,2,2,0,2,0,1,1,0,0,2,1,0,0,0,1,0,0,1,1],"bins":[-0.0009668244165368378,-0.0009378194226883352,-0.0009088144870474935,-0.0008798094931989908,-0.0008508045575581491,-0.0008217995637096465,-0.0007927946280688047,-0.0007637896342203021,-0.0007347846403717995,-0.0007057797047309577,-0.000676774769090116,-0.0006477697752416134,-0.0006187647813931108,-0.0005897597875446081,-0.0005607548519037664,-0.0005317499162629247,-0.000502744922414422,-0.0004737399285659194,-0.0004447349929250777,-0.00041572999907657504,-0.0003867250634357333,-0.0003577200695872307,-0.00032871513394638896,-0.0002997101400978863,-0.0002707051462493837,-0.00024170021060854197,-0.00021269521676003933,-0.0001836902811191976,-0.00015468528727069497,-0.00012568035162985325,-9.667535778135061e-05,-6.767042214050889e-05,-3.8665428292006254e-05,-9.660434443503618e-06,1.9344501197338104e-05,4.834949504584074e-05,7.735443068668246e-05,0.0001063594245351851,0.00013536436017602682,0.00016436935402452946,0.00019337428966537118,0.00022237928351387382,0.00025138427736237645,0.0002803892130032182,0.0003093942068517208,0.00033839914249256253,0.00036740413634106517,0.0003964090719819069,0.0004254140658304095,0.0004544190305750817,0.0004834239953197539,0.0005124289309605956,0.0005414339248090982,0.0005704389186576009,0.0005994439125061035,0.0006284488481469452,0.000657453783787787,0.0006864587776362896,0.0007154637714847922,0.000744468707125634,0.0007734737009741366,0.0008024786366149783,0.000831483630463481,0.0008604885661043227,0.0008894935599528253],"_type":"histogram"},"parameters/mlp_extractor.value_net.0.bias":{"_type":"histogram","values":[1,1,1,0,1,0,0,0,0,3,1,1,3,1,1,4,3,2,2,0,0,1,0,1,0,0,1,1,1,0,0,1,2,1,0,0,1,0,0,0,0,0,0,0,0,0,0,1,0,1,0,1,3,1,6,2,4,1,3,0,2,3,0,1],"bins":[-0.08704235404729843,-0.08456610143184662,-0.0820898488163948,-0.079613596200943,-0.07713734358549118,-0.07466109097003937,-0.07218483835458755,-0.06970858573913574,-0.06723232567310333,-0.06475608050823212,-0.062279824167490005,-0.059803567826747894,-0.05732731521129608,-0.05485106259584427,-0.052374809980392456,-0.04989855736494064,-0.04742230474948883,-0.04494605213403702,-0.042469799518585205,-0.03999354690313339,-0.03751729428768158,-0.03504103794693947,-0.032564785331487656,-0.030088532716035843,-0.02761228010058403,-0.025136027485132217,-0.022659771144390106,-0.020183518528938293,-0.01770726591348648,-0.015231013298034668,-0.012754760682582855,-0.010278508067131042,-0.007802262902259827,-0.005326010286808014,-0.002849757671356201,-0.00037350505590438843,0.0021027475595474243,0.004579000174999237,0.00705525279045105,0.009531509131193161,0.012007761746644974,0.014484014362096786,0.0169602669775486,0.019436519593000412,0.021912775933742523,0.024389028549194336,0.02686528116464615,0.02934153378009796,0.031817786395549774,0.03429403901100159,0.0367702916264534,0.03924654424190521,0.041722796857357025,0.04419904947280884,0.04667530581355095,0.04915155842900276,0.051627811044454575,0.05410406365990639,0.0565803162753582,0.05905657261610031,0.061532825231552124,0.06400907784700394,0.06648533046245575,0.06896158307790756,0.07143783569335938]},"_runtime":985.955793,"solar_capacity":2621.72445705434,"wind_capacity":2482.7765443566236,"parameters/log_std":{"_type":"histogram","values":[1,0,0,0,0,0,0,0,0,0,0,0,0,0,0,0,0,0,0,0,0,0,0,0,0,0,0,0,0,0,0,0,0,0,0,0,0,0,0,0,0,0,1,0,0,0,0,1,0,0,0,0,0,0,0,0,0,1,0,0,0,0,0,1],"bins":[-0.03157250955700874,-0.031114323064684868,-0.03065613843500614,-0.030197951942682266,-0.02973976731300354,-0.029281580820679665,-0.02882339432835579,-0.028365209698677063,-0.027907023206353188,-0.02744883857667446,-0.026990652084350586,-0.02653246745467186,-0.026074280962347984,-0.02561609447002411,-0.025157909840345383,-0.024699723348021507,-0.02424153871834278,-0.023783352226018906,-0.02332516759634018,-0.022866981104016304,-0.02240879461169243,-0.021950609982013702,-0.021492425352334976,-0.02103423699736595,-0.020576052367687225,-0.0201178677380085,-0.019659681245684624,-0.01920149475336075,-0.018743310123682022,-0.018285123631358147,-0.01782693713903427,-0.017368752509355545,-0.01691056787967682,-0.016452381387352943,-0.015994196757674217,-0.015536010265350342,-0.015077823773026466,-0.014619638212025166,-0.014161452651023865,-0.013703267090022564,-0.013245081529021263,-0.012786895968019962,-0.012328709475696087,-0.011870523914694786,-0.011412338353693485,-0.010954152792692184,-0.010495967231690884,-0.010037781670689583,-0.009579596109688282,-0.009121410548686981,-0.008663224056363106,-0.008205038495361805,-0.007746852934360504,-0.007288667373359203,-0.0068304818123579025,-0.006372296251356602,-0.005914110224694014,-0.0054559241980314255,-0.004997738637030125,-0.004539553076028824,-0.004081367515027523,-0.0036231817211955786,-0.003164995927363634,-0.0027068103663623333,-0.002248624572530389]},"gradients/action_net.bias":{"_type":"histogram","values":[1,0,0,0,0,0,0,0,0,0,0,0,0,0,0,0,0,0,0,0,0,0,1,0,0,1,0,0,0,0,0,0,0,0,0,0,0,0,0,0,0,1,0,0,0,0,0,0,0,0,0,0,0,0,0,0,0,0,0,0,0,0,0,1],"bins":[-0.11429798603057861,-0.1103312149643898,-0.10636444389820099,-0.10239767283201218,-0.09843090176582336,-0.09446412324905396,-0.09049735218286514,-0.08653058111667633,-0.08256381005048752,-0.0785970389842987,-0.0746302679181099,-0.07066349685192108,-0.06669671833515167,-0.06272995471954346,-0.05876317620277405,-0.054796405136585236,-0.05082963407039642,-0.04686286300420761,-0.0428960919380188,-0.03892932087182999,-0.034962549805641174,-0.030995771288871765,-0.027029000222682953,-0.02306222915649414,-0.01909545809030533,-0.015128687024116516,-0.011161915957927704,-0.007195144891738892,-0.0032283663749694824,0.0007384046912193298,0.004705175757408142,0.008671946823596954,0.01263873279094696,0.016605503857135773,0.020572274923324585,0.024539045989513397,0.02850581705570221,0.03247259557247162,0.03643936663866043,0.04040613770484924,0.044372908771038055,0.04833967983722687,0.05230645090341568,0.05627322196960449,0.0602400004863739,0.06420677155256271,0.06817354261875153,0.07214031368494034,0.07610708475112915,0.08007385581731796,0.08404062688350677,0.08800740540027618,0.0919741690158844,0.09594094753265381,0.09990771859884262,0.10387448966503143,0.10784126073122025,0.11180803179740906,0.11577480286359787,0.11974157392978668,0.12370835244655609,0.1276751160621643,0.13164189457893372,0.13560865819454193,0.13957543671131134]},"battery_capacity":6091.524839788814,"_timestamp":1.7486475227760522e+09,"parameters/action_net.weight":{"bins":[-0.00763853220269084,-0.0074011399410665035,-0.00716374721378088,-0.006926354952156544,-0.0066889626905322075,-0.006451570428907871,-0.006214177701622248,-0.0059767854399979115,-0.005739392712712288,-0.005502000451087952,-0.005264608189463615,-0.005027215927839279,-0.004789823200553656,-0.004552430938929319,-0.004315038211643696,-0.00407764595001936,-0.0038402536883950233,-0.003602861426770687,-0.0033654686994850636,-0.0031280764378607273,-0.002890684176236391,-0.0026532914489507675,-0.0024158991873264313,-0.002178506925702095,-0.0019411141984164715,-0.0017037219367921352,-0.001466329675167799,-0.0012289374135434628,-0.0009915446862578392,-0.000754152424633503,-0.0005167601630091667,-0.00027936743572354317,-4.197470843791962e-05,0.00019541755318641663,0.0004328102804720402,0.0006702025420963764,0.0009075948037207127,0.0011449875310063362,0.0013823797926306725,0.0016197720542550087,0.001857164315879345,0.0020945570431649685,0.0023319493047893047,0.002569341566413641,0.0028067342936992645,0.0030441265553236008,0.003281518816947937,0.0035189115442335606,0.003756303805857897,0.00399369653314352,0.004231088794767857,0.004468481056392193,0.004705873318016529,0.004943265579640865,0.005180658306926489,0.005418050568550825,0.005655443295836449,0.005892835557460785,0.006130227819085121,0.006367620080709457,0.006605012807995081,0.006842405069619417,0.007079797331243753,0.007317190058529377,0.007554582320153713],"_type":"histogram","values":[1,0,0,1,1,1,4,2,1,3,5,4,2,3,2,7,9,1,5,4,5,9,9,10,7,10,8,9,10,4,5,10,13,6,10,7,9,12,10,11,14,15,7,7,3,7,6,6,4,4,2,3,3,3,1,1,1,0,1,0,1,0,0,1]},"parameters/value_net.weight":{"values":[3,1,4,2,2,5,4,4,2,6,2,0,0,0,0,0,0,0,0,0,0,0,0,0,0,0,0,0,0,0,0,0,0,0,0,0,0,0,0,0,0,0,0,0,0,0,2,4,3,6,3,1,3,2,2,2,0,0,0,0,0,0,0,1],"bins":[-0.6264331340789795,-0.6043619513511658,-0.5822907090187073,-0.5602195262908936,-0.5381482839584351,-0.5160771012306213,-0.4940059185028076,-0.4719347059726715,-0.4498634934425354,-0.4277922809123993,-0.4057210683822632,-0.38364988565444946,-0.36157867312431335,-0.33950746059417725,-0.3174362778663635,-0.2953650653362274,-0.2732938528060913,-0.2512226402759552,-0.2291514277458191,-0.20708024501800537,-0.18500903248786926,-0.16293781995773315,-0.14086663722991943,-0.11879539489746094,-0.09672421216964722,-0.0746530294418335,-0.052581787109375,-0.03051060438156128,-0.008439421653747559,0.013631820678710938,0.03570300340652466,0.057774245738983154,0.0798453688621521,0.10191655158996582,0.12398779392242432,0.14605897665023804,0.16813021898269653,0.19020140171051025,0.21227258443832397,0.23434382677078247,0.2564150094985962,0.2784861922264099,0.3005574345588684,0.32262861728668213,0.34469982981681824,0.36677104234695435,0.38884222507476807,0.4109134376049042,0.4329846501350403,0.4550558626651764,0.4771270751953125,0.4991982579231262,0.5212694406509399,0.5433406829833984,0.5654118657112122,0.5874830484390259,0.6095542907714844,0.6316255331039429,0.6536967158317566,0.6757678985595703,0.6978391408920288,0.7199103236198425,0.7419815063476562,0.7640527486801147,0.7861239314079285],"_type":"histogram"},"gradients/mlp_extractor.value_net.0.weight":{"_type":"histogram","values":[1,0,1,0,0,0,1,0,2,0,0,1,2,3,0,1,1,4,2,2,4,7,2,5,10,14,12,25,40,130,402,56,27,22,14,8,5,5,2,3,4,2,1,2,1,0,1,0,1,1,1,1,1,0,0,0,0,0,1,0,0,0,0,1],"bins":[-4.393237590789795,-4.247823238372803,-4.102408409118652,-3.95699405670166,-3.811579704284668,-3.6661651134490967,-3.5207505226135254,-3.375336170196533,-3.229921579360962,-3.0845069885253906,-2.9390926361083984,-2.793678045272827,-2.648263454437256,-2.5028491020202637,-2.3574345111846924,-2.2120201587677,-2.066605567932129,-1.9211909770965576,-1.7757766246795654,-1.6303620338439941,-1.484947681427002,-1.3395330905914307,-1.1941184997558594,-1.0487041473388672,-0.9032895565032959,-0.7578749656677246,-0.6124606132507324,-0.46704602241516113,-0.32163143157958984,-0.17621707916259766,-0.03080272674560547,0.11461210250854492,0.2600264549255371,0.4054408073425293,0.5508556365966797,0.6962699890136719,0.8416843414306641,0.9870989322662354,1.1325135231018066,1.2779278755187988,1.4233424663543701,1.5687570571899414,1.7141714096069336,1.8595860004425049,2.005000591278076,2.1504149436950684,2.2958295345306396,2.441243886947632,2.586658477783203,2.7320730686187744,2.8774874210357666,3.022902011871338,3.16831636428833,3.3137309551239014,3.4591455459594727,3.604559898376465,3.749974489212036,3.8953890800476074,4.0408034324646,4.18621826171875,4.331632614135742,4.477046966552734,4.622461318969727,4.767876148223877,4.913290500640869]},"gradients/mlp_extractor.value_net.2.weight":{"values":[17,4,1,2,3,0,0,0,1,0,0,0,18,15,73,70,72,45,53,46,72,114,71,20,104,68,133,153,180,154,280,275,289,262,151,187,154,129,63,115,27,78,121,65,44,53,40,75,67,70,14,18,0,0,0,2,0,0,0,1,3,3,6,15],"bins":[-1.1752310991287231,-1.1385070085525513,-1.1017827987670898,-1.065058708190918,-1.0283344984054565,-0.9916104078292847,-0.954886257648468,-0.9181621074676514,-0.8814379572868347,-0.8447138071060181,-0.8079896569252014,-0.7712655067443848,-0.7345414161682129,-0.6978172063827515,-0.6610931158065796,-0.6243689656257629,-0.5876448154449463,-0.5509206652641296,-0.514196515083313,-0.47747236490249634,-0.4407482147216797,-0.4040241241455078,-0.36729997396469116,-0.3305758237838745,-0.29385167360305786,-0.2571275234222412,-0.22040337324142456,-0.1836792230606079,-0.14695513248443604,-0.11023092269897461,-0.07350683212280273,-0.03678262233734131,-5.8650970458984375e-05,0.03666543960571289,0.07338964939117432,0.11011373996734619,0.14683794975280762,0.1835620403289795,0.22028619050979614,0.2570103406906128,0.29373449087142944,0.3304586410522461,0.36718279123306274,0.4039069414138794,0.44063103199005127,0.4773551821708679,0.5140793323516846,0.5508034825325012,0.5875276327133179,0.6242517828941345,0.6609759330749512,0.697700023651123,0.7344242334365845,0.7711483240127563,0.807872474193573,0.8445966243743896,0.8813207745552063,0.918044924736023,0.9547690749168396,0.9914932250976562,1.0282173156738281,1.0649415254592896,1.1016656160354614,1.1383898258209229,1.1751139163970947],"_type":"histogram"},"parameters/action_net.bias":{"values":[1,0,0,0,0,0,1,0,0,0,0,0,0,0,0,0,0,0,0,1,0,0,0,0,0,0,0,0,0,0,0,0,0,0,0,0,0,0,0,0,0,0,0,0,0,0,0,0,0,0,0,0,1,0,0,0,0,0,0,0,0,0,0,1],"bins":[-0.004072854295372963,-0.003993541467934847,-0.003914229106158018,-0.003834916278719902,-0.003755603451281786,-0.0036762908566743135,-0.003596978262066841,-0.003517665434628725,-0.0034383528400212526,-0.00335904024541378,-0.003279727417975664,-0.0032004148233681917,-0.0031211022287607193,-0.0030417894013226032,-0.002962476806715131,-0.0028831642121076584,-0.0028038513846695423,-0.0027245385572314262,-0.002645225962623954,-0.0025659133680164814,-0.0024866005405783653,-0.002407287945970893,-0.0023279753513634205,-0.0022486625239253044,-0.002169349929317832,-0.0020900373347103596,-0.0020107245072722435,-0.001931411912664771,-0.0018520993180572987,-0.0017727864906191826,-0.0016934738960117102,-0.001614161068573594,-0.0015348483575507998,-0.0014555357629433274,-0.0013762229355052114,-0.001296910340897739,-0.0012175975134596229,-0.0011382849188521504,-0.001058972324244678,-0.000979659496806562,-0.0009003469021990895,-0.0008210341911762953,-0.000741721480153501,-0.0006624088855460286,-0.0005830961745232344,-0.0005037834635004401,-0.0004244708688929677,-0.00034515815787017345,-0.0002658454468473792,-0.00018653273582458496,-0.00010722002480179071,-2.7907430194318295e-05,5.140528082847595e-05,0.0001307179918512702,0.00021003064466640353,0.00028934329748153687,0.0003686560085043311,0.00044796871952712536,0.0005272813723422587,0.000606594025157392,0.0006859067361801863,0.0007652194472029805,0.0008445321000181139,0.0009238447528332472,0.0010031574638560414],"_type":"histogram"},"step":10239,"hydro_capacity":2486.0282571361186,"parameters/mlp_extractor.policy_net.0.bias":{"values":[1,0,0,0,0,0,1,1,1,0,0,0,0,0,1,0,0,0,1,0,0,1,1,1,2,1,0,3,1,3,4,5,6,2,3,3,1,2,6,2,1,0,1,1,1,1,0,1,2,0,0,0,0,0,0,1,0,0,1,0,0,0,0,1],"bins":[-5.117724504088983e-05,-4.9676582420943305e-05,-4.817591616301797e-05,-4.667525354307145e-05,-4.517458728514612e-05,-4.367392466519959e-05,-4.217326204525307e-05,-4.067259578732774e-05,-3.917193316738121e-05,-3.767127054743469e-05,-3.6170604289509356e-05,-3.466994166956283e-05,-3.316927904961631e-05,-3.1668612791690975e-05,-3.016795017174445e-05,-2.8667285732808523e-05,-2.7166621293872595e-05,-2.5665956854936667e-05,-2.416529241600074e-05,-2.2664629796054214e-05,-2.1163965357118286e-05,-1.9663300918182358e-05,-1.8162638298235834e-05,-1.6661972040310502e-05,-1.5161309420363978e-05,-1.3660646800417453e-05,-1.2159980542492121e-05,-1.0659317922545597e-05,-9.158655302599072e-06,-7.657989044673741e-06,-6.157326424727216e-06,-4.656660166801885e-06,-3.1560011848341674e-06,-1.6553385648876429e-06,-1.5467230696231127e-07,1.3459903129842132e-06,2.846656570909545e-06,4.347319190856069e-06,5.847981810802594e-06,7.348648068727925e-06,8.84931068867445e-06,1.0349973308620974e-05,1.1850639566546306e-05,1.335130218649283e-05,1.4851966625428759e-05,1.6352631064364687e-05,1.785329368431121e-05,1.935395812324714e-05,2.0854622562183067e-05,2.2355287001118995e-05,2.3855951440054923e-05,2.5356614060001448e-05,2.6857278498937376e-05,2.8357942937873304e-05,2.985860555781983e-05,3.135926817776635e-05,3.2859934435691684e-05,3.4360600693617016e-05,3.586126331356354e-05,3.7361925933510065e-05,3.88625921914354e-05,4.036325481138192e-05,4.1863917431328446e-05,4.336458368925378e-05,4.48652463092003e-05],"_type":"histogram"},"parameters/value_net.bias":{"bins":[0.38316985964775085,0.38316985964775085],"_type":"histogram","values":[1]},"cumulative_reward":835851.5282771215,"gradients/mlp_extractor.policy_net.0.weight":{"_type":"histogram","values":[1,1,0,0,0,1,0,0,0,0,0,0,0,0,3,2,0,0,0,0,0,1,2,2,0,0,2,0,6,5,11,9,7,15,25,44,99,393,80,28,28,18,8,4,4,5,1,7,1,3,3,2,3,1,1,2,0,1,0,1,0,1,0,1],"bins":[-0.0074406033381819725,-0.007241113111376762,-0.00704162335023284,-0.0068421331234276295,-0.006642643362283707,-0.0064431531354784966,-0.0062436629086732864,-0.006044173147529364,-0.005844683386385441,-0.005645193159580231,-0.005445702932775021,-0.005246213171631098,-0.005046722944825888,-0.004847233183681965,-0.004647742956876755,-0.004448252730071545,-0.004248762968927622,-0.004049273207783699,-0.003849782980978489,-0.0036502929870039225,-0.003450802993029356,-0.003251312766224146,-0.003051823005080223,-0.002852332778275013,-0.002652842551469803,-0.00245335279032588,-0.00225386256352067,-0.002054372802376747,-0.001854882575571537,-0.0016553928144276142,-0.001455902587622404,-0.0012564128264784813,-0.0010569225996732712,-0.0008574323728680611,-0.0006579426117241383,-0.00045845238491892815,-0.00025896262377500534,-5.947239696979523e-05,0.00014001736417412758,0.0003395075909793377,0.0005389973521232605,0.0007384875789284706,0.0009379778057336807,0.0011374675668776035,0.0013369577936828136,0.00153644778765738,0.0017359377816319466,0.001935427775606513,0.0021349177695810795,0.002334407763555646,0.0025338977575302124,0.002733387751504779,0.0029328777454793453,0.0031323679722845554,0.003331857966259122,0.0035313479602336884,0.003730837954208255,0.003930327948182821,0.004129817709326744,0.004329307936131954,0.004528798162937164,0.004728287924081087,0.004927778150886297,0.00512726791203022,0.00532675813883543]},"_step":10251,"_wandb":{"runtime":985},"net_profit":8.089581425365921e+06,"gradients/action_net.weight":{"_type":"histogram","values":[3,0,4,1,1,0,0,3,1,1,5,2,3,2,1,2,2,2,2,3,3,4,14,5,4,10,8,13,14,9,15,8,17,13,12,7,18,11,10,7,12,7,5,7,5,5,3,1,3,0,2,0,4,1,4,2,1,5,2,3,2,1,2,3],"bins":[-0.14864878356456757,-0.14414222538471222,-0.13963566720485687,-0.13512910902500153,-0.13062255084514618,-0.12611599266529083,-0.12160944193601608,-0.11710288375616074,-0.11259632557630539,-0.10808976739645004,-0.1035832092165947,-0.09907665848731995,-0.0945701003074646,-0.09006354212760925,-0.0855569839477539,-0.08105042576789856,-0.07654386758804321,-0.07203730940818787,-0.06753075122833252,-0.06302419304847717,-0.058517634868621826,-0.054011084139347076,-0.04950452595949173,-0.04499796777963638,-0.040491409599781036,-0.03598485141992569,-0.03147829324007034,-0.026971735060214996,-0.022465184330940247,-0.0179586261510849,-0.013452067971229553,-0.008945509791374207,-0.004438966512680054,6.759166717529297e-05,0.00457414984703064,0.009080708026885986,0.013587266206741333,0.018093816936016083,0.02260037511587143,0.027106933295726776,0.03161349147558212,0.03612004965543747,0.040626607835292816,0.04513316601514816,0.04963971674442291,0.05414627492427826,0.058652833104133606,0.06315939128398895,0.0676659494638443,0.07217250764369965,0.07667906582355499,0.08118562400341034,0.08569218218326569,0.09019874036312103,0.09470529109239578,0.09921184927225113,0.10371840745210648,0.10822496563196182,0.11273152381181717,0.11723807454109192,0.12174463272094727,0.1262511909008026,0.13075774908065796,0.1352643072605133,0.13977086544036865]},"gradients/mlp_extractor.policy_net.0.bias":{"values":[1,1,0,0,0,0,0,0,0,0,0,0,1,1,0,0,0,0,0,0,0,1,1,1,0,1,2,1,1,0,2,2,1,2,4,14,4,3,2,2,3,0,1,1,0,0,1,1,1,0,2,1,0,0,1,1,1,0,0,1,0,0,0,1],"bins":[-0.0008815939072519541,-0.0008568201446905732,-0.0008320463821291924,-0.0008072726195678115,-0.0007824988570064306,-0.0007577250944450498,-0.0007329513318836689,-0.000708177569322288,-0.0006834038067609072,-0.0006586300441995263,-0.0006338562816381454,-0.0006090825190767646,-0.0005843088147230446,-0.0005595350521616638,-0.0005347612896002829,-0.000509987527038902,-0.0004852137644775212,-0.0004604400019161403,-0.00043566623935475945,-0.0004108924767933786,-0.00038611871423199773,-0.00036134495167061687,-0.000336571189109236,-0.00031179742654785514,-0.0002870237221941352,-0.0002622499596327543,-0.00023747619707137346,-0.0002127024345099926,-0.00018792867194861174,-0.00016315490938723087,-0.00013838114682585,-0.00011360738426446915,-8.883356349542737e-05,-6.405980093404651e-05,-3.9286038372665644e-05,-1.451227581128478e-05,1.0261486750096083e-05,3.5035249311476946e-05,5.980901187285781e-05,8.458277443423867e-05,0.00010935653699561954,0.00013413024134933949,0.00015890400391072035,0.0001836777664721012,0.00020845152903348207,0.00023322529159486294,0.0002579990541562438,0.00028277281671762466,0.00030754657927900553,0.0003323203418403864,0.00035709410440176725,0.0003818678669631481,0.000406641629524529,0.0004314153629820794,0.00045618912554346025,0.0004809628881048411,0.0005057366797700524,0.0005305104423314333,0.0005552842048928142,0.0005800579092465341,0.000604831671807915,0.0006296054343692958,0.0006543791969306767,0.0006791529594920576,0.0007039267220534384],"_type":"histogram"},"parameters/mlp_extractor.policy_net.0.weight":{"values":[1,0,0,0,0,1,2,0,0,1,3,6,3,4,10,8,11,3,11,13,20,11,14,28,19,27,23,38,23,25,33,36,24,37,25,32,37,25,35,30,35,19,25,14,17,16,11,19,12,9,7,3,4,5,0,4,3,2,0,5,0,0,1,2],"bins":[-0.5870586037635803,-0.5694934129714966,-0.5519282817840576,-0.5343630909919739,-0.5167979598045349,-0.49923276901245117,-0.4816676080226898,-0.46410244703292847,-0.4465372860431671,-0.42897212505340576,-0.4114069640636444,-0.39384180307388306,-0.3762766122817993,-0.35871148109436035,-0.3411462903022766,-0.32358112931251526,-0.3060159683227539,-0.28845080733299255,-0.2708856463432312,-0.25332048535346985,-0.2357553243637085,-0.21819013357162476,-0.2006249725818634,-0.18305981159210205,-0.1654946506023407,-0.14792948961257935,-0.130364328622818,-0.11279916763305664,-0.0952339768409729,-0.07766884565353394,-0.060103654861450195,-0.04253852367401123,-0.02497333288192749,-0.00740814208984375,0.010156989097595215,0.027722179889678955,0.04528731107711792,0.06285250186920166,0.08041766285896301,0.09798282384872437,0.11554798483848572,0.13311314582824707,0.15067830681800842,0.16824346780776978,0.18580865859985352,0.20337381958961487,0.22093898057937622,0.23850414156913757,0.2560693025588989,0.2736344635486603,0.29119962453842163,0.30876481533050537,0.32632994651794434,0.3438951373100281,0.36146029829978943,0.3790254592895508,0.39659062027931213,0.4141557812690735,0.43172094225883484,0.4492861032485962,0.46685129404067993,0.4844164550304413,0.5019816160202026,0.5195467472076416,0.5371119379997253],"_type":"histogram"},"gradients/mlp_extractor.value_net.2.bias":{"values":[1,0,0,0,0,0,0,0,0,0,0,0,0,0,0,1,0,0,0,2,0,0,0,0,1,1,1,3,1,0,1,1,0,2,2,2,3,0,2,2,3,2,5,3,2,3,0,2,2,1,2,0,0,0,2,1,0,1,1,0,3,0,1,4],"bins":[-1.1755567789077759,-1.1467841863632202,-1.1180115938186646,-1.0892391204833984,-1.0604665279388428,-1.031693935394287,-1.0029213428497314,-0.9741487503051758,-0.9453762173652649,-0.9166036248207092,-0.8878310918807983,-0.8590584993362427,-0.830285906791687,-0.8015133142471313,-0.7727407813072205,-0.7439681887626648,-0.7151956558227539,-0.6864230632781982,-0.6576504707336426,-0.6288779377937317,-0.600105345249176,-0.5713327527046204,-0.5425602197647095,-0.5137876272201538,-0.48501503467559814,-0.45624250173568726,-0.4274699091911316,-0.3986973166465759,-0.36992478370666504,-0.3411521911621094,-0.3123795986175537,-0.2836070656776428,-0.25483447313308716,-0.2260618805885315,-0.1972893476486206,-0.16851675510406494,-0.13974416255950928,-0.11097162961959839,-0.08219903707504272,-0.05342644453048706,-0.024653911590576172,0.004118680953979492,0.032891273498535156,0.061663806438446045,0.09043639898300171,0.11920899152755737,0.14798152446746826,0.17675411701202393,0.2055266797542572,0.23429924249649048,0.26307183504104614,0.2918443977832794,0.3206169605255127,0.34938955307006836,0.37816211581230164,0.4069346785545349,0.4357072710990906,0.46447983384132385,0.49325239658355713,0.5220249891281128,0.5507975220680237,0.5795701146125793,0.608342707157135,0.6371152400970459,0.6658878326416016],"_type":"histogram"},"reward":80.89581139823834,"gradients/mlp_extractor.policy_net.2.weight":{"_type":"histogram","values":[7,1,4,11,13,11,15,9,20,26,23,34,37,21,25,36,41,56,50,67,80,79,86,85,87,104,113,121,135,176,201,282,256,187,165,154,125,120,87,94,94,89,84,76,72,47,59,31,31,28,27,38,48,18,23,10,22,10,7,14,8,6,3,7],"bins":[-0.0009650936117395759,-0.0009349095053039491,-0.0009047253406606615,-0.0008745412342250347,-0.0008443570695817471,-0.0008141729631461203,-0.0007839888567104936,-0.0007538046920672059,-0.0007236205274239182,-0.0006934364209882915,-0.0006632523145526648,-0.0006330681499093771,-0.0006028840434737504,-0.0005726999370381236,-0.000542515772394836,-0.0005123316077515483,-0.00048214750131592155,-0.0004519633948802948,-0.00042177923023700714,-0.0003915951238013804,-0.00036141095915809274,-0.000331226852722466,-0.00030104268807917833,-0.0002708585816435516,-0.00024067447520792484,-0.00021049031056463718,-0.00018030620412901044,-0.00015012203948572278,-0.00011993793305009604,-8.975376840680838e-05,-5.956966197118163e-05,-2.9385497327893972e-05,7.986091077327728e-07,3.098271554335952e-05,6.116688018664718e-05,9.135098662227392e-05,0.00012153515126556158,0.00015171925770118833,0.00018190342234447598,0.00021208752878010273,0.0002422716934233904,0.00027245579985901713,0.0003026399062946439,0.00033282407093793154,0.0003630081773735583,0.00039319234201684594,0.0004233764484524727,0.00045356061309576035,0.0004837447195313871,0.0005139288259670138,0.0005441129906103015,0.0005742971552535892,0.0006044812616892159,0.0006346653681248426,0.0006648495327681303,0.000695033639203757,0.0007252177456393838,0.0007554019102826715,0.0007855860749259591,0.0008157701813615859,0.0008459542877972126,0.0008761384524405003,0.000906322558876127,0.0009365067235194147,0.0009666908299550414]},"revenue":8.089733235951092e+06,"gradients/value_net.weight":{"bins":[-1257.1541748046875,-1217.8680419921875,-1178.5819091796875,-1139.2957763671875,-1100.0096435546875,-1060.7235107421875,-1021.4373779296875,-982.1512451171875,-942.8651123046875,-903.5789794921875,-864.2928466796875,-825.0067138671875,-785.7206420898438,-746.4345092773438,-707.1483764648438,-667.8622436523438,-628.5761108398438,-589.2899780273438,-550.0038452148438,-510.71771240234375,-471.43157958984375,-432.14544677734375,-392.85931396484375,-353.57318115234375,-314.287109375,-275.0009765625,-235.71484375,-196.4287109375,-157.142578125,-117.8564453125,-78.5703125,-39.2841796875,0.001953125,39.2880859375,78.57421875,117.8603515625,157.146484375,196.4326171875,235.71875,275.0048828125,314.291015625,353.57708740234375,392.86322021484375,432.14935302734375,471.43548583984375,510.72161865234375,550.0077514648438,589.2938842773438,628.5800170898438,667.8661499023438,707.1522827148438,746.4384155273438,785.7245483398438,825.0106201171875,864.2967529296875,903.5828857421875,942.8690185546875,982.1551513671875,1021.4412841796875,1060.7274169921875,1100.0135498046875,1139.2996826171875,1178.5858154296875,1217.8719482421875,1257.1580810546875],"_type":"histogram","values":[29,0,0,0,0,0,0,0,0,0,0,0,0,0,0,0,0,0,0,0,0,0,0,0,0,0,0,0,0,0,0,0,0,0,0,0,0,0,0,0,0,0,0,0,0,0,0,0,0,0,0,0,0,0,0,0,0,0,0,0,0,0,0,35]},"risk_penalty":0.571084175,"parameters/mlp_extractor.value_net.2.bias":{"values":[1,0,1,0,0,4,0,1,1,3,0,3,3,6,3,3,5,0,1,0,0,0,0,0,0,0,0,0,0,0,0,0,0,0,0,0,0,0,0,0,0,1,0,0,0,2,1,2,7,2,2,2,0,3,1,0,1,2,1,0,0,0,0,2],"bins":[-0.09655401110649109,-0.09348632395267487,-0.09041863679885864,-0.08735094964504242,-0.0842832624912262,-0.08121557533740997,-0.07814788818359375,-0.07508019357919693,-0.0720125064253807,-0.06894481927156448,-0.06587713211774826,-0.06280944496393204,-0.059741757810115814,-0.05667407065629959,-0.05360637977719307,-0.050538692623376846,-0.04747100546956062,-0.0444033183157444,-0.04133563116192818,-0.038267940282821655,-0.03520025312900543,-0.03213256597518921,-0.029064878821372986,-0.025997191667556763,-0.02292950451374054,-0.019861817359924316,-0.016794130206108093,-0.013726435601711273,-0.01065874844789505,-0.007591061294078827,-0.004523374140262604,-0.0014556869864463806,0.0016120001673698425,0.004679687321186066,0.007747374475002289,0.010815061628818512,0.013882748782634735,0.016950435936450958,0.02001813054084778,0.023085817694664,0.026153504848480225,0.029221192002296448,0.03228887915611267,0.035356566309928894,0.03842425346374512,0.04149194061756134,0.04455963149666786,0.047627318650484085,0.05069500580430031,0.05376269295811653,0.056830380111932755,0.059898070991039276,0.0629657581448555,0.06603344529867172,0.06910113245248795,0.07216881960630417,0.07523650676012039,0.07830419391393661,0.08137188851833344,0.08443957567214966,0.08750726282596588,0.0905749499797821,0.09364263713359833,0.09671032428741455,0.09977801144123077],"_type":"histogram"},"parameters/mlp_extractor.policy_net.2.weight":{"values":[1,2,0,1,4,5,4,6,7,9,21,12,23,38,30,45,47,56,70,70,79,100,114,107,131,124,148,136,154,182,150,158,150,170,165,149,157,127,138,126,117,121,97,70,71,69,63,47,41,34,23,25,26,21,13,10,7,8,5,3,3,3,2,1],"bins":[-0.5831117630004883,-0.5651745796203613,-0.5472374558448792,-0.5293002724647522,-0.5113630890846252,-0.4934259355068207,-0.4754887819290161,-0.45755159854888916,-0.4396144449710846,-0.42167729139328003,-0.4037401080131531,-0.3858029544353485,-0.36786580085754395,-0.349928617477417,-0.3319914638996124,-0.3140542805194855,-0.2961171269416809,-0.27817997336387634,-0.2602427899837494,-0.24230563640594482,-0.22436845302581787,-0.2064312994480133,-0.18849414587020874,-0.1705569624900818,-0.15261980891227722,-0.13468265533447266,-0.1167454719543457,-0.09880831837654114,-0.08087116479873657,-0.06293398141860962,-0.044996798038482666,-0.02705967426300049,-0.00912243127822876,0.008814752101898193,0.02675187587738037,0.044689059257507324,0.06262624263763428,0.08056339621543884,0.09850054979324341,0.11643773317337036,0.13437488675117493,0.1523120403289795,0.17024922370910645,0.188186377286911,0.20612353086471558,0.22406071424484253,0.2419978678226471,0.25993505120277405,0.2778722047805786,0.2958093583583832,0.31374654173851013,0.3316836953163147,0.34962087869644165,0.3675580322742462,0.3854951858520508,0.40343236923217773,0.4213695228099823,0.43930667638778687,0.4572438597679138,0.4751810133457184,0.49311816692352295,0.5110553503036499,0.5289925336837769,0.546929657459259,0.564866840839386],"_type":"histogram"},"gradients/log_std":{"bins":[-0.2456379383802414,-0.2400037795305252,-0.23436960577964783,-0.22873544692993164,-0.22310128808021545,-0.21746712923049927,-0.2118329554796219,-0.2061987966299057,-0.20056463778018951,-0.19493046402931213,-0.18929630517959595,-0.18366214632987976,-0.17802798748016357,-0.1723938286304474,-0.16675965487957,-0.16112549602985382,-0.15549132227897644,-0.14985716342926025,-0.14422300457954407,-0.13858884572982788,-0.1329546868801117,-0.12732051312923431,-0.12168635427951813,-0.11605219542980194,-0.11041802167892456,-0.10478386282920837,-0.09914970397949219,-0.09351553022861481,-0.08788137137889862,-0.08224721252918243,-0.07661305367946625,-0.07097887992858887,-0.06534472852945328,-0.05971056967973709,-0.05407639592885971,-0.048442237079143524,-0.04280807822942734,-0.03717391937971115,-0.03153974562883377,-0.025905586779117584,-0.020271427929401398,-0.014637254178524017,-0.00900309532880783,-0.0033689364790916443,0.002265229821205139,0.007899388670921326,0.013533554971218109,0.019167713820934296,0.02480188012123108,0.030436046421527863,0.03607020527124405,0.04170437157154083,0.04733853042125702,0.0529726967215538,0.05860685929656029,0.06424102187156677,0.06987518072128296,0.07550934702157974,0.08114351332187653,0.08677767217159271,0.0924118384718895,0.09804599732160568,0.10368016362190247,0.10931432247161865,0.11494848877191544],"_type":"histogram","values":[1,0,0,0,0,0,0,0,0,0,0,0,0,0,0,0,0,0,0,0,0,1,0,0,0,0,0,0,0,0,0,1,0,1,0,0,0,0,0,0,0,0,0,0,0,0,0,0,0,0,0,0,0,0,0,0,0,0,0,0,0,0,0,1]},"parameters/mlp_extractor.policy_net.2.bias":{"values":[1,0,0,0,0,0,0,0,0,0,0,0,0,0,0,0,0,1,0,1,0,1,2,1,0,1,1,1,1,1,3,2,1,4,3,3,2,7,0,2,4,2,2,1,3,2,1,1,0,0,2,2,0,0,1,1,0,1,0,0,0,1,0,1],"bins":[-7.44482604204677e-05,-7.25311620044522e-05,-7.061405631247908e-05,-6.869695789646357e-05,-6.677985220449045e-05,-6.486275378847495e-05,-6.294564809650183e-05,-6.102854968048632e-05,-5.91114439885132e-05,-5.7194345572497696e-05,-5.5277239880524576e-05,-5.336014146450907e-05,-5.144303941051476e-05,-4.9525937356520444e-05,-4.760883530252613e-05,-4.569173324853182e-05,-4.3774631194537506e-05,-4.185752914054319e-05,-3.994042708654888e-05,-3.802332503255457e-05,-3.6106222978560254e-05,-3.418912092456594e-05,-3.227201887057163e-05,-3.0354916816577315e-05,-2.843781840056181e-05,-2.6520716346567497e-05,-2.4603614292573184e-05,-2.268651223857887e-05,-2.0769410184584558e-05,-1.8852308130590245e-05,-1.6935206076595932e-05,-1.501810402260162e-05,-1.3101001968607306e-05,-1.1183899914612994e-05,-9.26679786061868e-06,-7.349695806624368e-06,-5.432593752630055e-06,-3.515491698635742e-06,-1.5983896446414292e-06,3.187124093528837e-07,2.2358144633471966e-06,4.152912879362702e-06,6.070014933357015e-06,7.987116987351328e-06,9.904219041345641e-06,1.1821321095339954e-05,1.3738423149334267e-05,1.565552520332858e-05,1.7572627257322893e-05,1.9489729311317205e-05,2.140683136531152e-05,2.332393341930583e-05,2.5241035473300144e-05,2.7158135708305053e-05,2.9075237762299366e-05,3.099234163528308e-05,3.290944005129859e-05,3.482654574327171e-05,3.6743644159287214e-05,3.866074621328153e-05,4.057784826727584e-05,4.249495032127015e-05,4.4412052375264466e-05,4.632915442925878e-05,4.824625648325309e-05],"_type":"histogram"},"parameters/mlp_extractor.value_net.0.weight":{"values":[1,1,0,0,2,0,1,1,0,3,8,3,2,9,3,14,12,18,9,12,14,24,13,31,35,25,32,31,24,29,32,34,38,36,30,24,33,36,17,25,22,21,15,20,14,18,6,8,8,7,8,4,2,1,1,1,2,1,2,4,1,0,3,1],"bins":[-0.5779802203178406,-0.5599877834320068,-0.5419954061508179,-0.5240029692649841,-0.5060105919837952,-0.4880181550979614,-0.4700257480144501,-0.4520333409309387,-0.434040904045105,-0.416048526763916,-0.3980560898780823,-0.3800636827945709,-0.36207127571105957,-0.34407883882522583,-0.3260864317417145,-0.3080940246582031,-0.2901016175746918,-0.2721092104911804,-0.25411680340766907,-0.23612436652183533,-0.21813195943832397,-0.20013955235481262,-0.18214714527130127,-0.16415473818778992,-0.14616233110427856,-0.12816989421844482,-0.11017748713493347,-0.09218508005142212,-0.07419264316558838,-0.056200265884399414,-0.038207828998565674,-0.02021545171737671,-0.0022230148315429688,0.01576942205429077,0.033761799335479736,0.05175423622131348,0.06974661350250244,0.08773905038833618,0.10573145747184753,0.12372386455535889,0.14171630144119263,0.15970870852470398,0.17770111560821533,0.19569352269172668,0.21368592977523804,0.2316783368587494,0.24967077374458313,0.2676631808280945,0.28565558791160583,0.3036479949951172,0.32164040207862854,0.3396328091621399,0.35762524604797363,0.375617653131485,0.39361006021499634,0.4116024971008301,0.42959487438201904,0.4475873112678528,0.46557971835136414,0.4835721254348755,0.5015645623207092,0.5195569396018982,0.5375493764877319,0.5555417537689209,0.5735341906547546],"_type":"histogram"},"gradients/mlp_extractor.value_net.0.bias":{"values":[1,0,0,0,0,1,1,0,0,0,0,0,0,1,1,0,1,0,2,1,1,0,1,1,1,1,0,1,1,2,7,9,9,2,1,2,3,2,1,0,2,1,2,0,0,1,0,1,0,0,0,1,0,0,0,0,0,0,0,1,0,0,0,1],"bins":[-0.5999162197113037,-0.5811061263084412,-0.5622960925102234,-0.5434859991073608,-0.5246759057044983,-0.5058658123016357,-0.48705577850341797,-0.4682456851005554,-0.44943562150001526,-0.4306255578994751,-0.41181546449661255,-0.3930054008960724,-0.3741953372955322,-0.3553852438926697,-0.3365751802921295,-0.31776508688926697,-0.2989550232887268,-0.28014495968818665,-0.2613348662853241,-0.24252480268478394,-0.2237147092819214,-0.20490464568138123,-0.18609458208084106,-0.16728448867797852,-0.14847442507743835,-0.1296643614768982,-0.11085426807403564,-0.0920441746711731,-0.07323414087295532,-0.05442404747009277,-0.035613954067230225,-0.01680392026901245,0.0020061135292053223,0.02081620693206787,0.039626240730285645,0.05843633413314819,0.07724642753601074,0.09605646133422852,0.11486655473709106,0.1336766481399536,0.15248671174049377,0.17129677534103394,0.19010686874389648,0.20891693234443665,0.2277269959449768,0.24653708934783936,0.2653471529483795,0.28415724635124207,0.3029673099517822,0.3217773735523224,0.34058746695518494,0.3593975305557251,0.37820762395858765,0.3970176875591278,0.41582775115966797,0.4346378445625305,0.4534479081630707,0.47225797176361084,0.4910680651664734,0.5098781585693359,0.5286881923675537,0.5474982857704163,0.5663083791732788,0.5851184129714966,0.6039285063743591],"_type":"histogram"},"gradients/value_net.bias":{"_type":"histogram","values":[1],"bins":[-1257.1729736328125,-1257.1729736328125]},"battery_energy":5328.849388939702,"parameters/mlp_extractor.value_net.2.weight":{"_type":"histogram","values":[4,1,3,6,3,7,9,15,15,13,27,35,47,46,53,54,53,74,100,117,113,115,134,108,125,144,154,165,164,145,159,158,166,160,156,164,142,120,110,99,93,77,78,78,55,45,37,31,25,13,21,9,13,13,7,4,3,1,3,4,0,1,0,2],"bins":[-0.5868266224861145,-0.5671324133872986,-0.5474382042884827,-0.5277439951896667,-0.508049726486206,-0.4883555471897125,-0.4686613082885742,-0.4489670991897583,-0.4292728900909424,-0.40957868099212646,-0.38988447189331055,-0.37019023299217224,-0.3504960238933563,-0.3308018147945404,-0.3111075758934021,-0.2914133667945862,-0.27171915769577026,-0.25202494859695435,-0.23233073949813843,-0.21263650059700012,-0.1929422914981842,-0.1732480823993683,-0.15355384349822998,-0.13385963439941406,-0.11416542530059814,-0.09447121620178223,-0.07477700710296631,-0.05508279800415039,-0.0353885293006897,-0.01569432020187378,0.003999888896942139,0.023694097995758057,0.04338836669921875,0.06308257579803467,0.08277678489685059,0.1024709939956665,0.12216520309448242,0.14185947179794312,0.16155368089675903,0.18124788999557495,0.20094209909439087,0.2206363081932068,0.2403305172920227,0.260024756193161,0.27971896529197693,0.29941317439079285,0.31910741329193115,0.33880162239074707,0.358495831489563,0.3781900405883789,0.3978842496871948,0.41757848858833313,0.43727269768714905,0.45696690678596497,0.47666114568710327,0.4963553547859192,0.5160495638847351,0.535743772983551,0.5554379820823669,0.5751321911811829,0.5948264598846436,0.6145206689834595,0.6342148780822754,0.6539090871810913,0.6736032962799072]}}