{"_timestamp":1.7485577285399506e+09,"gradients/mlp_extractor.value_net.0.weight":{"_type":"histogram","values":[4,0,2,0,0,0,2,2,2,1,2,2,1,3,0,0,4,5,3,7,10,2,5,10,9,10,6,8,17,12,18,26,32,24,48,370,32,18,25,12,28,3,11,7,3,6,7,7,2,4,7,2,1,2,1,1,0,0,2,2,0,0,0,2],"bins":[-4.867274284362793,-4.729310512542725,-4.5913472175598145,-4.453383445739746,-4.315420150756836,-4.177456378936768,-4.039493083953857,-3.901529312133789,-3.763566017150879,-3.6256022453308105,-3.4876389503479004,-3.349675178527832,-3.2117116451263428,-3.0737481117248535,-2.9357845783233643,-2.797821044921875,-2.6598575115203857,-2.5218939781188965,-2.3839304447174072,-2.245966911315918,-2.1080033779144287,-1.9700398445129395,-1.8320763111114502,-1.694112777709961,-1.5561490058898926,-1.4181854724884033,-1.280221939086914,-1.1422584056854248,-1.0042948722839355,-0.8663315773010254,-0.728367805480957,-0.5904045104980469,-0.4524409770965576,-0.31447720527648926,-0.1765139102935791,-0.03855013847351074,0.09941315650939941,0.23737668991088867,0.37534022331237793,0.5133037567138672,0.6512672901153564,0.7892310619354248,0.9271945953369141,1.0651581287384033,1.2031216621398926,1.3410851955413818,1.479048728942871,1.6170122623443604,1.7549757957458496,1.8929393291473389,2.030902862548828,2.1688663959503174,2.3068299293518066,2.444793701171875,2.582756996154785,2.7207207679748535,2.8586840629577637,2.996647834777832,3.134611129760742,3.2725749015808105,3.4105384349823,3.548501968383789,3.6864655017852783,3.8244290351867676,3.962392568588257]},"parameters/mlp_extractor.value_net.2.weight":{"_type":"histogram","values":[1,0,0,4,2,2,2,3,3,3,13,16,14,23,23,39,47,58,64,66,71,96,129,118,124,146,139,150,204,185,173,162,185,179,190,181,162,161,157,131,111,96,68,79,64,57,40,35,22,33,15,12,15,8,6,2,2,2,1,1,0,0,0,1],"bins":[-0.7332558631896973,-0.7101760506629944,-0.6870962381362915,-0.6640164256095886,-0.6409366130828857,-0.6178568005561829,-0.59477698802948,-0.5716971158981323,-0.5486173629760742,-0.5255374908447266,-0.5024577379226685,-0.4793778955936432,-0.4562980532646179,-0.43321824073791504,-0.41013842821121216,-0.3870586156845093,-0.3639788031578064,-0.3408989906311035,-0.31781917810440063,-0.29473936557769775,-0.2716595530509949,-0.2485797107219696,-0.2254999279975891,-0.20242011547088623,-0.17934024333953857,-0.1562604308128357,-0.1331806182861328,-0.11010080575942993,-0.08702099323272705,-0.06394118070602417,-0.04086136817932129,-0.017781555652618408,0.005298197269439697,0.028378009796142578,0.05145782232284546,0.07453763484954834,0.09761744737625122,0.1206972599029541,0.14377707242965698,0.16685688495635986,0.18993669748306274,0.2130165696144104,0.23609638214111328,0.2591761648654938,0.28225600719451904,0.3053358197212219,0.3284156322479248,0.3514954447746277,0.37457525730133057,0.39765506982803345,0.42073488235473633,0.4438146948814392,0.4668945074081421,0.48997434973716736,0.5130541324615479,0.5361340045928955,0.5592137575149536,0.5822936296463013,0.6053733825683594,0.628453254699707,0.6515330672264099,0.6746128797531128,0.6976926922798157,0.7207725048065186,0.7438523173332214]},"gradients/value_net.bias":{"values":[1],"bins":[-1281.68359375,-1281.68359375],"_type":"histogram"},"revenue":8.197466155482415e+06,"gradients/action_net.weight":{"values":[1,0,0,0,0,1,0,3,1,2,1,0,2,4,1,4,6,1,4,1,3,9,7,6,9,9,10,10,17,31,31,24,11,15,9,6,16,6,5,10,4,1,5,5,2,7,2,3,3,1,1,0,1,0,2,2,2,0,0,1,0,0,0,2],"bins":[-0.24677933752536774,-0.23864352703094482,-0.23050770163536072,-0.2223718911409378,-0.2142360806465149,-0.20610027015209198,-0.19796445965766907,-0.18982863426208496,-0.18169282376766205,-0.17355701327323914,-0.16542118787765503,-0.15728537738323212,-0.1491495668888092,-0.1410137563943863,-0.13287794589996338,-0.12474212050437927,-0.11660631000995636,-0.10847049951553345,-0.10033468902111053,-0.09219886362552643,-0.08406305313110352,-0.0759272426366806,-0.0677914172410965,-0.059655606746673584,-0.05151979625225067,-0.04338398575782776,-0.035248175263404846,-0.02711234986782074,-0.018976539373397827,-0.010840728878974915,-0.002704903483390808,0.005430892109870911,0.013566732406616211,0.021702557802200317,0.029838353395462036,0.03797417879104614,0.046109989285469055,0.05424579977989197,0.062381625175476074,0.07051743566989899,0.0786532461643219,0.08678905665874481,0.09492486715316772,0.10306069254875183,0.11119650304317474,0.11933231353759766,0.12746813893318176,0.13560394942760468,0.1437397599220276,0.1518755704164505,0.1600113809108734,0.16814720630645752,0.17628301680088043,0.18441882729530334,0.19255465269088745,0.20069046318531036,0.20882627367973328,0.2169620841741562,0.2250978946685791,0.2332337200641632,0.24136953055858612,0.24950534105300903,0.25764116644859314,0.26577696204185486,0.27391278743743896],"_type":"histogram"},"parameters/log_std":{"values":[1,0,0,0,0,0,0,0,0,0,0,0,0,0,0,1,0,0,0,0,0,0,0,1,0,0,0,0,0,1,0,0,0,0,0,0,0,0,0,0,0,0,0,0,0,0,0,0,0,0,0,0,0,0,0,0,0,0,0,0,0,0,0,1],"bins":[-0.00908423587679863,-0.008889274671673775,-0.00869431346654892,-0.00849935133010149,-0.008304390124976635,-0.00810942891985178,-0.007914467714726925,-0.00771950650960207,-0.0075245448388159275,-0.007329583168029785,-0.00713462196290493,-0.006939660757780075,-0.00674469955265522,-0.006549737881869078,-0.006354776676744223,-0.00615981500595808,-0.005964853800833225,-0.00576989259570837,-0.005574930924922228,-0.005379969719797373,-0.0051850080490112305,-0.004990046843886375,-0.00479508563876152,-0.004600123967975378,-0.004405162762850523,-0.004210201557725668,-0.004015239886939526,-0.0038202786818146706,-0.0036253174766898155,-0.003430355805903673,-0.003235394600778818,-0.0030404329299926758,-0.0028454712592065334,-0.0026505100540816784,-0.002455548383295536,-0.002260587178170681,-0.0020656255073845387,-0.0018706643022596836,-0.0016757030971348286,-0.0014807414263486862,-0.0012857802212238312,-0.0010908190160989761,-0.0008958573453128338,-0.0007008961401879787,-0.00050593470223248,-0.00031097326427698135,-0.00011601205915212631,7.894937880337238e-05,0.0002739108167588711,0.0004688722547143698,0.0006638336926698685,0.0008587948977947235,0.0010537563357502222,0.001248717773705721,0.0014436790952458978,0.0016386404167860746,0.0018336018547415733,0.002028563292697072,0.0022235247306525707,0.0024184859357774258,0.0026134473737329245,0.002808408811688423,0.003003370016813278,0.003198331454768777,0.0033932928927242756],"_type":"histogram"},"wind_capacity":2219.8780775743044,"gradients/log_std":{"_type":"histogram","values":[1,0,0,0,0,0,0,0,0,0,0,0,0,0,0,0,0,0,0,0,0,0,0,0,0,0,0,0,0,0,0,0,0,1,0,0,0,0,0,0,1,1,0,0,0,0,0,0,0,0,0,0,0,0,0,0,0,0,0,0,0,0,0,1],"bins":[-0.18506500124931335,-0.1775282323360443,-0.16999146342277527,-0.16245467960834503,-0.154917910695076,-0.14738114178180695,-0.1398443728685379,-0.13230758905410767,-0.12477082014083862,-0.11723405122756958,-0.10969728231430054,-0.1021605059504509,-0.09462373703718185,-0.08708696067333221,-0.07955019176006317,-0.07201341539621353,-0.06447664648294449,-0.05693987011909485,-0.049403101205825806,-0.04186633229255676,-0.03432956337928772,-0.026792779564857483,-0.01925601065158844,-0.011719241738319397,-0.004182472825050354,0.003354296088218689,0.010891079902648926,0.01842784881591797,0.02596461772918701,0.033501386642456055,0.04103817045688629,0.048574939370155334,0.05611170828342438,0.06364847719669342,0.07118524610996246,0.0787220299243927,0.08625879883766174,0.09379556775093079,0.10133233666419983,0.10886912047863007,0.11640588939189911,0.12394265830516815,0.1314794272184372,0.13901619613170624,0.14655297994613647,0.15408974885940552,0.16162651777267456,0.1691632866859436,0.17670005559921265,0.1842368245124817,0.19177360832691193,0.19931037724018097,0.2068471610546112,0.21438392996788025,0.2219206988811493,0.22945746779441833,0.23699423670768738,0.24453100562095642,0.25206777453422546,0.2596045732498169,0.26714134216308594,0.274678111076355,0.282214879989624,0.28975164890289307,0.2972884178161621]},"parameters/mlp_extractor.value_net.0.weight":{"values":[1,1,2,3,2,1,3,5,9,3,11,12,11,12,9,12,14,17,18,25,21,20,21,19,31,36,37,33,30,20,28,26,27,25,33,18,30,16,21,19,22,18,16,9,10,8,15,8,7,8,3,4,8,3,3,1,1,1,1,1,2,0,0,1],"bins":[-0.5059118866920471,-0.48832759261131287,-0.4707432985305786,-0.453158974647522,-0.4355746805667877,-0.41799038648605347,-0.4004060924053192,-0.38282179832458496,-0.3652374744415283,-0.34765321016311646,-0.3300688862800598,-0.31248459219932556,-0.2949002981185913,-0.27731597423553467,-0.2597317099571228,-0.24214738607406616,-0.2245630919933319,-0.20697879791259766,-0.1893945038318634,-0.17181017994880676,-0.1542258858680725,-0.13664159178733826,-0.119057297706604,-0.10147300362586975,-0.0838887095451355,-0.06630438566207886,-0.048720091581344604,-0.03113579750061035,-0.013551503419876099,0.004032790660858154,0.021617114543914795,0.03920137882232666,0.0567857027053833,0.07437002658843994,0.0919542908668518,0.10953861474990845,0.1271229088306427,0.14470720291137695,0.1622914969921112,0.17987579107284546,0.1974601149559021,0.21504440903663635,0.2326287031173706,0.25021299719810486,0.2677972912788391,0.28538158535957336,0.30296590924263,0.32055020332336426,0.3381344974040985,0.35571879148483276,0.3733031153678894,0.39088737964630127,0.4084717035293579,0.42605599761009216,0.4436402916908264,0.46122461557388306,0.4788088798522949,0.49639320373535156,0.5139775276184082,0.5315617918968201,0.5491461157798767,0.5667303800582886,0.5843147039413452,0.6018989682197571,0.6194832921028137],"_type":"histogram"},"gradients/mlp_extractor.policy_net.0.bias":{"bins":[-0.005900735966861248,-0.0057290722616016865,-0.005557409022003412,-0.005385745316743851,-0.005214081611484289,-0.005042417906224728,-0.004870754666626453,-0.004699090961366892,-0.00452742725610733,-0.004355764016509056,-0.0041841003112494946,-0.004012436605989933,-0.0038407733663916588,-0.0036691096611320972,-0.0034974461887031794,-0.003325782483443618,-0.0031541190110147,-0.002982455538585782,-0.0028107918333262205,-0.0026391283608973026,-0.002467464655637741,-0.002295801183208823,-0.0021241377107799053,-0.0019524740055203438,-0.0017808107659220695,-0.001609147060662508,-0.0014374833554029465,-0.001265819650143385,-0.0010941564105451107,-0.0009224927052855492,-0.0007508290000259876,-0.0005791657604277134,-0.00040750158950686455,-0.000235837884247303,-6.417464464902878e-05,0.00010748906061053276,0.0002791527658700943,0.00045081600546836853,0.0006224797107279301,0.0007941434159874916,0.0009658071212470531,0.0011374703608453274,0.001309134066104889,0.0014807975385338068,0.0016524610109627247,0.0018241247162222862,0.001995788188651204,0.0021674518939107656,0.0023391153663396835,0.0025107788387686014,0.002682442544028163,0.002854106016457081,0.0030257697217166424,0.0031974331941455603,0.003369096666574478,0.0035407603718340397,0.0037124238442629576,0.0038840873166918755,0.004055751021951437,0.0042274147272109985,0.004399077966809273,0.004570741672068834,0.004742405377328396,0.00491406861692667,0.005085732322186232],"_type":"histogram","values":[1,0,0,0,0,0,1,0,1,0,0,0,2,1,0,2,1,1,0,0,2,0,0,2,1,1,4,0,1,3,3,2,3,1,1,1,1,1,0,0,3,3,1,1,0,5,1,0,4,1,1,0,1,0,0,0,3,0,0,1,0,1,0,1]},"cumulative_reward":833238.273153644,"parameters/action_net.weight":{"bins":[-0.011424404568970203,-0.011062487959861755,-0.010700571350753307,-0.01033865474164486,-0.009976738132536411,-0.009614821523427963,-0.00925290584564209,-0.008890988305211067,-0.008529072627425194,-0.008167155086994171,-0.00780523894354701,-0.007443322334438562,-0.007081406190991402,-0.006719489581882954,-0.006357572972774506,-0.005995656363666058,-0.0056337397545576096,-0.0052718231454491615,-0.0049099065363407135,-0.0045479899272322655,-0.0041860733181238174,-0.0038241571746766567,-0.0034622400999069214,-0.0031003234907984734,-0.0027384078130126,-0.002376491203904152,-0.002014574594795704,-0.0016526579856872559,-0.0012907413765788078,-0.0009288247674703598,-0.0005669081583619118,-0.00020499154925346375,0.00015692505985498428,0.0005188416689634323,0.0008807582780718803,0.0012426748871803284,0.0016045914962887764,0.0019665081053972244,0.0023284247145056725,0.0026903413236141205,0.0030522579327225685,0.003414173610508442,0.00377609021961689,0.004138007294386625,0.004499923437833786,0.004861840046942234,0.005223756656050682,0.00558567326515913,0.005947589874267578,0.006309506483376026,0.006671423092484474,0.007033339701592922,0.00739525631070137,0.007757172454148531,0.008119089528918266,0.00848100520670414,0.008842922747135162,0.009204838424921036,0.009566755965352058,0.009928671643137932,0.01029058825224638,0.010652504861354828,0.011014421470463276,0.011376338079571724,0.011738254688680172],"_type":"histogram","values":[2,1,1,0,1,2,1,1,0,5,2,2,4,5,3,1,5,5,4,4,3,4,8,5,7,13,7,7,5,11,16,19,16,16,9,8,12,13,12,9,5,5,4,7,5,1,6,5,1,3,4,2,6,2,1,7,2,0,1,0,1,1,1,1]},"net_profit":8.197335298297034e+06,"parameters/value_net.bias":{"_type":"histogram","values":[1],"bins":[0.36038845777511597,0.36038845777511597]},"hydro_capacity":1628.174818979707,"parameters/mlp_extractor.value_net.0.bias":{"values":[1,1,0,1,1,1,1,2,1,1,0,3,5,0,2,0,1,0,1,0,0,0,0,1,1,1,0,1,0,1,0,1,0,0,1,0,0,0,0,1,0,2,0,1,1,3,1,3,0,3,3,2,3,2,1,3,1,1,0,0,1,2,0,1],"bins":[-0.133653461933136,-0.12927891314029694,-0.12490437179803848,-0.12052983045578003,-0.11615528166294098,-0.11178073287010193,-0.10740619152784348,-0.10303165018558502,-0.09865710139274597,-0.09428255259990692,-0.08990801125764847,-0.08553346991539001,-0.08115892112255096,-0.07678437232971191,-0.07240983098745346,-0.06803528964519501,-0.06366074085235596,-0.05928619205951691,-0.05491165071725845,-0.050537109375,-0.04616256058216095,-0.0417880117893219,-0.037413470447063446,-0.03303892910480499,-0.028664380311965942,-0.024289831519126892,-0.01991529017686844,-0.015540748834609985,-0.011166200041770935,-0.006791651248931885,-0.0024171173572540283,0.001957431435585022,0.006331965327262878,0.010706514120101929,0.015081062912940979,0.019455596804618835,0.023830145597457886,0.028204694390296936,0.03257923573255539,0.03695377707481384,0.04132832586765289,0.04570287466049194,0.0500774160027504,0.05445195734500885,0.0588265061378479,0.06320105493068695,0.0675755962729454,0.07195013761520386,0.07632468640804291,0.08069923520088196,0.08507377654314041,0.08944831788539886,0.09382286667823792,0.09819741547107697,0.10257195681333542,0.10694649815559387,0.11132104694843292,0.11569559574127197,0.12007013708353043,0.12444467842578888,0.12881922721862793,0.13319377601146698,0.13756832480430603,0.1419428586959839,0.14631740748882294],"_type":"histogram"},"parameters/mlp_extractor.policy_net.2.weight":{"values":[3,1,0,1,3,2,3,2,6,3,10,7,19,21,22,33,34,36,51,64,81,101,85,115,134,135,149,152,148,187,167,190,169,189,168,179,152,150,126,125,124,108,105,93,82,72,59,49,33,36,28,13,18,16,5,7,7,5,5,2,2,2,1,1],"bins":[-0.6315828561782837,-0.6121734976768494,-0.5927641987800598,-0.5733548402786255,-0.5539455413818359,-0.5345361828804016,-0.5151268839836121,-0.49571752548217773,-0.4763081967830658,-0.45689886808395386,-0.4374895393848419,-0.41808021068573,-0.39867085218429565,-0.3792615234851837,-0.3598521947860718,-0.34044286608695984,-0.3210335373878479,-0.30162420868873596,-0.282214879989624,-0.2628055512905121,-0.24339622259140015,-0.22398686408996582,-0.20457753539085388,-0.18516820669174194,-0.16575887799263,-0.14634954929351807,-0.12694019079208374,-0.10753089189529419,-0.08812153339385986,-0.06871223449707031,-0.049302875995635986,-0.029893577098846436,-0.010484278202056885,0.008925080299377441,0.028334379196166992,0.04774373769760132,0.06715303659439087,0.0865623950958252,0.10597169399261475,0.12538105249404907,0.144790381193161,0.16419970989227295,0.1836090385913849,0.20301836729049683,0.22242772579193115,0.2418370544910431,0.26124638319015503,0.28065571188926697,0.3000650405883789,0.31947436928749084,0.3388836979866028,0.3582930266857147,0.37770235538482666,0.397111713886261,0.4165210425853729,0.43593037128448486,0.4553396999835968,0.47474902868270874,0.4941583573818207,0.5135676860809326,0.5329770445823669,0.5523863434791565,0.5717957019805908,0.5912050008773804,0.6106143593788147],"_type":"histogram"},"solar_capacity":2694.8063725102884,"gradients/value_net.weight":{"bins":[-1281.6336669921875,-1241.5828857421875,-1201.5321044921875,-1161.4813232421875,-1121.4305419921875,-1081.3798828125,-1041.3291015625,-1001.2783203125,-961.2275390625,-921.1767578125,-881.1259765625,-841.0751953125,-801.0244140625,-760.9736328125,-720.9229125976562,-680.8721313476562,-640.8213500976562,-600.7705688476562,-560.7197875976562,-520.6690673828125,-480.6182861328125,-440.5675048828125,-400.5167236328125,-360.4659423828125,-320.4151611328125,-280.36444091796875,-240.3135986328125,-200.262939453125,-160.212158203125,-120.161376953125,-80.110595703125,-40.059814453125,-0.009033203125,40.041748046875,80.092529296875,120.143310546875,160.194091796875,200.244873046875,240.2955322265625,280.34637451171875,320.3970947265625,360.4478759765625,400.4986572265625,440.5494384765625,480.6002197265625,520.6510009765625,560.7017211914062,600.7525024414062,640.8032836914062,680.8540649414062,720.9048461914062,760.95556640625,801.00634765625,841.05712890625,881.10791015625,921.15869140625,961.20947265625,1001.26025390625,1041.31103515625,1081.36181640625,1121.4124755859375,1161.4632568359375,1201.5140380859375,1241.5648193359375,1281.6156005859375],"_type":"histogram","values":[32,0,0,0,0,0,0,0,0,0,0,0,0,0,0,0,0,0,0,0,0,0,0,0,0,0,0,0,0,0,0,0,0,0,0,0,0,0,0,0,0,0,0,0,0,0,0,0,0,0,0,0,0,0,0,0,0,0,0,0,0,0,0,32]},"parameters/action_net.bias":{"values":[1,0,0,0,0,0,0,0,0,0,0,0,0,0,0,0,0,0,0,0,0,1,0,0,0,0,0,0,0,0,0,0,1,0,0,0,0,0,0,0,0,0,0,0,0,0,1,0,0,0,0,0,0,0,0,0,0,0,0,0,0,0,0,1],"bins":[-0.006066730711609125,-0.005799340549856424,-0.005531950853765011,-0.00526456069201231,-0.004997170530259609,-0.004729780834168196,-0.004462390672415495,-0.004195000976324081,-0.003927610814571381,-0.0036602208856493235,-0.0033928309567272663,-0.0031254407949745655,-0.0028580508660525084,-0.002590660937130451,-0.0023232707753777504,-0.002055881079286337,-0.001788490917533636,-0.0015211007557809353,-0.0012537110596895218,-0.000986320897936821,-0.0007189312018454075,-0.0004515410400927067,-0.00018415087834000587,8.323881775140762e-05,0.00035062897950410843,0.0006180191412568092,0.0008854088373482227,0.0011527989991009235,0.0014201891608536243,0.0016875788569450378,0.0019549685530364513,0.002222358714789152,0.0024897484108805656,0.0027571385726332664,0.0030245287343859673,0.0032919184304773808,0.0035593081265687943,0.003826698288321495,0.004094088450074196,0.004361478146165609,0.00462886830791831,0.004896258469671011,0.0051636481657624245,0.005431038327515125,0.005698428489267826,0.00596581818535924,0.00623320834711194,0.006500598043203354,0.006767988204956055,0.0070353783667087555,0.007302768062800169,0.00757015822455287,0.007837547920644283,0.008104938082396984,0.008372328244149685,0.008639718405902386,0.008907107636332512,0.009174497798085213,0.009441887959837914,0.009709278121590614,0.009976668283343315,0.010244058445096016,0.010511447675526142,0.010778837837278843,0.011046227999031544],"_type":"histogram"},"risk_penalty":0.5710841748647222,"_wandb":{"runtime":984},"parameters/mlp_extractor.policy_net.2.bias":{"values":[2,0,0,0,0,0,0,1,0,0,0,0,0,1,1,0,0,0,1,1,2,1,1,2,3,0,2,4,1,2,1,2,2,0,0,3,0,1,0,0,2,4,2,2,0,2,1,1,1,0,2,1,1,2,2,1,2,0,3,0,0,0,0,1],"bins":[-0.0001258716656593606,-0.00012235456961207092,-0.00011883748084073886,-0.0001153203847934492,-0.00011180329602211714,-0.00010828619997482747,-0.0001047691039275378,-0.00010125200788024813,-9.773491910891607e-05,-9.421783033758402e-05,-9.070073429029435e-05,-8.718363824300468e-05,-8.366654219571501e-05,-8.014945342438295e-05,-7.663235737709329e-05,-7.311526860576123e-05,-6.959817255847156e-05,-6.608107651118189e-05,-6.256398773984984e-05,-5.9046891692560166e-05,-5.552980292122811e-05,-5.201270687393844e-05,-4.849561082664877e-05,-4.4978522055316716e-05,-4.146142600802705e-05,-3.794432996073738e-05,-3.442724118940532e-05,-3.091014514211565e-05,-2.7393049094825983e-05,-2.3875960323493928e-05,-2.0358864276204258e-05,-1.6841775504872203e-05,-1.3324686733540148e-05,-9.807590686250478e-06,-6.290501914918423e-06,-2.773405867628753e-06,7.436829037033021e-07,4.260778950992972e-06,7.777874998282641e-06,1.1294963769614697e-05,1.4812059816904366e-05,1.8329155864194036e-05,2.184624463552609e-05,2.536334068281576e-05,2.888043673010543e-05,3.2397525501437485e-05,3.5914621548727155e-05,3.943171395803802e-05,4.294880636734888e-05,4.646589877665974e-05,4.9982991185970604e-05,5.3500087233260274e-05,5.7017179642571136e-05,6.0534272051882e-05,6.405136809917167e-05,6.756845687050372e-05,7.108555291779339e-05,7.460264896508306e-05,7.811973773641512e-05,8.163683378370479e-05,8.515392255503684e-05,8.867101860232651e-05,9.218811464961618e-05,9.570520342094824e-05,9.92222994682379e-05],"_type":"histogram"},"gradients/mlp_extractor.policy_net.2.weight":{"_type":"histogram","values":[1,1,2,1,2,3,6,4,3,8,6,9,7,10,13,25,22,28,33,34,45,59,57,67,79,94,104,124,182,199,261,343,490,318,244,213,172,131,96,83,77,79,66,52,48,30,28,21,21,16,12,13,9,6,6,7,7,3,5,3,3,2,1,2],"bins":[-0.00398398470133543,-0.0038610268384218216,-0.0037380687426775694,-0.003615110879763961,-0.0034921530168503523,-0.0033691949211061,-0.0032462370581924915,-0.003123279195278883,-0.0030003213323652744,-0.0028773632366210222,-0.0027544053737074137,-0.0026314472779631615,-0.002508489415049553,-0.0023855315521359444,-0.002262573689222336,-0.0021396158263087273,-0.002016657730564475,-0.0018936998676508665,-0.0017707417719066143,-0.0016477839089930058,-0.0015248260460793972,-0.001401867950335145,-0.0012789100874215364,-0.001155952224507928,-0.0010329941287636757,-0.0009100362658500671,-0.0007870784029364586,-0.00066412054002285,-0.0005411624442785978,-0.0004182045813649893,-0.00029524671845138073,-0.00017228862270712852,-4.933099262416363e-05,7.362687028944492e-05,0.00019658496603369713,0.0003195428289473057,0.00044250069186091423,0.0005654587876051664,0.000688416650518775,0.0008113745134323835,0.0009343323763459921,0.0010572904720902443,0.0011802483350038528,0.0013032061979174614,0.0014261642936617136,0.0015491221565753222,0.0016720800194889307,0.001795038115233183,0.0019179959781467915,0.0020409538410604,0.0021639117039740086,0.0022868697997182608,0.0024098276626318693,0.0025327857583761215,0.00265574362128973,0.0027787014842033386,0.002901659347116947,0.0030246174428611994,0.003147575305774808,0.00327053340151906,0.0033934912644326687,0.0035164491273462772,0.003639406990259886,0.003762365086004138,0.0038853229489177465]},"gradients/mlp_extractor.value_net.0.bias":{"bins":[-3.244849681854248,-3.152873992919922,-3.0608983039855957,-2.9689226150512695,-2.8769469261169434,-2.784971237182617,-2.692995548248291,-2.6010196208953857,-2.5090439319610596,-2.4170682430267334,-2.3250925540924072,-2.233116865158081,-2.141141176223755,-2.0491654872894287,-1.957189679145813,-1.8652139902114868,-1.7732383012771606,-1.6812626123428345,-1.5892869234085083,-1.4973111152648926,-1.4053354263305664,-1.3133597373962402,-1.221384048461914,-1.129408359527588,-1.0374326705932617,-0.9454569816589355,-0.8534812927246094,-0.7615053653717041,-0.6695296764373779,-0.5775539875030518,-0.4855782985687256,-0.3936026096343994,-0.30162692070007324,-0.20965123176574707,-0.1176755428314209,-0.025699853897094727,0.06627583503723145,0.15825152397155762,0.2502274513244629,0.34220314025878906,0.43417882919311523,0.5261545181274414,0.6181302070617676,0.7101058959960938,0.8020815849304199,0.8940572738647461,0.9860330820083618,1.078008770942688,1.1699844598770142,1.2619601488113403,1.3539358377456665,1.4459116458892822,1.5378873348236084,1.6298630237579346,1.7218387126922607,1.813814401626587,1.905790090560913,1.9977657794952393,2.0897417068481445,2.1817173957824707,2.273693084716797,2.365668773651123,2.457644462585449,2.5496201515197754,2.6415958404541016],"_type":"histogram","values":[2,0,1,0,0,0,1,1,0,0,1,0,0,1,0,0,0,2,1,3,3,1,1,1,1,3,1,0,1,2,3,5,1,0,0,2,0,0,1,1,6,0,4,1,0,0,1,2,1,2,3,0,0,1,0,0,0,0,1,1,0,0,0,1]},"gradients/mlp_extractor.policy_net.2.bias":{"bins":[-0.004259404726326466,-0.0041245752945542336,-0.003989746328443289,-0.0038549168966710567,-0.0037200876977294683,-0.00358525849878788,-0.003450429067015648,-0.0033155998680740595,-0.003180770669132471,-0.003045941237360239,-0.0029111120384186506,-0.0027762828394770622,-0.00264145340770483,-0.0025066242087632418,-0.0023717950098216534,-0.0022369655780494213,-0.002102136379107833,-0.0019673071801662445,-0.0018324777483940125,-0.001697648549452424,-0.0015628193505108356,-0.0014279899187386036,-0.0012931607197970152,-0.0011583315208554268,-0.0010235020890831947,-0.0008886728901416063,-0.0007538436912000179,-0.0006190144922584295,-0.00048418506048619747,-0.00034935586154460907,-0.00021452642977237701,-7.969746366143227e-05,5.513196811079979e-05,0.00018996139988303185,0.0003247903659939766,0.00045961979776620865,0.000594448996707797,0.0007292784284800291,0.0008641076274216175,0.000998936826363206,0.0011337660253047943,0.0012685954570770264,0.0014034246560186148,0.0015382538549602032,0.0016730832867324352,0.0018079124856740236,0.001942741684615612,0.002077571116387844,0.0022124003153294325,0.002347229514271021,0.002482058946043253,0.0026168881449848413,0.0027517173439264297,0.002886546775698662,0.00302137597464025,0.0031562051735818386,0.0032910346053540707,0.003425863804295659,0.0035606930032372475,0.0036955224350094795,0.003830351633951068,0.003965180832892656,0.004100010264664888,0.004234839230775833,0.004369668662548065],"_type":"histogram","values":[1,1,0,1,0,2,1,1,0,1,2,3,0,0,1,0,0,0,0,1,1,1,0,1,0,1,2,2,0,3,0,1,2,2,0,3,0,3,3,3,0,3,0,1,1,1,2,3,1,2,1,0,1,0,0,1,1,0,1,1,0,0,0,1]},"step":10239,"reward":81.97335012754947,"battery_energy":0,"parameters/mlp_extractor.policy_net.0.bias":{"bins":[-0.00019147565762978047,-0.0001856423041317612,-0.00017980895063374192,-0.00017397559713572264,-0.0001681422581896186,-0.0001623089046915993,-0.00015647555119358003,-0.00015064219769556075,-0.00014480884419754148,-0.0001389754906995222,-0.00013314213720150292,-0.00012730879825539887,-0.00012147543748142198,-0.0001156420839834027,-0.00010980873776134104,-0.00010397538426332176,-9.814203076530248e-05,-9.23086772672832e-05,-8.647532376926392e-05,-8.064197754720226e-05,-7.480862404918298e-05,-6.897527782712132e-05,-6.314192432910204e-05,-5.730857083108276e-05,-5.147521733306348e-05,-4.5641863835044205e-05,-3.980851033702493e-05,-3.397515683900565e-05,-2.81418178929016e-05,-2.230846439488232e-05,-1.6475110896863043e-05,-1.0641757398843765e-05,-4.808403900824487e-06,1.0249495971947908e-06,6.858303095214069e-06,1.2691656593233347e-05,1.8525010091252625e-05,2.4358349037356675e-05,3.0191702535375953e-05,3.602505603339523e-05,4.185840953141451e-05,4.769176302943379e-05,5.3525116527453065e-05,5.935847002547234e-05,6.519181624753401e-05,7.102516974555328e-05,7.685851596761495e-05,8.269186946563423e-05,8.85252229636535e-05,9.435857646167278e-05,0.00010019192995969206,0.00010602527618175372,0.000111858629679773,0.00011769198317779228,0.00012352532939985394,0.00012935868289787322,0.0001351920363958925,0.00014102538989391178,0.00014685874339193106,0.00015269209688995034,0.0001585254503879696,0.00016435878933407366,0.00017019214283209294,0.00017602549633011222,0.0001818588498281315],"_type":"histogram","values":[1,0,0,0,0,0,0,0,0,0,0,0,2,1,0,0,1,0,2,0,1,0,1,2,3,4,0,3,0,1,2,6,2,4,4,6,1,2,0,1,1,2,2,1,1,1,0,0,1,0,2,0,0,0,2,0,0,0,0,0,0,0,0,1]},"gradients/mlp_extractor.value_net.2.weight":{"bins":[-1.332324743270874,-1.2910593748092651,-1.2497941255569458,-1.208528757095337,-1.1672635078430176,-1.1259981393814087,-1.0847328901290894,-1.0434675216674805,-1.0022022724151611,-0.9609369039535522,-0.9196716547012329,-0.878406286239624,-0.8371409773826599,-0.7958756685256958,-0.7546103596687317,-0.7133450508117676,-0.6720797419548035,-0.6308144330978394,-0.5895491242408752,-0.5482838153839111,-0.507018506526947,-0.4657531976699829,-0.4244878888130188,-0.3832225799560547,-0.3419572114944458,-0.30069196224212646,-0.2594265937805176,-0.21816134452819824,-0.17689597606658936,-0.13563072681427002,-0.09436535835266113,-0.0531001091003418,-0.01183474063873291,0.029430627822875977,0.07069587707519531,0.1119612455368042,0.15322649478912354,0.19449186325073242,0.23575711250305176,0.27702248096466064,0.31828773021698,0.35955309867858887,0.400818407535553,0.4420837163925171,0.4833490252494812,0.5246143341064453,0.5658796429634094,0.6071449518203735,0.6484102606773376,0.6896755695343018,0.7309408783912659,0.77220618724823,0.8134714961051941,0.8547368049621582,0.8960021734237671,0.9372674226760864,0.9785327911376953,1.0197980403900146,1.0610634088516235,1.1023286581039429,1.1435940265655518,1.184859275817871,1.22612464427948,1.2673898935317993,1.3086552619934082],"_type":"histogram","values":[2,4,2,3,6,3,6,12,6,12,14,16,21,20,21,19,19,17,19,33,76,104,119,125,133,152,125,144,225,201,219,138,109,226,185,237,205,142,132,140,130,111,102,104,58,14,8,15,22,17,15,24,15,17,7,10,7,8,6,3,4,5,0,2]},"battery_capacity":9176.167598552363,"parameters/value_net.weight":{"bins":[-0.5861583352088928,-0.565841555595398,-0.5455247163772583,-0.5252079367637634,-0.5048911571502686,-0.4845743477344513,-0.46425753831863403,-0.44394075870513916,-0.4236239492893219,-0.40330713987350464,-0.38299036026000977,-0.3626735508441925,-0.34235674142837524,-0.32203996181488037,-0.3017231523990631,-0.28140637278556824,-0.261089563369751,-0.24077275395393372,-0.22045597434043884,-0.20013916492462158,-0.1798223853111267,-0.15950557589530945,-0.1391887664794922,-0.11887198686599731,-0.09855517745018005,-0.07823836803436279,-0.05792158842086792,-0.03760480880737305,-0.0172879695892334,0.0030288100242614746,0.023345589637756348,0.043662428855895996,0.0639791488647461,0.08429592847824097,0.10461276769638062,0.12492954730987549,0.14524632692337036,0.16556316614151,0.18587994575500488,0.20619672536849976,0.22651353478431702,0.24683034420013428,0.26714712381362915,0.2874639332294464,0.30778074264526367,0.32809752225875854,0.3484143316745758,0.3687311112880707,0.38904792070388794,0.4093647301197052,0.4296815097332001,0.44999831914901733,0.4703150987625122,0.49063190817832947,0.5109487175941467,0.5312654972076416,0.5515823364257812,0.5718991160392761,0.592215895652771,0.6125327348709106,0.6328495144844055,0.6531662940979004,0.6734830737113953,0.6937999129295349,0.7141166925430298],"_type":"histogram","values":[2,0,0,3,7,3,4,6,4,3,0,0,0,0,0,0,0,0,0,0,0,0,0,0,0,0,0,0,0,0,0,0,0,0,0,0,0,0,0,0,0,0,0,0,0,0,0,1,1,1,5,3,2,2,2,7,1,0,0,1,3,1,0,2]},"_runtime":984.7434044,"gradients/action_net.bias":{"bins":[0.005236282013356686,0.009626898914575577,0.014017514884471893,0.01840813085436821,0.022798746824264526,0.027189362794160843,0.03157998248934746,0.035970598459243774,0.04036121442914009,0.04475183039903641,0.049142446368932724,0.05353306233882904,0.057923682034015656,0.06231429800391197,0.06670491397380829,0.0710955262184143,0.07548614591360092,0.07987676560878754,0.08426737785339355,0.08865799754858017,0.09304860979318619,0.0974392294883728,0.10182984173297882,0.10622046142816544,0.11061108112335205,0.11500169336795807,0.11939231306314468,0.1237829253077507,0.12817354500293732,0.13256415724754333,0.13695476949214935,0.14134539663791656,0.1457359939813614,0.1501266062259674,0.15451723337173462,0.15890784561634064,0.16329845786094666,0.16768908500671387,0.1720796823501587,0.1764703094959259,0.18086092174053192,0.18525153398513794,0.18964216113090515,0.19403277337551117,0.1984233856201172,0.2028140127658844,0.20720462501049042,0.21159523725509644,0.21598586440086365,0.22037647664546967,0.22476708889007568,0.2291577011346817,0.23354831337928772,0.23793894052505493,0.24232955276966095,0.24672016501426697,0.2511107921600342,0.255501389503479,0.2598920166492462,0.2642826437950134,0.26867324113845825,0.27306386828422546,0.2774544954299927,0.2818450927734375,0.2862357199192047],"_type":"histogram","values":[1,0,0,0,0,0,0,0,0,0,0,0,0,0,0,0,1,0,0,0,0,0,0,0,0,0,0,0,0,0,0,0,1,0,0,0,0,0,0,0,0,0,0,0,1,0,0,0,0,0,0,0,0,0,0,0,0,0,0,0,0,0,0,1]},"gradients/mlp_extractor.policy_net.0.weight":{"values":[3,1,0,0,0,0,2,1,4,1,0,0,4,5,0,7,7,4,2,1,7,1,2,7,7,5,14,8,7,20,23,22,33,50,362,38,21,20,12,11,20,8,5,5,7,15,8,4,12,4,3,2,3,0,1,4,7,1,0,5,0,4,0,2],"bins":[-0.00885110255330801,-0.008593607693910599,-0.008336111903190613,-0.008078616112470627,-0.007821121253073215,-0.007563625928014517,-0.007306130602955818,-0.0070486352778971195,-0.006791139952838421,-0.006533644627779722,-0.0062761493027210236,-0.006018653977662325,-0.005761158652603626,-0.005503663327544928,-0.005246168002486229,-0.00498867267742753,-0.004731177352368832,-0.004473682027310133,-0.004216186702251434,-0.003958691377192736,-0.003701196052134037,-0.0034437007270753384,-0.0031862054020166397,-0.002928710076957941,-0.0026712147518992424,-0.0024137194268405437,-0.002156224101781845,-0.0018987287767231464,-0.0016412334516644478,-0.0013837381266057491,-0.0011262428015470505,-0.0008687479421496391,-0.0006112521514296532,-0.0003537563607096672,-9.626150131225586e-05,0.0001612338237464428,0.00041872914880514145,0.0006762244738638401,0.0009337197989225388,0.0011912151239812374,0.001448710449039936,0.0017062057740986347,0.0019637010991573334,0.002221196424216032,0.0024786917492747307,0.0027361870743334293,0.002993682399392128,0.0032511777244508266,0.0035086730495095253,0.003766168374568224,0.004023663699626923,0.004281159024685621,0.00453865434974432,0.004796149674803019,0.005053644999861717,0.005311140324920416,0.0055686356499791145,0.005826130975037813,0.006083626300096512,0.0063411216251552105,0.006598616950213909,0.006856112275272608,0.0071136076003313065,0.007371102925390005,0.007628598250448704],"_type":"histogram"},"_step":10251,"parameters/mlp_extractor.value_net.2.bias":{"_type":"histogram","values":[1,0,0,1,0,2,0,3,1,5,0,4,1,1,3,4,1,1,3,0,0,1,0,0,0,0,0,0,0,0,0,0,0,0,0,0,0,0,0,0,0,0,0,0,0,1,3,3,4,4,3,4,2,1,1,0,2,1,0,0,1,0,0,2],"bins":[-0.10837399214506149,-0.10497071593999863,-0.10156743973493576,-0.0981641635298729,-0.09476088732481003,-0.09135761111974716,-0.0879543349146843,-0.08455105870962143,-0.08114778250455856,-0.0777445062994957,-0.07434123009443283,-0.07093795388936996,-0.0675346776843071,-0.06413140147924423,-0.060728125274181366,-0.0573248490691185,-0.053921572864055634,-0.05051829665899277,-0.0471150204539299,-0.043711744248867035,-0.04030846804380417,-0.0369051918387413,-0.033501915633678436,-0.03009863942861557,-0.026695363223552704,-0.023292087018489838,-0.01988881081342697,-0.016485534608364105,-0.013082258403301239,-0.009678982198238373,-0.006275705993175507,-0.0028724297881126404,0.0005308389663696289,0.003934115171432495,0.007337391376495361,0.010740667581558228,0.014143943786621094,0.01754721999168396,0.020950496196746826,0.024353772401809692,0.02775704860687256,0.031160324811935425,0.03456360101699829,0.03796687722206116,0.04137015342712402,0.04477342963218689,0.048176705837249756,0.05157998204231262,0.05498325824737549,0.058386534452438354,0.06178981065750122,0.06519308686256409,0.06859636306762695,0.07199963927268982,0.07540291547775269,0.07880619168281555,0.08220946788787842,0.08561274409294128,0.08901602029800415,0.09241929650306702,0.09582257270812988,0.09922584891319275,0.10262912511825562,0.10603240132331848,0.10943567752838135]},"parameters/mlp_extractor.policy_net.0.weight":{"values":[1,0,1,1,3,4,2,4,1,4,5,5,7,7,9,10,13,17,12,20,18,30,26,25,27,20,26,30,30,31,36,42,31,32,28,32,27,18,24,20,16,16,18,13,9,9,13,19,6,7,7,5,3,3,1,1,1,1,3,0,0,1,0,1],"bins":[-0.5176764130592346,-0.5008004903793335,-0.4839245676994324,-0.46704864501953125,-0.4501727223396301,-0.433296799659729,-0.4164208769798279,-0.39954495429992676,-0.38266903162002563,-0.3657931089401245,-0.3489171862602234,-0.33204126358032227,-0.31516531109809875,-0.29828938841819763,-0.2814134657382965,-0.2645375430583954,-0.24766162037849426,-0.23078569769859314,-0.21390977501869202,-0.1970338523387909,-0.18015792965888977,-0.16328200697898865,-0.14640608429908752,-0.1295301616191864,-0.11265420913696289,-0.09577828645706177,-0.07890236377716064,-0.06202644109725952,-0.0451505184173584,-0.028274595737457275,-0.011398673057556152,0.005477249622344971,0.022353172302246094,0.03922909498214722,0.05610501766204834,0.07298094034194946,0.08985686302185059,0.10673278570175171,0.12360870838165283,0.14048463106155396,0.15736055374145508,0.1742365062236786,0.1911124289035797,0.20798835158348083,0.22486427426338196,0.24174019694328308,0.2586161196231842,0.2754920423030853,0.29236796498298645,0.3092438876628876,0.3261198103427887,0.3429957330226898,0.35987165570259094,0.37674760818481445,0.3936235308647156,0.4104994535446167,0.4273753762245178,0.44425129890441895,0.46112722158432007,0.4780031442642212,0.4948790669441223,0.5117549896240234,0.5286309123039246,0.5455068349838257,0.5623827576637268],"_type":"histogram"},"gradients/mlp_extractor.value_net.2.bias":{"bins":[-1.4158048629760742,-1.378889560699463,-1.3419742584228516,-1.3050589561462402,-1.268143653869629,-1.2312283515930176,-1.1943130493164062,-1.157397747039795,-1.1204824447631836,-1.0835671424865723,-1.046651840209961,-1.0097365379333496,-0.9728212952613831,-0.9359059929847717,-0.8989906907081604,-0.8620753884315491,-0.8251600861549377,-0.7882447838783264,-0.7513294816017151,-0.7144141793251038,-0.6774988770484924,-0.6405835747718811,-0.6036682724952698,-0.5667529702186584,-0.5298377275466919,-0.49292242527008057,-0.45600712299346924,-0.4190918207168579,-0.3821765184402466,-0.34526121616363525,-0.3083459138870239,-0.2714306116104126,-0.2345152497291565,-0.19759994745254517,-0.16068464517593384,-0.12376934289932251,-0.08685404062271118,-0.049938738346099854,-0.013023436069488525,0.023891866207122803,0.06080716848373413,0.09772241115570068,0.134637713432312,0.17155301570892334,0.20846831798553467,0.245383620262146,0.2822989225387573,0.31921422481536865,0.35612952709198,0.3930448293685913,0.42996013164520264,0.46687543392181396,0.5037907361984253,0.5407060384750366,0.577621340751648,0.6145366430282593,0.6514519453048706,0.6883672475814819,0.7252825498580933,0.7621977925300598,0.7991130948066711,0.8360283970832825,0.8729436993598938,0.9098590016365051,0.9467743039131165],"_type":"histogram","values":[1,0,0,0,1,0,0,1,0,0,1,0,2,0,0,0,1,0,0,0,0,1,2,6,1,0,2,2,0,2,0,2,0,4,1,1,0,1,0,0,5,2,1,5,1,3,0,4,1,3,0,2,3,1,0,0,0,0,0,0,0,0,0,1]}}