{"risk_penalty":0.607895677,"parameters/mlp_extractor.policy_net.2.bias":{"values":[1,0,0,0,0,0,0,0,0,0,0,0,0,0,0,0,0,0,0,0,1,0,0,3,2,0,1,0,3,1,2,3,1,5,4,5,2,4,4,0,1,2,1,3,1,2,1,3,2,2,0,1,0,0,2,0,0,0,0,0,0,0,0,1],"bins":[-0.00011209047806914896,-0.00010887270036619157,-0.00010565492266323417,-0.00010243714496027678,-9.921936725731939e-05,-9.6001589554362e-05,-9.278381185140461e-05,-8.956603414844722e-05,-8.634825644548982e-05,-8.313047874253243e-05,-7.991270103957504e-05,-7.669492333661765e-05,-7.347714563366026e-05,-7.025936793070287e-05,-6.704159022774547e-05,-6.382381252478808e-05,-6.060603118385188e-05,-5.738825348089449e-05,-5.41704757779371e-05,-5.09526944370009e-05,-4.773491673404351e-05,-4.451713903108612e-05,-4.1299361328128725e-05,-3.8081583625171334e-05,-3.486380592221394e-05,-3.164602821925655e-05,-2.842825051629916e-05,-2.5210472813341767e-05,-2.1992695110384375e-05,-1.8774917407426983e-05,-1.555713970446959e-05,-1.23393620015122e-05,-9.121584298554808e-06,-5.903806595597416e-06,-2.6860288926400244e-06,5.317488103173673e-07,3.749526513274759e-06,6.967304216232151e-06,1.0185081919189543e-05,1.3402859622146934e-05,1.6620637325104326e-05,1.9838415028061718e-05,2.305619273101911e-05,2.62739704339765e-05,2.9491748136933893e-05,3.2709525839891285e-05,3.5927307180827484e-05,3.9145084883784875e-05,4.236286258674227e-05,4.558064028969966e-05,4.879841799265705e-05,5.201619569561444e-05,5.5233973398571834e-05,5.8451751101529226e-05,6.166953244246542e-05,6.488731014542282e-05,6.810508784838021e-05,7.13228655513376e-05,7.454064325429499e-05,7.775842095725238e-05,8.097619866020977e-05,8.419397636316717e-05,8.741175406612456e-05,9.062953176908195e-05,9.384730947203934e-05],"_type":"histogram"},"gradients/mlp_extractor.value_net.0.weight":{"_type":"histogram","values":[2,0,2,2,0,2,0,3,0,0,5,8,2,2,2,3,3,7,6,3,4,4,9,5,9,21,20,30,25,41,80,30,40,17,27,10,11,16,5,8,2,15,3,5,4,1,0,4,2,0,0,7,2,1,0,0,0,0,0,0,0,0,0,2],"bins":[-5.738351821899414,-5.550513744354248,-5.36267614364624,-5.174838066101074,-4.987000465393066,-4.7991623878479,-4.611324310302734,-4.423486709594727,-4.235649108886719,-4.047811031341553,-3.859973192214966,-3.672135353088379,-3.484297275543213,-3.296459436416626,-3.108621597290039,-2.920783758163452,-2.7329459190368652,-2.5451080799102783,-2.3572702407836914,-2.1694324016571045,-1.9815945625305176,-1.7937564849853516,-1.6059188842773438,-1.4180808067321777,-1.2302427291870117,-1.042405128479004,-0.8545670509338379,-0.6667294502258301,-0.47889137268066406,-0.29105377197265625,-0.10321569442749023,0.08462190628051758,0.2724599838256836,0.4602980613708496,0.6481356620788574,0.8359737396240234,1.0238113403320312,1.2116494178771973,1.399487018585205,1.587325096130371,1.775162696838379,1.963000774383545,2.150838851928711,2.3386764526367188,2.5265145301818848,2.7143523693084717,2.9021902084350586,3.0900280475616455,3.2778658866882324,3.4657037258148193,3.6535415649414062,3.841379404067993,4.02921724319458,4.217055320739746,4.404892921447754,4.59273099899292,4.780569076538086,4.968406677246094,5.156244277954102,5.344082355499268,5.531920433044434,5.719758033752441,5.907596111297607,6.095433712005615,6.283271789550781]},"parameters/value_net.weight":{"bins":[-0.8183133006095886,-0.7951953411102295,-0.7720773220062256,-0.7489593029022217,-0.7258413434028625,-0.7027233839035034,-0.6796053647994995,-0.6564873456954956,-0.6333693861961365,-0.6102514266967773,-0.5871334075927734,-0.5640153884887695,-0.5408974289894104,-0.5177794694900513,-0.49466145038604736,-0.47154346108436584,-0.4484254717826843,-0.4253074824810028,-0.4021894931793213,-0.37907150387763977,-0.35595351457595825,-0.33283552527427673,-0.3097175359725952,-0.2865995764732361,-0.2634815573692322,-0.24036353826522827,-0.21724557876586914,-0.19412761926651,-0.1710096001625061,-0.1478915810585022,-0.12477362155914307,-0.10165566205978394,-0.07853764295578003,-0.05541962385177612,-0.03230166435241699,-0.009183704853057861,0.013934314250946045,0.03705233335494995,0.06017029285430908,0.08328825235366821,0.10640627145767212,0.12952429056167603,0.15264225006103516,0.17576023936271667,0.1988782286643982,0.2219962179660797,0.24511420726776123,0.26823219656944275,0.29135018587112427,0.3144681751728058,0.3375861644744873,0.3607041537761688,0.38382214307785034,0.40694013237953186,0.4300581216812134,0.4531761109828949,0.4762941002845764,0.49941208958625793,0.5225300788879395,0.5456480979919434,0.5687660574913025,0.5918840169906616,0.6150020360946655,0.6381200551986694,0.6612380146980286],"_type":"histogram","values":[1,0,0,0,0,0,0,0,0,1,1,1,2,2,6,5,3,4,1,1,0,0,0,0,0,0,0,0,0,0,0,0,0,0,0,0,0,0,0,0,0,0,0,0,0,0,0,0,0,0,0,1,6,3,1,8,6,2,1,0,0,4,3,1]},"gradients/action_net.weight":{"values":[1,1,1,0,0,0,0,1,0,1,0,0,1,3,0,0,1,4,1,3,3,3,3,4,10,5,11,17,19,25,17,16,13,14,17,20,19,13,8,10,10,6,1,6,5,1,4,3,4,2,1,1,0,3,1,2,1,1,1,0,0,1,0,1],"bins":[-0.13788677752017975,-0.13366243243217468,-0.12943808734416962,-0.12521375715732574,-0.12098941206932068,-0.11676506698131561,-0.11254072189331055,-0.10831637680530548,-0.10409203916788101,-0.09986770153045654,-0.09564335644245148,-0.09141901135444641,-0.08719466626644135,-0.08297032862901688,-0.07874598354101181,-0.07452164590358734,-0.07029730081558228,-0.06607295572757721,-0.06184861809015274,-0.057624273002147675,-0.053399935364723206,-0.04917559027671814,-0.044951245188713074,-0.040726907551288605,-0.03650256246328354,-0.03227821737527847,-0.028053879737854004,-0.023829534649848938,-0.019605189561843872,-0.015380851924419403,-0.011156514286994934,-0.006932169198989868,-0.0027078092098236084,0.0015165358781814575,0.0057408809661865234,0.009965218603610992,0.014189556241035461,0.018413901329040527,0.022638246417045593,0.026862584054470062,0.031086929142475128,0.035311274230480194,0.03953561186790466,0.04375995695590973,0.047984302043914795,0.052208639681339264,0.05643298476934433,0.0606573224067688,0.06488166749477386,0.06910601258277893,0.0733303502202034,0.07755469530820847,0.08177903294563293,0.086003378033638,0.09022772312164307,0.09445206820964813,0.0986764058470726,0.10290074348449707,0.10712508857250214,0.1113494336605072,0.11557377874851227,0.11979811638593674,0.1240224614739418,0.12824679911136627,0.13247114419937134],"_type":"histogram"},"parameters/mlp_extractor.policy_net.0.weight":{"values":[2,1,0,1,4,5,1,1,4,6,4,5,10,8,14,6,8,11,15,11,15,23,24,24,12,16,23,16,17,20,24,21,24,15,19,12,13,9,10,15,8,8,5,5,2,3,3,3,2,0,1,0,0,1,0,0,0,0,1,0,0,0,0,1],"bins":[-0.4720883369445801,-0.45420584082603455,-0.4363233149051666,-0.4184408187866211,-0.4005582928657532,-0.38267579674720764,-0.3647933006286621,-0.3469107747077942,-0.32902827858924866,-0.3111457824707031,-0.2932632565498352,-0.2753807604312897,-0.25749826431274414,-0.23961573839187622,-0.2217332422733307,-0.20385071635246277,-0.18596822023391724,-0.1680857241153717,-0.15020319819450378,-0.13232070207595825,-0.11443817615509033,-0.0965556800365448,-0.07867318391799927,-0.06079065799713135,-0.042908161878585815,-0.025025665760040283,-0.007143139839172363,0.010739356279373169,0.0286218523979187,0.04650437831878662,0.06438690423965454,0.08226937055587769,0.10015183687210083,0.11803436279296875,0.1359168291091919,0.15379935503005981,0.17168188095092773,0.18956437706947327,0.2074468731880188,0.22532939910888672,0.24321189522743225,0.2610943913459778,0.2789769172668457,0.29685941338539124,0.31474190950393677,0.3326244354248047,0.3505069315433502,0.36838945746421814,0.38627195358276367,0.4041544497013092,0.4220369756221771,0.43991947174072266,0.4578019976615906,0.4756844937801361,0.49356698989868164,0.5114495158195496,0.5293320417404175,0.5472145080566406,0.5650970339775085,0.5829795598983765,0.6008620262145996,0.6187445521354675,0.6366270780563354,0.6545095443725586,0.6723920702934265],"_type":"histogram"},"_step":10251,"parameters/value_net.bias":{"_type":"histogram","values":[1],"bins":[0.35492143034935,0.35492143034935]},"gradients/action_net.bias":{"values":[1,0,0,0,0,0,0,0,0,0,0,0,0,0,0,0,0,0,0,0,0,0,0,0,0,0,0,0,0,0,0,0,1,0,0,1,0,0,0,0,0,0,0,0,0,0,0,0,0,0,0,0,1,0,0,0,0,0,0,0,0,0,0,1],"bins":[-0.15476135909557343,-0.1510634869337082,-0.14736562967300415,-0.14366775751113892,-0.13996988534927368,-0.13627201318740845,-0.1325741410255432,-0.12887628376483917,-0.12517841160297394,-0.1214805394411087,-0.11778267472982407,-0.11408481001853943,-0.1103869378566742,-0.10668906569480896,-0.10299120098352432,-0.09929333627223969,-0.09559546411037445,-0.09189759194850922,-0.08819972723722458,-0.08450186252593994,-0.08080399036407471,-0.07710611820220947,-0.07340825349092484,-0.0697103887796402,-0.06601251661777496,-0.06231464445590973,-0.05861677974462509,-0.054918915033340454,-0.05122104287147522,-0.047523170709609985,-0.04382530599832535,-0.04012744128704071,-0.036429569125175476,-0.03273169696331024,-0.029033832252025604,-0.025335967540740967,-0.021638095378875732,-0.017940223217010498,-0.01424235850572586,-0.010544493794441223,-0.006846621632575989,-0.0031487494707107544,0.0005491152405738831,0.0042469799518585205,0.007944852113723755,0.01164272427558899,0.015340588986873627,0.019038453698158264,0.0227363258600235,0.026434194296598434,0.03013206273317337,0.033829931169748306,0.03752779960632324,0.04122566804289818,0.044923536479473114,0.04862140491604805,0.052319273352622986,0.05601714178919792,0.05971501022577286,0.0634128749370575,0.06711074709892273,0.07080861926078796,0.0745064839720726,0.07820434868335724,0.08190222084522247],"_type":"histogram"},"gradients/mlp_extractor.value_net.2.weight":{"_type":"histogram","values":[1,1,4,0,3,6,1,1,3,5,6,7,7,9,9,13,13,12,20,44,41,62,81,85,114,130,131,113,205,248,249,278,215,227,318,228,215,143,118,145,104,91,75,64,60,41,30,16,20,16,12,16,8,3,7,7,2,3,2,0,1,1,2,4],"bins":[-1.737800121307373,-1.6845760345458984,-1.6313519477844238,-1.5781278610229492,-1.5249037742614746,-1.4716796875,-1.4184556007385254,-1.3652313947677612,-1.3120073080062866,-1.258783221244812,-1.2055591344833374,-1.1523350477218628,-1.0991109609603882,-1.0458868741989136,-0.9926627278327942,-0.9394386410713196,-0.886214554309845,-0.8329904675483704,-0.7797663807868958,-0.7265422344207764,-0.6733181476593018,-0.6200940608978271,-0.5668699741363525,-0.5136458873748779,-0.4604218006134033,-0.4071977138519287,-0.3539736270904541,-0.30074942111968994,-0.24752533435821533,-0.19430124759674072,-0.1410771608352661,-0.0878530740737915,-0.034628987312316895,0.018595099449157715,0.07181918621063232,0.12504327297210693,0.17826735973358154,0.23149144649505615,0.2847156524658203,0.3379397392272949,0.39116382598876953,0.44438791275024414,0.49761199951171875,0.5508360862731934,0.604060173034668,0.6572842597961426,0.710508406162262,0.7637324929237366,0.8169565796852112,0.8701806664466858,0.9234047532081604,0.9766288995742798,1.0298529863357544,1.083077073097229,1.1363011598587036,1.1895252466201782,1.2427493333816528,1.2959734201431274,1.3491976261138916,1.4024217128753662,1.4556457996368408,1.5088698863983154,1.56209397315979,1.6153180599212646,1.6685421466827393]},"gradients/log_std":{"bins":[-0.34897875785827637,-0.3433786630630493,-0.33777856826782227,-0.3321784734725952,-0.32657837867736816,-0.3209782838821411,-0.31537818908691406,-0.309778094291687,-0.30417799949645996,-0.2985779047012329,-0.29297780990600586,-0.2873777151107788,-0.28177762031555176,-0.2761775255203247,-0.27057743072509766,-0.2649773359298706,-0.25937724113464355,-0.2537771463394165,-0.24817703664302826,-0.2425769418478012,-0.23697684705257416,-0.2313767373561859,-0.22577664256095886,-0.220176562666893,-0.21457645297050476,-0.2089763581752777,-0.20337626338005066,-0.1977761685848236,-0.19217607378959656,-0.1865759789943695,-0.18097588419914246,-0.1753757894039154,-0.16977569460868835,-0.1641755998134613,-0.15857550501823425,-0.1529754102230072,-0.14737531542778015,-0.1417752206325531,-0.13617512583732605,-0.130575031042099,-0.12497493624687195,-0.1193748265504837,-0.11377473920583725,-0.1081746444106102,-0.10257454216480255,-0.0969744473695755,-0.09137435257434845,-0.0857742577791214,-0.08017416298389435,-0.0745740681886673,-0.06897397339344025,-0.0633738785982132,-0.05777378007769585,-0.0521736815571785,-0.04657358303666115,-0.0409734882414341,-0.035373393446207047,-0.029773298650979996,-0.024173203855752945,-0.018573105335235596,-0.01297301147133112,-0.007372916676104069,-0.0017728200182318687,0.0038272757083177567,0.009427371434867382],"_type":"histogram","values":[1,0,0,0,0,0,0,0,0,0,0,0,0,0,0,0,0,0,0,0,1,0,0,0,0,0,0,0,0,0,0,0,0,0,0,0,0,0,0,0,0,0,0,0,0,0,0,0,0,0,0,0,0,2,0,0,0,0,0,0,0,0,0,1]},"_runtime":36.8892036,"parameters/mlp_extractor.value_net.2.bias":{"_type":"histogram","values":[1,0,1,0,1,1,1,0,2,1,3,3,2,3,1,2,1,2,0,2,1,0,0,0,0,0,0,0,0,0,0,0,0,0,0,0,0,0,0,0,0,0,0,1,0,1,1,2,2,2,0,4,2,2,5,0,4,1,3,4,0,0,0,2],"bins":[-0.11392568796873093,-0.11049716919660568,-0.10706864297389984,-0.1036401242017746,-0.10021160542964935,-0.09678308665752411,-0.09335456788539886,-0.08992604166269302,-0.08649752289056778,-0.08306900411844254,-0.0796404778957367,-0.07621195912361145,-0.0727834403514862,-0.06935492157936096,-0.06592640280723572,-0.06249787658452988,-0.05906935781240463,-0.05564083904027939,-0.052212316542863846,-0.0487837940454483,-0.04535527527332306,-0.041926756501197815,-0.038498230278491974,-0.03506971150636673,-0.031641192734241486,-0.02821267396211624,-0.024784155189990997,-0.021355628967285156,-0.017927110195159912,-0.014498591423034668,-0.011070065200328827,-0.007641546428203583,-0.004213027656078339,-0.0007845088839530945,0.0026440098881721497,0.006072536110877991,0.009501054883003235,0.012929573655128479,0.01635809987783432,0.019786618649959564,0.02321513742208481,0.026643656194210052,0.030072174966335297,0.03350070118904114,0.03692921996116638,0.040357738733291626,0.04378626123070717,0.04721478372812271,0.050643302500247955,0.0540718212723732,0.05750034376978874,0.060928866267204285,0.06435738503932953,0.06778590381145477,0.07121442258358002,0.07464294880628586,0.0780714675784111,0.08149998635053635,0.08492851257324219,0.08835703134536743,0.09178555011749268,0.09521406888961792,0.09864258766174316,0.102071113884449,0.10549963265657425]},"revenue":8.182416541666666e+06,"parameters/action_net.weight":{"bins":[-0.01304833497852087,-0.012639833614230156,-0.012231331318616867,-0.011822829954326153,-0.011414328590035439,-0.011005827225744724,-0.01059732586145401,-0.010188823565840721,-0.009780322201550007,-0.009371820837259293,-0.008963318541646004,-0.00855481717735529,-0.008146315813064575,-0.007737814448773861,-0.007329312618821859,-0.006920810788869858,-0.0065123094245791435,-0.006103808060288429,-0.005695306230336428,-0.005286804400384426,-0.004878303036093712,-0.004469801671802998,-0.004061299376189709,-0.0036527980118989944,-0.00324429664760828,-0.002835795283317566,-0.0024272939190268517,-0.0020187916234135628,-0.0016102902591228485,-0.0012017888948321342,-0.0007932865992188454,-0.0003847852349281311,2.371612936258316e-05,0.0004322174936532974,0.0008407188579440117,0.0012492211535573006,0.0016577225178480148,0.002066223882138729,0.002474726177752018,0.0028832275420427322,0.0032917289063334465,0.0037002302706241608,0.004108731634914875,0.004517233930528164,0.004925735294818878,0.0053342366591095924,0.005742738489061594,0.006151240319013596,0.00655974168330431,0.006968243047595024,0.007376744877547026,0.007785246707499027,0.008193748071789742,0.008602249436080456,0.00901075080037117,0.009419253095984459,0.009827754460275173,0.010236255824565887,0.010644758120179176,0.01105325948446989,0.011461760848760605,0.011870262213051319,0.012278763577342033,0.012687265872955322,0.013095767237246037],"_type":"histogram","values":[1,0,1,0,1,1,1,0,1,0,3,4,1,0,3,1,4,4,5,3,5,6,4,7,13,13,6,11,16,9,16,16,15,14,12,15,15,10,7,12,12,9,6,8,6,2,3,4,2,0,1,1,4,2,0,0,1,1,0,1,0,0,0,1]},"gradients/mlp_extractor.policy_net.0.weight":{"bins":[-0.0037255464121699333,-0.003628510981798172,-0.0035314755514264107,-0.0034344401210546494,-0.003337404690682888,-0.003240369027480483,-0.0031433335971087217,-0.0030462981667369604,-0.002949262736365199,-0.0028522273059934378,-0.0027551918756216764,-0.0026581562124192715,-0.00256112078204751,-0.002464085351675749,-0.0023670499213039875,-0.002270014490932226,-0.002172979060560465,-0.0020759436301887035,-0.001978908199816942,-0.001881872653029859,-0.0017848372226580977,-0.0016878016758710146,-0.0015907662454992533,-0.001493730815127492,-0.0013966953847557306,-0.0012996599543839693,-0.001202624524012208,-0.0011055890936404467,-0.0010085534304380417,-0.0009115180000662804,-0.000814482569694519,-0.0007174471393227577,-0.0006204117089509964,-0.0005233762785792351,-0.00042634084820747375,-0.00032930541783571243,-0.0002322699874639511,-0.00013523432426154613,-3.819889388978481e-05,5.883653648197651e-05,0.00015587196685373783,0.00025290739722549915,0.0003499428275972605,0.0004469782579690218,0.000544013804756105,0.0006410492351278663,0.0007380847819149494,0.0008351202122867107,0.0009321556426584721,0.0010291910730302334,0.0011262265034019947,0.0012232620501890779,0.0013202974805608392,0.0014173329109326005,0.0015143684577196836,0.001611403888091445,0.0017084393184632063,0.0018054747488349676,0.001902510179206729,0.0019995456095784903,0.0020965812727808952,0.0021936167031526566,0.002290652133524418,0.002387687563896179,0.0024847229942679405],"_type":"histogram","values":[2,0,0,0,0,0,0,0,0,0,0,1,0,0,0,2,0,1,2,1,5,5,8,2,5,3,5,3,14,4,10,16,14,9,18,19,30,41,88,26,20,26,16,16,12,4,12,10,6,7,6,6,6,2,10,1,4,3,4,1,2,2,1,1]},"reward":81.82268804530543,"gradients/mlp_extractor.policy_net.2.bias":{"bins":[-0.0011788698611781001,-0.001144150854088366,-0.001109431846998632,-0.0010747128399088979,-0.0010399938328191638,-0.001005274709314108,-0.0009705557604320347,-0.0009358367533423007,-0.0009011176880449057,-0.0008663986809551716,-0.0008316796738654375,-0.0007969606667757034,-0.0007622416596859694,-0.0007275226525962353,-0.0006928036455065012,-0.0006580845802091062,-0.0006233655731193721,-0.000588646566029638,-0.000553927558939904,-0.000519208493642509,-0.0004844894865527749,-0.00044977047946304083,-0.00041505147237330675,-0.0003803324652835727,-0.0003456134581938386,-0.0003108943928964436,-0.00027617538580670953,-0.00024145637871697545,-0.00020673737162724137,-0.00017201830632984638,-0.0001372992992401123,-0.00010258029215037823,-6.786128506064415e-05,-3.314227797091007e-05,1.5767291188240051e-06,3.629573620855808e-05,7.101480150595307e-05,0.00010573380859568715,0.00014045281568542123,0.0001751718227751553,0.0002098908880725503,0.0002446098951622844,0.00027932890225201845,0.00031404790934175253,0.0003487669164314866,0.0003834859235212207,0.0004182049888186157,0.00045292399590834975,0.00048764300299808383,0.0005223620100878179,0.0005570810753852129,0.000591800082474947,0.000626519089564681,0.0006612380966544151,0.0006959571037441492,0.0007306761108338833,0.0007653951179236174,0.0008001141832210124,0.0008348331903107464,0.0008695521974004805,0.0009042712044902146,0.0009389902697876096,0.0009737092768773437,0.0010084282839670777,0.0010431472910568118],"_type":"histogram","values":[1,0,1,1,0,1,3,0,1,3,0,1,1,0,1,1,1,0,2,3,1,1,0,3,0,0,1,2,0,0,1,0,1,1,1,0,0,0,1,0,1,1,0,1,0,1,1,0,0,1,1,1,1,3,1,3,2,1,1,3,4,1,1,1]},"parameters/mlp_extractor.value_net.0.bias":{"bins":[-0.14069364964962006,-0.13646943867206573,-0.1322452276945114,-0.1280210167169571,-0.12379680573940277,-0.11957259476184845,-0.11534837633371353,-0.11112416535615921,-0.10689995437860489,-0.10267574340105057,-0.09845153242349625,-0.09422731399536133,-0.090003103017807,-0.08577889204025269,-0.08155468106269836,-0.07733047008514404,-0.07310625910758972,-0.0688820481300354,-0.06465783715248108,-0.06043362617492676,-0.056209415197372437,-0.05198519676923752,-0.0477609857916832,-0.043536774814128876,-0.039312563836574554,-0.03508835285902023,-0.030864141881465912,-0.02663993090391159,-0.022415712475776672,-0.01819150149822235,-0.01396729052066803,-0.009743079543113708,-0.005518868565559387,-0.001294657588005066,0.0029295533895492554,0.007153764367103577,0.011377975344657898,0.015602193772792816,0.019826404750347137,0.02405061572790146,0.02827482670545578,0.0324990376830101,0.03672324866056442,0.040947459638118744,0.04517167806625366,0.04939588904380798,0.053620100021362305,0.057844310998916626,0.06206852197647095,0.06629273295402527,0.07051694393157959,0.07474115490913391,0.07896536588668823,0.08318957686424255,0.08741379529237747,0.0916380062699318,0.09586221724748611,0.10008642822504044,0.10431063920259476,0.10853485763072968,0.112759068608284,0.11698327958583832,0.12120749056339264,0.12543170154094696,0.12965591251850128],"_type":"histogram","values":[1,0,2,1,3,0,2,1,2,3,1,3,0,1,2,1,1,0,0,0,1,0,0,1,0,1,0,0,3,0,1,0,0,1,0,0,2,2,2,0,0,0,2,0,2,0,0,0,2,1,1,1,4,1,0,2,2,2,0,0,3,1,1,1]},"parameters/action_net.bias":{"values":[1,0,0,0,0,0,1,0,0,0,0,0,0,1,1,0,0,0,0,0,0,0,0,0,0,0,0,0,0,0,0,0,0,0,0,0,0,0,0,0,0,0,0,0,0,0,0,0,0,0,0,0,0,0,0,0,0,0,0,0,0,0,0,1],"bins":[-0.00422112038359046,-0.0039800116792321205,-0.0037389034405350685,-0.003497794736176729,-0.0032566862646490335,-0.003015577793121338,-0.0027744690887629986,-0.002533360617235303,-0.0022922521457076073,-0.0020511436741799116,-0.001810035202652216,-0.0015689264982938766,-0.001327818026766181,-0.0010867095552384853,-0.000845600850880146,-0.0006044923793524504,-0.0003633839078247547,-0.0001222752034664154,0.0001188330352306366,0.0003599417395889759,0.0006010499782860279,0.0008421586826443672,0.0010832673870027065,0.0013243756256997585,0.0015654843300580978,0.0018065930344164371,0.002047701273113489,0.0022888099774718285,0.0025299186818301678,0.0027710269205272198,0.003012135624885559,0.003253243863582611,0.0034943530336022377,0.003735461737960577,0.003976569976657629,0.004217678681015968,0.00445878691971302,0.00469989562407136,0.004941004328429699,0.005182112567126751,0.00542322127148509,0.0056643299758434296,0.005905438214540482,0.006146546918898821,0.00638765562325716,0.006628763861954212,0.0068698725663125515,0.0071109808050096035,0.007352089509367943,0.007593197748064995,0.007834305986762047,0.008075415156781673,0.008316523395478725,0.008557632565498352,0.008798740804195404,0.009039849042892456,0.009280957281589508,0.009522066451609135,0.009763174690306187,0.010004283860325813,0.010245392099022865,0.010486500337719917,0.01072760857641697,0.010968717746436596,0.011209825985133648],"_type":"histogram"},"battery_energy":0,"net_profit":8.182269108478382e+06,"gradients/mlp_extractor.policy_net.2.weight":{"values":[1,0,2,2,1,2,2,6,6,5,11,20,16,24,31,43,37,31,38,54,69,90,101,130,121,158,189,200,215,228,207,239,248,201,165,187,165,129,107,117,74,74,51,48,44,44,38,35,24,18,19,10,7,4,1,3,3,0,0,0,0,0,0,1],"bins":[-0.0011210255324840546,-0.001084514893591404,-0.0010480043711140752,-0.0010114937322214246,-0.000974983093328774,-0.0009384725126437843,-0.0009019619319587946,-0.000865451293066144,-0.0008289406541734934,-0.0007924300734885037,-0.000755919492803514,-0.0007194088539108634,-0.0006828982732258737,-0.000646387692540884,-0.0006098770536482334,-0.0005733664147555828,-0.0005368558340705931,-0.0005003452533856034,-0.0004638346144929528,-0.00042732403380796313,-0.00039081339491531253,-0.00035430281423032284,-0.00031779217533767223,-0.00028128159465268254,-0.00024477101396769285,-0.00020826037507504225,-0.00017174979439005256,-0.00013523921370506287,-9.872857481241226e-05,-6.221793591976166e-05,-2.5707297027111053e-05,1.0803225450217724e-05,4.731386434286833e-05,8.382450323551893e-05,0.00012033502571284771,0.00015684566460549831,0.00019335630349814892,0.00022986694239079952,0.0002663775230757892,0.0003028881037607789,0.0003393987426534295,0.0003759093233384192,0.0004124199040234089,0.0004489305429160595,0.0004854411236010492,0.0005219517624936998,0.0005584623431786895,0.0005949729820713401,0.0006314835627563298,0.0006679941434413195,0.0007045047823339701,0.0007410154212266207,0.0007775260019116104,0.0008140365825966001,0.0008505472214892507,0.0008870578021742404,0.00092356838285923,0.0009600790217518806,0.0009965896606445312,0.00103310018312186,0.0010696108220145106,0.0011061214609071612,0.0011426320997998118,0.0011791426222771406,0.0012156532611697912],"_type":"histogram"},"parameters/mlp_extractor.value_net.2.weight":{"bins":[-0.7804821729660034,-0.7582859992980957,-0.7360898852348328,-0.713893711566925,-0.6916975975036621,-0.6695014238357544,-0.6473052501678467,-0.6251091361045837,-0.6029130220413208,-0.5807168483734131,-0.5585206747055054,-0.5363245606422424,-0.5141283869743347,-0.4919322431087494,-0.46973609924316406,-0.44753995537757874,-0.4253438115119934,-0.4031476676464081,-0.38095152378082275,-0.3587553799152374,-0.3365592360496521,-0.3143630623817444,-0.29216691851615906,-0.26997077465057373,-0.24777460098266602,-0.22557848691940308,-0.20338231325149536,-0.18118619918823242,-0.1589900255203247,-0.13679391145706177,-0.11459773778915405,-0.09240162372589111,-0.0702054500579834,-0.048009276390075684,-0.025813162326812744,-0.0036169886589050293,0.01857912540435791,0.040775299072265625,0.06297141313552856,0.08516758680343628,0.10736370086669922,0.12955987453460693,0.15175601840019226,0.1739521622657776,0.1961483359336853,0.21834447979927063,0.24054062366485596,0.2627367675304413,0.2849329113960266,0.30712905526161194,0.32932519912719727,0.3515213429927826,0.3737174868583679,0.39591366052627563,0.41810980439186096,0.4403059482574463,0.4625020921230316,0.48469823598861694,0.5068943500518799,0.5290905237197876,0.5512866973876953,0.5734828114509583,0.595678985118866,0.6178750991821289,0.6400712728500366],"_type":"histogram","values":[1,0,0,0,0,0,0,1,1,1,3,1,6,11,17,15,24,30,36,32,43,65,65,92,94,123,123,135,157,139,168,169,159,162,181,171,159,170,164,153,148,137,107,139,97,79,91,68,85,45,43,37,27,31,22,18,16,11,4,9,3,5,1,2]},"cumulative_reward":836482.8488242533,"solar_capacity":2434.7494802470906,"gradients/value_net.weight":{"_type":"histogram","values":[36,0,0,0,0,0,0,0,0,0,0,0,0,0,0,0,0,0,0,0,0,0,0,0,0,0,0,0,0,0,0,0,0,0,0,0,0,0,0,0,0,0,0,0,0,0,0,0,0,0,0,0,0,0,0,0,0,0,0,0,0,0,0,28],"bins":[-1194.3101806640625,-1156.98828125,-1119.666259765625,-1082.3443603515625,-1045.0224609375,-1007.7005004882812,-970.3785400390625,-933.056640625,-895.7347412109375,-858.4127807617188,-821.0908203125,-783.7689208984375,-746.4469604492188,-709.125,-671.8031005859375,-634.481201171875,-597.1592407226562,-559.8372802734375,-522.515380859375,-485.19342041015625,-447.87152099609375,-410.549560546875,-373.2276611328125,-335.90570068359375,-298.583740234375,-261.2618408203125,-223.93988037109375,-186.61798095703125,-149.2960205078125,-111.97412109375,-74.6522216796875,-37.3302001953125,-0.00830078125,37.3135986328125,74.6356201171875,111.95751953125,149.2794189453125,186.60137939453125,223.92327880859375,261.2452392578125,298.567138671875,335.88909912109375,373.2110595703125,410.532958984375,447.85491943359375,485.17681884765625,522.498779296875,559.8206787109375,597.1426391601562,634.464599609375,671.7864990234375,709.1083984375,746.4303588867188,783.7523193359375,821.07421875,858.3961791992188,895.7181396484375,933.0400390625,970.3619384765625,1007.6838989257812,1045.005859375,1082.3277587890625,1119.649658203125,1156.9716796875,1194.2935791015625]},"parameters/mlp_extractor.policy_net.2.weight":{"values":[2,0,0,1,2,1,4,5,6,11,15,13,14,38,31,49,50,49,69,64,79,91,127,134,113,157,159,192,165,176,187,190,184,172,163,145,155,143,146,115,103,96,85,79,66,53,47,36,26,16,21,13,12,7,2,5,3,4,3,0,0,0,1,1],"bins":[-0.6178471446037292,-0.5980134010314941,-0.5781797170639038,-0.5583459734916687,-0.5385122299194336,-0.5186784863471985,-0.49884477257728577,-0.47901105880737305,-0.45917731523513794,-0.43934357166290283,-0.4195098578929901,-0.3996761441230774,-0.3798424005508423,-0.3600086569786072,-0.34017494320869446,-0.32034122943878174,-0.30050748586654663,-0.2806737422943115,-0.2608400285243988,-0.24100631475448608,-0.22117257118225098,-0.20133882761001587,-0.18150511384010315,-0.16167140007019043,-0.14183765649795532,-0.12200391292572021,-0.10217016935348511,-0.08233648538589478,-0.06250274181365967,-0.04266899824142456,-0.02283531427383423,-0.003001570701599121,0.01683211326599121,0.03666585683822632,0.056499600410461426,0.07633328437805176,0.09616702795028687,0.11600077152252197,0.1358344554901123,0.1556681990623474,0.17550194263458252,0.19533568620681763,0.21516939997673035,0.23500311374664307,0.2548368573188782,0.2746706008911133,0.294504314661026,0.3143380284309387,0.33417177200317383,0.35400551557540894,0.37383922934532166,0.3936729431152344,0.4135066866874695,0.4333404302597046,0.4531741440296173,0.47300785779953003,0.49284160137176514,0.5126753449440002,0.5325090885162354,0.5523427724838257,0.5721765160560608,0.5920102596282959,0.6118439435958862,0.6316776871681213,0.6515114307403564],"_type":"histogram"},"gradients/mlp_extractor.value_net.2.bias":{"_type":"histogram","values":[1,0,0,1,1,0,0,0,0,2,4,0,1,1,2,1,0,5,0,0,4,3,1,6,2,1,0,1,2,2,2,5,1,1,1,1,1,4,0,2,1,1,0,0,1,0,0,0,0,0,0,0,0,1,0,0,0,0,0,0,0,0,0,1],"bins":[-1.308653712272644,-1.2591191530227661,-1.2095845937728882,-1.1600499153137207,-1.1105153560638428,-1.0609807968139648,-1.011446237564087,-0.961911678314209,-0.9123770594596863,-0.8628424406051636,-0.8133078813552856,-0.7637733221054077,-0.7142387628555298,-0.6647041440010071,-0.6151695847511292,-0.5656349658966064,-0.5161004066467285,-0.4665658473968506,-0.4170312285423279,-0.36749666929244995,-0.31796205043792725,-0.2684274911880493,-0.2188929319381714,-0.16935837268829346,-0.11982381343841553,-0.07028913497924805,-0.020754575729370117,0.028779983520507812,0.07831454277038574,0.12784910202026367,0.17738378047943115,0.22691833972930908,0.27645301818847656,0.3259875774383545,0.3755221366882324,0.4250568151473999,0.47459137439727783,0.5241259336471558,0.5736604928970337,0.6231950521469116,0.6727297306060791,0.722264289855957,0.771798849105835,0.8213334083557129,0.8708679676055908,0.9204025864601135,0.9699371457099915,1.0194717645645142,1.069006323814392,1.11854088306427,1.1680755615234375,1.2176101207733154,1.2671446800231934,1.3166792392730713,1.3662137985229492,1.4157483577728271,1.465282917022705,1.5148175954818726,1.5643521547317505,1.6138867139816284,1.6634212732315063,1.7129559516906738,1.7624905109405518,1.8120250701904297,1.8615596294403076]},"gradients/mlp_extractor.value_net.0.bias":{"_type":"histogram","values":[1,0,1,1,0,1,0,1,0,0,2,3,0,1,0,1,1,2,0,0,1,0,1,2,2,5,1,3,2,1,0,0,2,0,5,2,2,1,0,3,1,5,1,1,0,0,0,2,1,0,0,3,1,0,0,0,0,0,0,0,0,0,0,1],"bins":[-3.8255677223205566,-3.7003424167633057,-3.5751171112060547,-3.449892044067383,-3.324666738510132,-3.199441432952881,-3.074216365814209,-2.948991060256958,-2.823765754699707,-2.698540449142456,-2.573315143585205,-2.448090076446533,-2.3228647708892822,-2.1976394653320312,-2.0724143981933594,-1.9471890926361084,-1.8219637870788574,-1.6967384815216064,-1.5715131759643555,-1.4462881088256836,-1.3210628032684326,-1.1958374977111816,-1.0706124305725098,-0.9453871250152588,-0.8201618194580078,-0.6949365139007568,-0.5697112083435059,-0.444486141204834,-0.319260835647583,-0.19403553009033203,-0.06881046295166016,0.05641484260559082,0.1816396713256836,0.30686497688293457,0.43209028244018555,0.5573153495788574,0.6825406551361084,0.8077659606933594,0.9329910278320312,1.0582163333892822,1.1834416389465332,1.3086669445037842,1.4338922500610352,1.559117317199707,1.684342622756958,1.809567928314209,1.9347929954528809,2.060018301010132,2.185243606567383,2.310468912124634,2.4356942176818848,2.5609192848205566,2.6861445903778076,2.8113698959350586,2.9365949630737305,3.0618202686309814,3.1870455741882324,3.3122708797454834,3.4374961853027344,3.5627212524414062,3.6879465579986572,3.813171863555908,3.93839693069458,4.06362247467041,4.188847541809082]},"_timestamp":1.7479994142012513e+09,"_wandb":{"runtime":36},"parameters/log_std":{"bins":[-0.0227322019636631,-0.022181309759616852,-0.021630417555570602,-0.021079527214169502,-0.020528635010123253,-0.019977742806077003,-0.019426852464675903,-0.018875960260629654,-0.018325068056583405,-0.017774175852537155,-0.017223283648490906,-0.016672393307089806,-0.016121501103043556,-0.015570608898997307,-0.015019717626273632,-0.014468826353549957,-0.013917934149503708,-0.013367041945457458,-0.012816150672733784,-0.012265259400010109,-0.01171436719596386,-0.01116347499191761,-0.010612583719193935,-0.01006169244647026,-0.009510800242424011,-0.008959908038377762,-0.008409016765654087,-0.007858125492930412,-0.007307233288884163,-0.0067563410848379135,-0.006205450743436813,-0.005654558539390564,-0.005103664472699165,-0.004552772268652916,-0.0040018800646066666,-0.0034509897232055664,-0.002900097519159317,-0.0023492053151130676,-0.0017983140423893929,-0.001247422769665718,-0.0006965305656194687,-0.0001456383615732193,0.0004052529111504555,0.0009561441838741302,0.0015070363879203796,0.002057928591966629,0.002608819864690304,0.0031597111374139786,0.003710603341460228,0.004261495545506477,0.004812386818230152,0.005363278556615114,0.005914170295000076,0.006465062033385038,0.0070159537717700005,0.0075668455101549625,0.008117737248539925,0.008668629452586174,0.009219520725309849,0.009770411998033524,0.010321304202079773,0.010872196406126022,0.011423087678849697,0.011973978951573372,0.012524871155619621],"_type":"histogram","values":[1,0,0,0,0,0,0,0,0,0,0,0,0,0,0,0,0,0,0,0,1,0,0,0,0,0,0,1,0,0,0,0,0,0,0,0,0,0,0,0,0,0,0,0,1,0,0,0,0,0,0,0,0,0,0,0,0,0,0,0,0,0,0,1]},"step":10239,"parameters/mlp_extractor.value_net.0.weight":{"_type":"histogram","values":[1,0,1,0,1,1,0,0,0,0,0,0,1,1,4,1,2,6,4,4,3,10,7,10,7,9,13,13,19,21,19,11,20,17,21,23,16,9,22,24,22,19,9,17,17,18,10,10,10,5,8,10,7,8,6,1,3,1,3,1,2,2,1,1],"bins":[-0.7062793970108032,-0.686892032623291,-0.6675047278404236,-0.6481173634529114,-0.628730058670044,-0.6093426942825317,-0.5899553298950195,-0.5705680251121521,-0.5511806607246399,-0.5317933559417725,-0.5124059915542603,-0.49301865696907043,-0.4736313223838806,-0.4542439877986908,-0.4348566234111786,-0.41546928882598877,-0.39608195424079895,-0.37669461965560913,-0.3573072850704193,-0.3379199206829071,-0.3185325860977173,-0.29914525151252747,-0.27975791692733765,-0.2603705823421478,-0.240983247756958,-0.2215958833694458,-0.20220857858657837,-0.18282121419906616,-0.16343384981155396,-0.14404654502868652,-0.12465918064117432,-0.10527187585830688,-0.08588451147079468,-0.06649714708328247,-0.04710984230041504,-0.027722477912902832,-0.0083351731300354,0.011052191257476807,0.030439555644989014,0.049826860427856445,0.06921422481536865,0.08860155940055847,0.10798889398574829,0.1273762285709381,0.14676356315612793,0.16615089774131775,0.18553826212882996,0.20492559671401978,0.2243129312992096,0.24370026588439941,0.26308760046958923,0.28247496485710144,0.30186229944229126,0.3212496340274811,0.3406369686126709,0.3600243330001831,0.37941163778305054,0.39879900217056274,0.41818633675575256,0.4375736713409424,0.4569610059261322,0.476348340511322,0.49573570489883423,0.5151230096817017,0.5345103740692139]},"hydro_capacity":2517.138124991259,"gradients/value_net.bias":{"values":[1],"bins":[-1194.3436279296875,-1194.3436279296875],"_type":"histogram"},"battery_capacity":6529.657070109047,"parameters/mlp_extractor.policy_net.0.bias":{"bins":[-0.00011299968173261732,-0.0001091936428565532,-0.00010538761125644669,-0.00010158157238038257,-9.777554078027606e-05,-9.396950190421194e-05,-9.016346302814782e-05,-8.63574241520837e-05,-8.255139255197719e-05,-7.874536095187068e-05,-7.493932207580656e-05,-7.113328319974244e-05,-6.732724432367831e-05,-6.352121272357181e-05,-5.9715173847507685e-05,-5.590913860942237e-05,-5.2103103371337056e-05,-4.8297064495272934e-05,-4.449103289516643e-05,-4.0684994019102305e-05,-3.68789624189958e-05,-3.3072923542931676e-05,-2.9266884666867554e-05,-2.5460853066761047e-05,-2.1654814190696925e-05,-1.7848775314632803e-05,-1.4042743714526296e-05,-1.0236704838462174e-05,-6.430665962398052e-06,-2.6246343622915447e-06,1.181404513772577e-06,4.987436113879085e-06,8.793474989943206e-06,1.2599513866007328e-05,1.6405545466113836e-05,2.0211584342177957e-05,2.4017615942284465e-05,2.7823654818348587e-05,3.162969369441271e-05,3.5435725294519216e-05,3.924176417058334e-05,4.304780304664746e-05,4.685383464675397e-05,5.065987352281809e-05,5.446591239888221e-05,5.827194399898872e-05,6.207798287505284e-05,6.588401447515935e-05,6.969005335122347e-05,7.349609222728759e-05,7.73021238273941e-05,8.110816270345822e-05,8.491419430356473e-05,8.872023317962885e-05,9.252627205569297e-05,9.633231093175709e-05,0.0001001383425318636,0.00010394437413197011,0.00010775041300803423,0.00011155645188409835,0.00011536249076016247,0.00011916852236026898,0.0001229745539603755,0.0001267805928364396,0.00013058663171250373],"_type":"histogram","values":[1,0,0,0,0,0,0,0,0,0,0,0,0,1,2,0,0,0,1,2,1,1,2,1,2,4,2,3,4,4,2,2,2,2,1,5,0,0,2,2,1,2,1,1,1,1,0,2,0,1,0,0,0,1,0,0,1,0,1,0,0,1,0,1]},"wind_capacity":2419.771808970989,"gradients/mlp_extractor.policy_net.0.bias":{"values":[1,0,0,0,0,0,0,0,0,0,0,0,0,0,0,0,1,0,0,0,1,1,1,2,1,1,0,1,1,4,1,0,3,2,2,2,1,1,2,5,2,2,1,0,1,3,2,0,3,2,0,1,1,2,1,0,4,0,1,1,1,1,0,1],"bins":[-0.002483698073774576,-0.002421485260128975,-0.0023592724464833736,-0.002297059865668416,-0.0022348470520228148,-0.0021726342383772135,-0.002110421424731612,-0.0020482088439166546,-0.0019859960302710533,-0.001923783216625452,-0.0018615704029798508,-0.0017993577057495713,-0.00173714489210397,-0.0016749321948736906,-0.0016127193812280893,-0.001550506567582488,-0.0014882938703522086,-0.0014260810567066073,-0.001363868359476328,-0.0013016555458307266,-0.0012394428486004472,-0.001177230034954846,-0.0011150173377245665,-0.0010528045240789652,-0.000990591710433364,-0.0009283790132030845,-0.0008661661995574832,-0.0008039535023272038,-0.0007417406886816025,-0.000679527991451323,-0.0006173151778057218,-0.0005551024805754423,-0.0004928897833451629,-0.0004306769696995616,-0.00036846427246928215,-0.0003062514588236809,-0.00024403876159340143,-0.00018182594794780016,-0.00011961325071752071,-5.740043707191944e-05,4.8122601583600044e-06,6.702507380396128e-05,0.00012923788744956255,0.000191450584679842,0.00025366339832544327,0.0003158760955557227,0.000378088909201324,0.00044030160643160343,0.0005025144200772047,0.0005647271755151451,0.0006269399309530854,0.0006891526863910258,0.0007513654418289661,0.0008135782554745674,0.0008757910109125078,0.0009380037663504481,0.0010002164635807276,0.0010624292772263288,0.0011246420908719301,0.0011868547881022096,0.0012490676017478108,0.0013112802989780903,0.0013734931126236916,0.001435705809853971,0.0014979186234995723],"_type":"histogram"}}