{"hydro_capacity":2200.490757354836,"_step":10251,"revenue":8.643034360914586e+06,"parameters/mlp_extractor.policy_net.2.weight":{"_type":"histogram","values":[2,4,1,2,5,1,5,8,8,5,10,21,22,26,30,35,45,55,50,71,87,88,98,103,83,139,142,130,143,152,144,171,179,158,162,158,149,138,136,151,120,104,107,99,78,77,56,53,39,42,47,43,30,21,12,13,12,6,4,5,2,3,5,1],"bins":[-0.5798212885856628,-0.5621846914291382,-0.5445481538772583,-0.5269115567207336,-0.509274959564209,-0.4916383624076843,-0.47400179505348206,-0.4563652276992798,-0.4387286305427551,-0.42109203338623047,-0.4034554660320282,-0.3858188986778259,-0.36818230152130127,-0.3505457043647766,-0.33290913701057434,-0.31527256965637207,-0.2976359724998474,-0.27999937534332275,-0.2623628079891205,-0.2447262406349182,-0.22708964347839355,-0.2094530463218689,-0.19181647896766663,-0.17417991161346436,-0.1565433144569397,-0.13890671730041504,-0.12127014994621277,-0.1036335825920105,-0.08599698543548584,-0.06836038827896118,-0.0507238507270813,-0.03308725357055664,-0.015450596809387207,0.002186000347137451,0.01982259750366211,0.03745913505554199,0.05509573221206665,0.07273232936859131,0.09036889672279358,0.10800546407699585,0.1256420612335205,0.14327865839004517,0.16091522574424744,0.1785517930984497,0.19618839025497437,0.21382498741149902,0.2314615547657013,0.24909812211990356,0.2667347192764282,0.2843713164329529,0.30200788378715515,0.3196444511413574,0.3372810482978821,0.35491764545440674,0.372554212808609,0.3901907801628113,0.40782737731933594,0.4254639744758606,0.44310054183006287,0.46073710918426514,0.4783737063407898,0.49601030349731445,0.5136468410491943,0.531283438205719,0.5489200353622437]},"step":10239,"_wandb":{"runtime":83},"parameters/action_net.weight":{"_type":"histogram","values":[1,0,0,1,0,0,0,0,0,0,0,0,0,0,0,1,0,3,2,5,4,0,3,3,4,7,6,3,11,14,13,21,16,21,8,19,20,14,17,7,11,12,10,12,7,8,6,6,6,4,2,4,3,0,1,1,0,1,0,0,1,0,0,1],"bins":[-0.015401213429868221,-0.014971005730330944,-0.014540798030793667,-0.01411059033125639,-0.013680381700396538,-0.01325017400085926,-0.012819966301321983,-0.012389758601784706,-0.011959550902247429,-0.011529343202710152,-0.011099135503172874,-0.010668927803635597,-0.01023872010409832,-0.009808512404561043,-0.009378303773701191,-0.008948096074163914,-0.008517888374626637,-0.00808768067508936,-0.007657472975552082,-0.007227265276014805,-0.006797057576477528,-0.006366848945617676,-0.0059366412460803986,-0.005506433546543121,-0.005076225847005844,-0.004646018147468567,-0.00421581044793129,-0.0037856027483940125,-0.0033553941175341606,-0.0029251864179968834,-0.002494978718459606,-0.002064771018922329,-0.0016345633193850517,-0.0012043556198477745,-0.0007741479203104973,-0.00034394022077322006,8.626747876405716e-05,0.000516476109623909,0.0009466838091611862,0.0013768915086984634,0.0018070992082357407,0.002237306907773018,0.002667514607310295,0.0030977223068475723,0.003527930937707424,0.003958138637244701,0.004388346336781979,0.004818554036319256,0.005248761735856533,0.00567896943539381,0.0061091771349310875,0.006539385300129652,0.006969592999666929,0.0073998006992042065,0.007830008864402771,0.008260216563940048,0.008690424263477325,0.009120631963014603,0.00955083966255188,0.009981047362089157,0.010411255061626434,0.010841463692486286,0.011271671392023563,0.01170187909156084,0.012132086791098118]},"wind_capacity":2095.1439322092815,"_runtime":83.6801911,"parameters/action_net.bias":{"values":[1,0,0,0,0,0,0,0,0,0,0,0,0,0,0,0,0,0,1,0,0,0,0,0,0,0,0,0,0,0,1,0,0,0,0,0,0,0,0,0,0,0,0,0,0,1,0,0,0,0,0,0,0,0,0,0,0,0,0,0,0,0,0,1],"bins":[-0.00472880806773901,-0.004552455618977547,-0.0043761031702160835,-0.00419975072145462,-0.004023398272693157,-0.0038470455911010504,-0.0036706929095089436,-0.0034943404607474804,-0.0033179880119860172,-0.003141635563224554,-0.002965283114463091,-0.002788930432870984,-0.002612577984109521,-0.0024362255353480577,-0.002259872853755951,-0.0020835204049944878,-0.0019071679562330246,-0.0017308155074715614,-0.0015544630587100983,-0.0013781103771179914,-0.0012017579283565283,-0.0010254054795950651,-0.0008490527980029583,-0.0006727003492414951,-0.000496347900480032,-0.0003199954517185688,-0.00014364300295710564,3.270944580435753e-05,0.000209062360227108,0.00038541480898857117,0.0005617672577500343,0.0007381197065114975,0.000914472620934248,0.0010908250696957111,0.0012671775184571743,0.0014435299672186375,0.0016198824159801006,0.001796235330402851,0.0019725877791643143,0.0021489402279257774,0.0023252926766872406,0.0025016451254487038,0.002677997574210167,0.0028543502558022738,0.003030702704563737,0.0032070551533252,0.003383407834917307,0.00355976028367877,0.0037361127324402332,0.003912465181201696,0.0040888176299631596,0.00426517054438591,0.004441522993147373,0.004617875441908836,0.0047942278906702995,0.004970580339431763,0.005146932788193226,0.005323285236954689,0.005499637685716152,0.005675990134477615,0.0058523425832390785,0.006028695497661829,0.006205047946423292,0.006381400395184755,0.0065577528439462185],"_type":"histogram"},"gradients/mlp_extractor.policy_net.2.bias":{"_type":"histogram","values":[1,0,0,0,0,1,1,0,0,0,1,1,0,0,0,0,2,3,2,0,2,3,1,2,3,5,1,4,6,3,5,1,2,1,0,2,1,4,0,1,0,1,0,0,0,1,1,0,0,0,0,0,0,0,0,1,0,0,0,0,0,0,0,1],"bins":[-0.002624121494591236,-0.0025287417229264975,-0.002433361718431115,-0.0023379819467663765,-0.002242601942270994,-0.0021472221706062555,-0.002051842398941517,-0.0019564623944461346,-0.001861082622781396,-0.0017657027347013354,-0.001670322846621275,-0.0015749430749565363,-0.0014795631868764758,-0.0013841832987964153,-0.0012888035271316767,-0.0011934236390516162,-0.0010980437509715557,-0.0010026638628914952,-0.0009072839748114347,-0.0008119042031466961,-0.0007165243150666356,-0.0006211444269865751,-0.0005257646553218365,-0.00043038465082645416,-0.0003350048791617155,-0.00023962510749697685,-0.00014424510300159454,-4.886533133685589e-05,4.651444032788277e-05,0.00014189444482326508,0.00023727421648800373,0.00033265422098338604,0.00042803375981748104,0.0005234135314822197,0.000618793535977602,0.0007141733076423407,0.000809553312137723,0.0009049330838024616,0.0010003128554672003,0.0010956928599625826,0.0011910726316273212,0.00128645240329206,0.0013818324077874422,0.0014772121794521809,0.0015725920675322413,0.0016679719556123018,0.0017633517272770405,0.001858731615357101,0.0019541115034371614,0.0020494912751019,0.0021448712795972824,0.002240251051262021,0.0023356308229267597,0.002431010827422142,0.0025263905990868807,0.0026217703707516193,0.0027171503752470016,0.002812530379742384,0.0029079101514071226,0.0030032899230718613,0.0030986699275672436,0.0031940496992319822,0.003289429470896721,0.003384809475392103,0.003480189247056842]},"parameters/mlp_extractor.value_net.0.weight":{"_type":"histogram","values":[3,2,0,0,2,3,7,3,6,2,4,3,11,5,6,8,8,11,11,13,5,8,13,18,21,20,14,14,8,11,15,19,19,15,17,18,15,8,18,8,15,15,12,5,5,5,3,12,5,3,10,5,4,3,5,4,2,1,1,1,1,1,1,1],"bins":[-0.5028681755065918,-0.48642298579216003,-0.46997779607772827,-0.4535326361656189,-0.43708744645118713,-0.42064225673675537,-0.404197096824646,-0.38775190711021423,-0.37130671739578247,-0.3548615276813507,-0.33841633796691895,-0.32197117805480957,-0.3055259883403778,-0.28908079862594604,-0.27263563871383667,-0.2561904489994049,-0.23974525928497314,-0.22330006957054138,-0.20685487985610962,-0.19040971994400024,-0.17396453022956848,-0.15751934051513672,-0.14107418060302734,-0.12462899088859558,-0.10818380117416382,-0.09173861145973206,-0.07529342174530029,-0.05884826183319092,-0.042403072118759155,-0.025957882404327393,-0.009512722492218018,0.006932497024536133,0.023377656936645508,0.03982281684875488,0.05626803636550903,0.07271319627761841,0.08915838599205017,0.10560357570648193,0.12204873561859131,0.13849392533302307,0.15493911504745483,0.1713843047618866,0.18782949447631836,0.20427465438842773,0.2207198441028595,0.23716503381729126,0.25361019372940063,0.2700553834438324,0.28650057315826416,0.3029457628726959,0.3193909525871277,0.33583611249923706,0.3522813022136688,0.3687264919281006,0.38517165184020996,0.4016168415546417,0.4180620312690735,0.43450722098350525,0.450952410697937,0.4673975706100464,0.48384276032447815,0.5002879500389099,0.5167331099510193,0.5331783294677734,0.5496234893798828]},"gradients/mlp_extractor.policy_net.0.bias":{"_type":"histogram","values":[1,0,0,0,0,0,0,1,0,0,1,0,0,1,0,0,0,0,1,0,1,0,0,0,2,0,0,2,0,1,1,3,1,3,0,2,0,2,6,2,3,1,3,2,1,2,3,2,2,2,3,1,2,1,0,0,0,0,2,2,0,0,0,1],"bins":[-0.004037518985569477,-0.003938972484320402,-0.003840425983071327,-0.0037418794818222523,-0.0036433329805731773,-0.0035447864793241024,-0.0034462399780750275,-0.0033476934768259525,-0.0032491469755768776,-0.0031506004743278027,-0.0030520539730787277,-0.002953507471829653,-0.0028549612034112215,-0.0027564147021621466,-0.0026578682009130716,-0.0025593216996639967,-0.0024607751984149218,-0.002362228697165847,-0.002263682195916772,-0.002165135694667697,-0.002066589193418622,-0.001968042692169547,-0.0018694961909204721,-0.0017709496896713972,-0.001672403421252966,-0.001573856920003891,-0.001475310418754816,-0.0013767639175057411,-0.0012782174162566662,-0.0011796709150075912,-0.0010811244137585163,-0.0009825779125094414,-0.0008840314112603664,-0.0007854849100112915,-0.0006869384087622166,-0.0005883919075131416,-0.0004898454062640667,-0.00039129890501499176,-0.0002927524037659168,-0.0001942059025168419,-9.565940126776695e-05,2.8868671506643295e-06,0.00010143336839973927,0.0001999798696488142,0.00029852637089788914,0.0003970728721469641,0.000495619373396039,0.0005941658746451139,0.0006927123758941889,0.0007912588771432638,0.0008898053783923388,0.0009883518796414137,0.0010868983808904886,0.0011854447657242417,0.0012839912669733167,0.0013825377682223916,0.0014810842694714665,0.0015796307707205415,0.0016781772719696164,0.0017767236568033695,0.0018752701580524445,0.0019738166593015194,0.0020723631605505943,0.0021709096617996693,0.002269456163048744]},"parameters/mlp_extractor.policy_net.0.weight":{"_type":"histogram","values":[1,0,0,1,0,0,0,0,0,0,0,1,3,2,3,2,8,3,4,5,9,9,6,12,12,7,15,14,18,16,24,13,26,20,21,26,10,22,23,20,24,15,12,11,13,14,13,7,8,4,6,5,2,5,3,2,5,1,3,0,1,1,0,1],"bins":[-0.622694730758667,-0.6048967838287354,-0.5870988965034485,-0.5693009495735168,-0.55150306224823,-0.5337051153182983,-0.5159072279930115,-0.49810928106307983,-0.4803113639354706,-0.46251344680786133,-0.4447155296802521,-0.4269176125526428,-0.4091196656227112,-0.3913217782974243,-0.3735238313674927,-0.3557259142398834,-0.33792799711227417,-0.3201300799846649,-0.30233216285705566,-0.2845342457294464,-0.26673632860183716,-0.24893838167190552,-0.23114046454429626,-0.213342547416687,-0.19554463028907776,-0.1777467131614685,-0.15994879603385925,-0.14215087890625,-0.12435293197631836,-0.1065550446510315,-0.08875709772109985,-0.07095921039581299,-0.05316126346588135,-0.03536331653594971,-0.017565429210662842,0.00023251771926879883,0.018030405044555664,0.035828351974487305,0.05362626910209656,0.07142418622970581,0.08922210335731506,0.10702002048492432,0.12481793761253357,0.14261585474014282,0.16041380167007446,0.17821171879768372,0.19600963592529297,0.21380755305290222,0.23160547018051147,0.24940338730812073,0.26720130443573,0.2849992513656616,0.3027971386909485,0.3205950856208801,0.3383930027484894,0.35619091987609863,0.3739888370037079,0.39178675413131714,0.4095846712589264,0.42738258838653564,0.4451805353164673,0.46297845244407654,0.4807763695716858,0.49857428669929504,0.5163722038269043]},"cumulative_reward":832656.7191054471,"gradients/log_std":{"bins":[-0.32609331607818604,-0.319259911775589,-0.31242650747299194,-0.3055931031703949,-0.29875969886779785,-0.2919262945652008,-0.28509289026260376,-0.2782595157623291,-0.27142611145973206,-0.264592707157135,-0.25775930285453796,-0.2509258985519409,-0.24409249424934387,-0.23725908994674683,-0.23042568564414978,-0.22359228134155273,-0.2167588770389557,-0.20992547273635864,-0.2030920833349228,-0.19625867903232574,-0.1894252747297287,-0.18259187042713165,-0.1757584661245346,-0.16892507672309875,-0.1620916724205017,-0.15525826811790466,-0.14842486381530762,-0.14159145951271057,-0.13475805521011353,-0.12792466580867767,-0.12109126150608063,-0.11425785720348358,-0.10742446035146713,-0.10059105604887009,-0.09375765174627304,-0.086924247443676,-0.08009085804224014,-0.0732574537396431,-0.06642404943704605,-0.059590645134449005,-0.05275724083185196,-0.04592383652925491,-0.03909044712781906,-0.032257042825222015,-0.02542363852262497,-0.018590234220027924,-0.011756829917430878,-0.004923433065414429,0.0019099712371826172,0.008743375539779663,0.015576772391796112,0.022410176694393158,0.029243580996990204,0.03607697784900665,0.0429103821516037,0.049743786454200745,0.05657718703150749,0.06341058760881424,0.07024399191141129,0.07707738876342773,0.08391079306602478,0.09074419736862183,0.09757760167121887,0.10441099852323532,0.11124440282583237],"_type":"histogram","values":[1,0,0,0,0,1,0,0,0,0,0,0,1,0,1,0,0,0,0,0,0,0,0,0,0,0,0,0,0,0,0,0,0,0,0,0,0,0,0,0,0,0,0,0,0,0,0,0,0,0,0,0,0,0,0,0,0,0,0,0,0,0,0,1]},"parameters/mlp_extractor.value_net.2.weight":{"_type":"histogram","values":[2,1,4,3,4,5,10,7,13,10,17,31,25,45,52,54,73,87,97,97,124,154,158,140,161,185,168,201,173,187,188,162,158,150,159,131,110,126,118,88,78,69,61,45,38,27,26,24,13,14,7,8,2,2,0,1,0,2,0,0,0,0,0,1],"bins":[-0.6615138053894043,-0.6384706497192383,-0.6154274344444275,-0.5923842787742615,-0.5693410634994507,-0.5462979078292847,-0.5232547521591187,-0.5002115368843079,-0.47716835141181946,-0.45412516593933105,-0.43108198046684265,-0.40803879499435425,-0.38499563932418823,-0.36195245385169983,-0.3389092683792114,-0.315866082906723,-0.2928228974342346,-0.2697797119617462,-0.2467365264892578,-0.2236933410167694,-0.200650155544281,-0.177606999874115,-0.1545637845993042,-0.13152062892913818,-0.10847747325897217,-0.08543425798416138,-0.06239110231399536,-0.03934788703918457,-0.016304731369018555,0.006738483905792236,0.029781639575958252,0.05282485485076904,0.07586795091629028,0.0989111065864563,0.12195432186126709,0.1449974775314331,0.1680406928062439,0.1910838484764099,0.2141270637512207,0.23717021942138672,0.2602134346961975,0.2832565903663635,0.30629974603652954,0.32934296131134033,0.35238611698150635,0.37542930245399475,0.39847248792648315,0.42151567339897156,0.44455885887145996,0.46760204434394836,0.49064522981643677,0.5136884450912476,0.5367316007614136,0.5597747564315796,0.5828179121017456,0.6058611273765564,0.6289043426513672,0.6519474983215332,0.6749906539916992,0.69803386926651,0.721077024936676,0.7441202402114868,0.7671633958816528,0.7902066111564636,0.8132497668266296]},"parameters/mlp_extractor.value_net.2.bias":{"_type":"histogram","values":[1,0,1,1,6,3,1,0,0,1,2,4,1,4,2,3,2,0,0,0,0,0,0,0,0,0,0,0,0,0,0,0,0,0,0,0,0,0,0,0,0,0,1,1,1,3,1,0,3,2,4,1,1,2,5,2,1,0,0,0,0,1,2,1],"bins":[-0.10773568600416183,-0.10423988848924637,-0.1007440835237503,-0.09724828600883484,-0.09375248849391937,-0.0902566909790039,-0.08676089346408844,-0.08326508849859238,-0.07976929098367691,-0.07627349346876144,-0.07277768850326538,-0.06928189098834991,-0.06578609347343445,-0.06229029595851898,-0.05879449471831322,-0.05529869347810745,-0.051802895963191986,-0.04830709844827652,-0.04481130093336105,-0.04131549596786499,-0.037819698452949524,-0.03432390093803406,-0.030828095972537994,-0.027332298457622528,-0.023836500942707062,-0.020340703427791595,-0.01684490591287613,-0.013349100947380066,-0.0098533034324646,-0.006357505917549133,-0.00286170095205307,0.0006340965628623962,0.0041299015283584595,0.007625699043273926,0.011121496558189392,0.014617301523685455,0.01811309903860092,0.021608896553516388,0.02510470151901245,0.028600499033927917,0.032096296548843384,0.03559209406375885,0.039087891578674316,0.04258369654417038,0.046079494059085846,0.04957529157400131,0.053071096539497375,0.05656689405441284,0.06006269156932831,0.06355848908424377,0.06705428659915924,0.0705500915646553,0.07404588907957077,0.07754168659448624,0.0810374915599823,0.08453328907489777,0.08802908658981323,0.0915248841047287,0.09502068161964417,0.09851648658514023,0.1020122841000557,0.10550808161497116,0.10900388658046722,0.11249968409538269,0.11599548161029816]},"gradients/mlp_extractor.policy_net.2.weight":{"bins":[-0.002451962558552623,-0.0023667009081691504,-0.0022814394906163216,-0.002196177840232849,-0.0021109161898493767,-0.002025654772296548,-0.0019403931219130754,-0.0018551315879449248,-0.0017698700539767742,-0.0016846085200086236,-0.001599346986040473,-0.0015140853356570005,-0.00142882380168885,-0.0013435622677206993,-0.0012583006173372269,-0.0011730390833690763,-0.0010877775494009256,-0.001002516015432775,-0.0009172544814646244,-0.000831992831081152,-0.0007467312971130013,-0.0006614697631448507,-0.0005762081127613783,-0.0004909466952085495,-0.00040568504482507706,-0.0003204233944416046,-0.00023516197688877583,-0.00014990032650530338,-6.463867612183094e-05,2.062274143099785e-05,0.00010588439181447029,0.00019114580936729908,0.0002764074597507715,0.00036166911013424397,0.00044693052768707275,0.0005321921780705452,0.000617453595623374,0.0007027152460068464,0.0007879768963903189,0.0008732383139431477,0.0009584999643266201,0.0010437616147100925,0.0011290230322629213,0.0012142846826463938,0.0012995462166145444,0.001384807750582695,0.0014700694009661674,0.001555330934934318,0.0016405924689024687,0.0017258540028706193,0.00181111553683877,0.0018963771872222424,0.001981638837605715,0.0020669002551585436,0.002152161905542016,0.002237423323094845,0.0023226849734783173,0.0024079466238617897,0.0024932080414146185,0.002578469691798091,0.0026637311093509197,0.002748992759734392,0.0028342544101178646,0.0029195158276706934,0.003004777478054166],"_type":"histogram","values":[1,1,2,0,1,1,2,6,4,2,7,6,5,8,11,12,14,25,22,31,26,62,80,94,132,191,265,424,822,641,335,233,154,98,86,83,45,30,25,13,20,15,10,6,6,6,5,8,3,1,5,1,3,2,1,1,0,2,0,0,0,0,0,1]},"gradients/value_net.bias":{"_type":"histogram","values":[1],"bins":[-1269.4814453125,-1269.4814453125]},"battery_energy":0,"parameters/value_net.weight":{"values":[2,0,1,1,2,3,1,2,5,8,3,3,1,0,0,0,0,0,0,0,0,0,0,0,0,0,0,0,0,0,0,0,0,0,0,0,0,0,0,0,0,0,0,0,0,4,4,6,2,3,4,2,1,1,1,1,1,0,1,0,0,0,0,1],"bins":[-0.6478673219680786,-0.6249792575836182,-0.6020912528038025,-0.5792032480239868,-0.5563151836395264,-0.5334271192550659,-0.5105391144752502,-0.4876510798931122,-0.4647630453109741,-0.44187501072883606,-0.418986976146698,-0.39609894156455994,-0.3732109069824219,-0.3503228724002838,-0.32743483781814575,-0.3045468032360077,-0.28165876865386963,-0.25877073407173157,-0.2358826994895935,-0.21299466490745544,-0.19010663032531738,-0.16721859574317932,-0.14433056116104126,-0.12144255638122559,-0.09855449199676514,-0.07566642761230469,-0.052778422832489014,-0.02989041805267334,-0.007002353668212891,0.01588571071624756,0.03877371549606323,0.061661720275878906,0.08454984426498413,0.10743790864944458,0.13032591342926025,0.15321391820907593,0.17610198259353638,0.19899004697799683,0.2218780517578125,0.24476605653762817,0.2676541209220886,0.2905421853065491,0.31343019008636475,0.3363182246685028,0.35920625925064087,0.38209429383277893,0.404982328414917,0.42787036299705505,0.4507583975791931,0.4736464321613312,0.49653446674346924,0.5194225311279297,0.5423105359077454,0.565198540687561,0.5880866050720215,0.6109746694564819,0.6338626742362976,0.6567506790161133,0.6796387434005737,0.7025268077850342,0.7254148125648499,0.7483028173446655,0.771190881729126,0.7940789461135864,0.8169669508934021],"_type":"histogram"},"parameters/mlp_extractor.value_net.0.bias":{"bins":[-0.1543579399585724,-0.1497100591659546,-0.1450621783733368,-0.1404143124818802,-0.1357664316892624,-0.1311185508966446,-0.126470685005188,-0.12182280421257019,-0.11717492341995239,-0.1125270426273346,-0.1078791692852974,-0.10323129594326019,-0.0985834151506424,-0.0939355343580246,-0.0892876610159874,-0.0846397876739502,-0.0799919068813324,-0.0753440260887146,-0.0706961527466774,-0.0660482794046402,-0.0614003986120224,-0.0567525178194046,-0.0521046444773674,-0.0474567711353302,-0.0428088903427124,-0.038161009550094604,-0.033513136208057404,-0.028865262866020203,-0.024217382073402405,-0.019569501280784607,-0.014921635389328003,-0.010273754596710205,-0.005625858902931213,-0.0009779781103134155,0.0036699026823043823,0.008317768573760986,0.012965649366378784,0.017613530158996582,0.022261403501033783,0.026909276843070984,0.03155715763568878,0.03620503842830658,0.04085291177034378,0.04550078511238098,0.05014866590499878,0.05479654669761658,0.05944442003965378,0.06409229338169098,0.06874017417430878,0.07338805496692657,0.07803592830896378,0.08268380165100098,0.08733168244361877,0.09197956323623657,0.09662743657827377,0.10127530992031097,0.10592319071292877,0.11057107150554657,0.11521894484758377,0.11986681818962097,0.12451469898223877,0.12916257977485657,0.13381046056747437,0.13845832645893097,0.14310620725154877],"_type":"histogram","values":[1,0,2,1,0,2,2,2,2,3,1,0,5,1,0,3,1,0,1,0,0,1,0,1,0,0,0,2,0,1,0,0,1,1,0,1,0,2,2,0,0,0,3,0,0,1,1,3,1,1,3,1,3,2,1,1,0,0,0,1,2,0,0,1]},"gradients/mlp_extractor.value_net.2.weight":{"_type":"histogram","values":[1,1,5,3,6,6,10,6,8,13,12,12,19,28,34,24,36,42,24,39,41,68,78,83,114,143,145,157,163,160,230,279,123,272,236,167,144,162,131,138,142,85,55,57,54,50,37,35,36,34,27,17,20,15,13,7,9,8,10,7,6,5,2,2],"bins":[-1.5213488340377808,-1.4745447635650635,-1.4277408123016357,-1.3809367418289185,-1.3341326713562012,-1.2873287200927734,-1.2405246496200562,-1.1937205791473389,-1.1469166278839111,-1.1001125574111938,-1.0533084869384766,-1.0065045356750488,-0.9597004652023315,-0.9128963947296143,-0.8660923838615417,-0.8192883133888245,-0.772484302520752,-0.7256802916526794,-0.6788762211799622,-0.6320722103118896,-0.5852681398391724,-0.5384641289710999,-0.49166011810302734,-0.44485604763031006,-0.3980520963668823,-0.35124802589416504,-0.30444395542144775,-0.25763988494873047,-0.21083593368530273,-0.16403186321258545,-0.11722779273986816,-0.07042384147644043,-0.023619771003723145,0.02318429946899414,0.06998825073242188,0.11679232120513916,0.16359639167785645,0.21040034294128418,0.25720441341400146,0.30400848388671875,0.35081255435943604,0.39761650562286377,0.44442057609558105,0.49122458696365356,0.5380285978317261,0.5848326683044434,0.6316366791725159,0.6784407496452332,0.7252447605133057,0.7720487713813782,0.8188528418540955,0.865656852722168,0.9124609231948853,0.9592649340629578,1.0060689449310303,1.0528730154037476,1.0996770858764648,1.1464810371398926,1.1932851076126099,1.2400891780853271,1.2868931293487549,1.3336971998214722,1.3805012702941895,1.4273052215576172,1.4741092920303345]},"parameters/mlp_extractor.policy_net.0.bias":{"bins":[-0.00010356580605730414,-0.00010032017598859966,-9.707454591989517e-05,-9.382891585119069e-05,-9.058327850652859e-05,-8.73376484378241e-05,-8.409201836911961e-05,-8.084638830041513e-05,-7.760075823171064e-05,-7.435512088704854e-05,-7.110949081834406e-05,-6.786386074963957e-05,-6.461823068093508e-05,-6.13726006122306e-05,-5.812697054352611e-05,-5.488133683684282e-05,-5.1635706768138334e-05,-4.839007669943385e-05,-4.5144442992750555e-05,-4.189881292404607e-05,-3.8653182855341583e-05,-3.54075527866371e-05,-3.216192271793261e-05,-2.891628537327051e-05,-2.5670655304566026e-05,-2.242502523586154e-05,-1.9179395167157054e-05,-1.5933765098452568e-05,-1.2688135029748082e-05,-9.442497685085982e-06,-6.196867616381496e-06,-2.9512375476770103e-06,2.943925210274756e-07,3.5400225897319615e-06,6.785652658436447e-06,1.0031282727140933e-05,1.3276920071803033e-05,1.652255014050752e-05,1.9768180209212005e-05,2.301381027791649e-05,2.6259440346620977e-05,2.9505070415325463e-05,3.275070775998756e-05,3.599633782869205e-05,3.9241967897396535e-05,4.248759796610102e-05,4.5733228034805506e-05,4.89788617414888e-05,5.2224491810193285e-05,5.547012187889777e-05,5.8715755585581064e-05,6.196138565428555e-05,6.520701572299004e-05,6.845264579169452e-05,7.169827586039901e-05,7.49439059291035e-05,7.81895432737656e-05,8.143517334247008e-05,8.468080341117457e-05,8.792643347987905e-05,9.117206354858354e-05,9.441770089324564e-05,9.766333096195012e-05,0.00010090896103065461,0.0001041545910993591],"_type":"histogram","values":[1,0,0,0,0,0,1,0,1,1,0,1,0,1,0,2,1,0,1,1,0,1,1,1,4,2,2,1,2,0,0,2,4,0,0,1,6,2,1,1,0,4,4,0,4,1,0,0,0,1,2,1,1,1,1,0,0,0,0,0,0,0,0,2]},"_timestamp":1.7477323989145424e+09,"gradients/mlp_extractor.value_net.0.weight":{"values":[2,0,0,0,2,0,0,0,0,3,0,3,3,2,3,2,3,3,2,8,5,6,7,6,24,15,25,21,30,40,71,28,19,41,22,19,7,4,5,5,12,6,9,5,2,10,5,6,5,2,2,1,0,5,2,0,0,2,0,0,0,0,0,2],"bins":[-5.579794883728027,-5.396188735961914,-5.212582588195801,-5.0289764404296875,-4.845369815826416,-4.661763668060303,-4.4781575202941895,-4.294551372528076,-4.110945224761963,-3.9273388385772705,-3.7437326908111572,-3.560126543045044,-3.3765201568603516,-3.1929140090942383,-3.009307861328125,-2.8257014751434326,-2.6420953273773193,-2.458489179611206,-2.2748827934265137,-2.0912766456604004,-1.907670497894287,-1.7240641117095947,-1.5404582023620605,-1.356851577758789,-1.1732454299926758,-0.9896392822265625,-0.8060331344604492,-0.6224269866943359,-0.43882083892822266,-0.25521421432495117,-0.07160806655883789,0.11199808120727539,0.29560422897338867,0.47921037673950195,0.6628165245056152,0.8464226722717285,1.030029296875,1.2136354446411133,1.3972415924072266,1.5808477401733398,1.7644538879394531,1.9480600357055664,2.131666660308838,2.315272569656372,2.4988789558410645,2.6824851036071777,2.866091251373291,3.0496976375579834,3.2333037853240967,3.41690993309021,3.6005163192749023,3.7841224670410156,3.967728614807129,4.151334762573242,4.3349409103393555,4.518547058105469,4.70215368270874,4.8857598304748535,5.069365978240967,5.25297212600708,5.436578273773193,5.620184898376465,5.803791046142578,5.987397193908691,6.171003341674805],"_type":"histogram"},"net_profit":8.642897390371947e+06,"battery_capacity":8054.882909155831,"parameters/value_net.bias":{"bins":[0.3549066483974457,0.3549066483974457],"_type":"histogram","values":[1]},"gradients/action_net.bias":{"bins":[-0.1426829844713211,-0.14100711047649384,-0.13933122158050537,-0.1376553475856781,-0.13597945868968964,-0.13430358469486237,-0.1326276957988739,-0.13095182180404663,-0.12927593290805817,-0.1276000589132309,-0.12592417001724243,-0.12424829602241516,-0.1225724071264267,-0.12089653313159943,-0.11922065168619156,-0.11754477024078369,-0.11586888879537582,-0.11419300734996796,-0.11251712590456009,-0.11084124445915222,-0.10916536301374435,-0.10748948156833649,-0.10581360012292862,-0.10413771867752075,-0.10246183723211288,-0.10078595578670502,-0.09911007434129715,-0.09743419289588928,-0.09575831890106201,-0.09408243000507355,-0.09240655601024628,-0.09073066711425781,-0.08905479311943054,-0.08737890422344208,-0.08570303022861481,-0.08402714133262634,-0.08235126733779907,-0.08067537844181061,-0.07899950444698334,-0.07732362300157547,-0.0756477415561676,-0.07397186011075974,-0.07229597866535187,-0.070620097219944,-0.06894421577453613,-0.06726833432912827,-0.0655924528837204,-0.06391657143831253,-0.06224068999290466,-0.060564808547496796,-0.05888892710208893,-0.05721304938197136,-0.05553716793656349,-0.053861286491155624,-0.05218540504574776,-0.05050952360033989,-0.04883364215493202,-0.047157760709524155,-0.045481882989406586,-0.04380600154399872,-0.04213012009859085,-0.04045423865318298,-0.038778357207775116,-0.03710247576236725,-0.03542659431695938],"_type":"histogram","values":[1,0,0,0,0,0,0,0,0,0,0,0,0,0,0,0,0,0,0,0,0,0,0,0,0,0,0,0,0,0,0,0,0,1,0,0,0,0,0,0,0,0,0,0,0,1,0,1,0,0,0,0,0,0,0,0,0,0,0,0,0,0,0,1]},"risk_penalty":0.607895677,"reward":86.42897086424108,"gradients/mlp_extractor.value_net.2.bias":{"bins":[-1.593376874923706,-1.5444183349609375,-1.495459794998169,-1.4465012550354004,-1.3975427150726318,-1.3485841751098633,-1.2996256351470947,-1.2506670951843262,-1.2017085552215576,-1.152750015258789,-1.1037914752960205,-1.054832935333252,-1.0058743953704834,-0.9569158554077148,-0.9079573154449463,-0.8589987754821777,-0.8100402355194092,-0.7610816955566406,-0.7121231555938721,-0.6631646156311035,-0.614206075668335,-0.5652475357055664,-0.5162889957427979,-0.4673304557800293,-0.41837191581726074,-0.3694133758544922,-0.32045483589172363,-0.2714962959289551,-0.22253775596618652,-0.17357921600341797,-0.12462067604064941,-0.07566213607788086,-0.026703596115112305,0.02225494384765625,0.0712134838104248,0.12017202377319336,0.16913056373596191,0.21808910369873047,0.267047643661499,0.3160061836242676,0.36496472358703613,0.4139232635498047,0.46288180351257324,0.5118403434753418,0.5607988834381104,0.6097574234008789,0.6587159633636475,0.707674503326416,0.7566330432891846,0.8055915832519531,0.8545501232147217,0.9035086631774902,0.9524672031402588,1.0014257431030273,1.050384283065796,1.0993428230285645,1.148301362991333,1.1972599029541016,1.2462184429168701,1.2951769828796387,1.3441355228424072,1.3930940628051758,1.4420526027679443,1.491011142730713,1.5399696826934814],"_type":"histogram","values":[1,0,0,0,1,0,0,0,0,0,1,1,2,0,1,2,0,0,1,0,2,2,1,3,2,1,3,0,2,3,2,1,0,4,3,1,2,3,1,0,3,4,1,0,3,1,1,0,0,0,0,0,2,0,0,0,1,0,0,0,1,0,0,1]},"gradients/mlp_extractor.value_net.0.bias":{"_type":"histogram","values":[1,0,0,0,1,0,0,0,0,1,0,1,1,1,1,1,1,0,0,2,1,3,2,2,6,1,3,0,2,0,0,0,1,1,2,4,1,1,1,0,1,1,2,1,1,4,0,3,2,1,1,0,0,2,1,0,0,1,0,0,0,0,0,1],"bins":[-3.719862937927246,-3.597458839416504,-3.4750547409057617,-3.3526506423950195,-3.2302463054656982,-3.107842206954956,-2.985438108444214,-2.8630340099334717,-2.7406299114227295,-2.618225574493408,-2.495821475982666,-2.373417377471924,-2.2510132789611816,-2.1286091804504395,-2.0062050819396973,-1.8838008642196655,-1.7613967657089233,-1.6389925479888916,-1.5165884494781494,-1.3941843509674072,-1.271780252456665,-1.1493761539459229,-1.0269720554351807,-0.9045677185058594,-0.7821636199951172,-0.659759521484375,-0.5373554229736328,-0.4149513244628906,-0.29254722595214844,-0.17014288902282715,-0.04773879051208496,0.07466530799865723,0.19706940650939941,0.3194735050201416,0.4418776035308838,0.564281702041626,0.6866860389709473,0.8090901374816895,0.9314942359924316,1.0538983345031738,1.176302433013916,1.2987065315246582,1.4211108684539795,1.5435149669647217,1.6659190654754639,1.788323163986206,1.9107272624969482,2.0331313610076904,2.1555356979370117,2.277939796447754,2.400343894958496,2.5227479934692383,2.6451520919799805,2.7675561904907227,2.889960289001465,3.012364387512207,3.1347687244415283,3.2571728229522705,3.3795769214630127,3.501981019973755,3.624385118484497,3.7467894554138184,3.8691935539245605,3.9915976524353027,4.114001750946045]},"solar_capacity":2552.8924424540505,"gradients/value_net.weight":{"_type":"histogram","values":[32,0,0,0,0,0,0,0,0,0,0,0,0,0,0,0,0,0,0,0,0,0,0,0,0,0,0,0,0,0,0,0,0,0,0,0,0,0,0,0,0,0,0,0,0,0,0,0,0,0,0,0,0,0,0,0,0,0,0,0,0,0,0,32],"bins":[-1269.4066162109375,-1229.7371826171875,-1190.0677490234375,-1150.3984375,-1110.72900390625,-1071.0595703125,-1031.39013671875,-991.720703125,-952.0513305664062,-912.3819580078125,-872.7125244140625,-833.0430908203125,-793.3736572265625,-753.7042846679688,-714.0348510742188,-674.365478515625,-634.696044921875,-595.026611328125,-555.3572387695312,-515.6878051757812,-476.0184326171875,-436.3489990234375,-396.6795654296875,-357.01019287109375,-317.34075927734375,-277.67132568359375,-238.001953125,-198.33251953125,-158.6630859375,-118.99365234375,-79.3243408203125,-39.6549072265625,0.0145263671875,39.6839599609375,79.3533935546875,119.022705078125,158.692138671875,198.361572265625,238.031005859375,277.70037841796875,317.36981201171875,357.03924560546875,396.7086181640625,436.3780517578125,476.0474853515625,515.7168579101562,555.3862915039062,595.0556640625,634.72509765625,674.39453125,714.0639038085938,753.7333374023438,793.4027099609375,833.0721435546875,872.7415771484375,912.4110107421875,952.0803833007812,991.749755859375,1031.419189453125,1071.088623046875,1110.758056640625,1150.427490234375,1190.0968017578125,1229.7662353515625,1269.4356689453125]},"gradients/action_net.weight":{"bins":[-0.1316104680299759,-0.12745153903961182,-0.12329262495040894,-0.11913370341062546,-0.11497478187084198,-0.1108158603310585,-0.10665693879127502,-0.10249801725149155,-0.09833909571170807,-0.09418017417192459,-0.09002125263214111,-0.08586233109235764,-0.08170340955257416,-0.07754448801279068,-0.0733855664730072,-0.06922664493322372,-0.06506772339344025,-0.06090880185365677,-0.05674988031387329,-0.05259095877408981,-0.048432037234306335,-0.04427311569452286,-0.04011419415473938,-0.0359552726149559,-0.031796351075172424,-0.027637429535388947,-0.02347850799560547,-0.01931958645582199,-0.015160664916038513,-0.011001743376255035,-0.006842821836471558,-0.002683892846107483,0.001475006341934204,0.005633920431137085,0.00979284942150116,0.013951770961284637,0.018110692501068115,0.022269614040851593,0.02642853558063507,0.03058745712041855,0.034746378660202026,0.038905300199985504,0.04306422173976898,0.04722314327955246,0.05138206481933594,0.055540986359119415,0.05969990789890289,0.06385882943868637,0.06801775097846985,0.07217667251825333,0.0763355940580368,0.08049451559782028,0.08465343713760376,0.08881235867738724,0.09297128021717072,0.0971302017569542,0.10128912329673767,0.10544804483652115,0.10960696637630463,0.1137658879160881,0.11792480945587158,0.12208373099565506,0.12624265253543854,0.1304015815258026,0.1345604956150055],"_type":"histogram","values":[1,0,1,1,0,2,0,0,1,1,0,2,3,0,1,7,3,3,5,7,6,5,5,8,14,10,11,8,19,8,17,16,17,11,8,14,16,14,10,12,6,6,4,5,7,4,8,3,0,3,2,0,0,0,1,0,0,1,1,0,0,1,0,1]},"parameters/log_std":{"bins":[-0.01430873665958643,-0.013712276704609394,-0.013115815818309784,-0.012519355863332748,-0.011922895908355713,-0.011326435022056103,-0.010729975067079067,-0.010133514180779457,-0.009537054225802422,-0.008940594270825386,-0.008344133384525776,-0.00774767342954874,-0.0071512130089104176,-0.006554752588272095,-0.005958292633295059,-0.005361831746995449,-0.0047653717920184135,-0.004168911837041378,-0.003572450950741768,-0.0029759909957647324,-0.0023795301094651222,-0.0017830701544880867,-0.0011866101995110512,-0.000590149313211441,6.310641765594482e-06,0.00060277059674263,0.0011992314830422401,0.0017956914380192757,0.002392151392996311,0.0029886113479733467,0.0035850731655955315,0.004181533120572567,0.004777994006872177,0.005374453961849213,0.005970913916826248,0.006567375734448433,0.0071638356894254684,0.007760295644402504,0.00835675559937954,0.00895321648567915,0.009549676440656185,0.01014613639563322,0.01074259728193283,0.011339057236909866,0.011935517191886902,0.012531978078186512,0.013128438033163548,0.013724898919463158,0.014321358874440193,0.014917818829417229,0.015514279715716839,0.01611074060201645,0.016707200556993484,0.01730366051197052,0.017900120466947556,0.01849658042192459,0.019093040376901627,0.01968950219452381,0.020285962149500847,0.020882422104477882,0.021478882059454918,0.022075342014431953,0.022671803832054138,0.023268263787031174,0.02386472374200821],"_type":"histogram","values":[1,0,0,0,0,0,0,0,1,0,0,0,1,0,0,0,0,0,0,0,0,0,0,0,0,0,0,0,0,0,0,0,0,0,0,0,0,0,1,0,0,0,0,0,0,0,0,0,0,0,0,0,0,0,0,0,0,0,0,0,0,0,0,1]},"gradients/mlp_extractor.policy_net.0.weight":{"bins":[-0.006056278012692928,-0.0059084584936499596,-0.0057606385089457035,-0.005612818989902735,-0.005464999005198479,-0.00531717948615551,-0.005169359501451254,-0.005021539982408285,-0.004873719997704029,-0.00472590047866106,-0.004578080959618092,-0.0044302609749138355,-0.004282441455870867,-0.004134621471166611,-0.003986801952123642,-0.0038389822002500296,-0.003691162448376417,-0.0035433426965028048,-0.0033955229446291924,-0.00324770319275558,-0.0030998834408819675,-0.002952063921838999,-0.0028042441699653864,-0.002656424418091774,-0.0025086046662181616,-0.002360784914344549,-0.0022129651624709368,-0.0020651454105973244,-0.0019173258915543556,-0.0017695059068500996,-0.0016216863878071308,-0.0014738664031028748,-0.0013260466512292624,-0.0011782271321862936,-0.0010304071474820375,-0.0008825876284390688,-0.0007347676437348127,-0.000586948124691844,-0.0004391283728182316,-0.0002913086209446192,-0.00014348886907100677,4.330882802605629e-06,0.00015215063467621803,0.00029997038654983044,0.0004477899055927992,0.0005956096574664116,0.000743429409340024,0.0008912491612136364,0.0010390689130872488,0.0011868886649608612,0.0013347084168344736,0.0014825280522927642,0.0016303478041663766,0.001778167556039989,0.0019259871914982796,0.002073806943371892,0.0022216266952455044,0.0023694464471191168,0.002517266198992729,0.002665085718035698,0.002812905702739954,0.0029607252217829227,0.003108544973656535,0.0032563647255301476,0.00340418447740376],"_type":"histogram","values":[2,0,0,1,0,0,0,2,0,0,3,0,0,2,1,0,1,1,2,1,3,2,0,1,4,0,3,7,0,6,7,8,8,14,9,10,10,15,36,34,105,37,32,24,18,17,19,11,9,6,11,5,6,2,0,2,3,0,5,4,1,0,0,2]},"parameters/mlp_extractor.policy_net.2.bias":{"_type":"histogram","values":[1,0,1,0,0,1,0,0,0,0,0,1,0,0,1,1,0,1,0,1,1,1,2,2,1,2,3,6,2,5,5,2,1,4,2,3,1,1,2,0,0,2,1,0,0,2,1,0,0,0,0,0,0,0,0,0,0,0,1,0,0,1,1,1],"bins":[-7.585604180349037e-05,-7.31902036932297e-05,-7.052437285892665e-05,-6.785853474866599e-05,-6.519270391436294e-05,-6.252686580410227e-05,-5.986103496979922e-05,-5.7195196859538555e-05,-5.4529366025235504e-05,-5.186352791497484e-05,-4.919769708067179e-05,-4.653185897041112e-05,-4.3866024498129264e-05,-4.1200190025847405e-05,-3.853435555356555e-05,-3.586852108128369e-05,-3.320268660900183e-05,-3.053685213671997e-05,-2.7871017664438114e-05,-2.5205183192156255e-05,-2.2539348719874397e-05,-1.987351424759254e-05,-1.720767977531068e-05,-1.4541845303028822e-05,-1.1876007192768157e-05,-9.210176358465105e-06,-6.54433824820444e-06,-3.878507413901389e-06,-1.2126693036407232e-06,1.453161530662328e-06,4.118999640922993e-06,6.784830475226045e-06,9.45066858548671e-06,1.2116506695747375e-05,1.4782337530050427e-05,1.7448175640311092e-05,2.0114006474614143e-05,2.277984458487481e-05,2.544567541917786e-05,2.8111513529438525e-05,3.077734436374158e-05,3.344318247400224e-05,3.61090169462841e-05,3.877485141856596e-05,4.144068589084782e-05,4.4106520363129675e-05,4.6772354835411534e-05,4.943818930769339e-05,5.210402377997525e-05,5.476985825225711e-05,5.743569272453897e-05,6.0101527196820825e-05,6.276735803112388e-05,6.543319614138454e-05,6.809903425164521e-05,7.076486508594826e-05,7.343070319620892e-05,7.609653403051198e-05,7.876237214077264e-05,8.142820297507569e-05,8.409404108533636e-05,8.675987191963941e-05,8.942571002990007e-05,9.209154086420313e-05,9.475737897446379e-05]}}