{"parameters/mlp_extractor.policy_net.2.weight":{"values":[1,0,0,0,0,1,2,1,1,6,3,4,5,15,13,14,23,26,38,40,77,65,82,92,119,137,127,151,145,160,184,186,205,205,182,175,221,151,156,154,136,140,103,97,95,79,61,47,41,34,24,16,14,13,9,12,3,3,1,0,0,0,0,1],"bins":[-0.7164605855941772,-0.6952580809593201,-0.6740556359291077,-0.6528531312942505,-0.6316506266593933,-0.6104481816291809,-0.5892456769943237,-0.5680432319641113,-0.5468407273292542,-0.525638222694397,-0.5044357776641846,-0.4832332730293274,-0.4620307683944702,-0.4408282935619354,-0.41962581872940063,-0.39842331409454346,-0.37722083926200867,-0.3560183644294739,-0.3348158597946167,-0.3136133849620819,-0.2924109101295471,-0.27120840549468994,-0.25000593066215515,-0.22880345582962036,-0.20760095119476318,-0.18639850616455078,-0.1651960015296936,-0.14399349689483643,-0.12279105186462402,-0.10158854722976685,-0.08038604259490967,-0.059183597564697266,-0.03798109292984009,-0.01677858829498291,0.004423856735229492,0.02562636137008667,0.04682886600494385,0.06803131103515625,0.08923381567001343,0.1104363203048706,0.131638765335083,0.15284126996994019,0.17404374480247498,0.19524621963500977,0.21644872426986694,0.23765119910240173,0.2588536739349365,0.2800561785697937,0.3012586534023285,0.3224611282348633,0.34366363286972046,0.36486610770225525,0.38606858253479004,0.4072710871696472,0.428473562002182,0.4496760368347168,0.470878541469574,0.49208101630210876,0.5132834911346436,0.5344859957695007,0.5556884407997131,0.5768909454345703,0.5980934500694275,0.6192958950996399,0.6404983997344971],"_type":"histogram"},"parameters/mlp_extractor.value_net.2.bias":{"bins":[-0.12876830995082855,-0.1252826303243637,-0.12179694324731827,-0.11831125617027283,-0.11482557654380798,-0.11133988946676254,-0.1078542098402977,-0.10436852276325226,-0.10088284313678741,-0.09739715605974197,-0.09391146898269653,-0.09042578935623169,-0.08694010972976685,-0.0834544226527214,-0.07996873557567596,-0.07648305594921112,-0.07299737632274628,-0.06951168924570084,-0.0660260021686554,-0.06254032254219055,-0.05905463546514511,-0.05556895583868027,-0.05208326876163483,-0.04859758913516998,-0.04511190205812454,-0.0416262224316597,-0.03814053535461426,-0.034654855728149414,-0.031169168651103973,-0.02768348902463913,-0.02419780194759369,-0.020712122321128845,-0.017226435244083405,-0.013740748167037964,-0.01025506854057312,-0.0067693814635276794,-0.0032837018370628357,0.00020198523998260498,0.0036876648664474487,0.007173351943492889,0.010659031569957733,0.014144718647003174,0.017630398273468018,0.021116085350513458,0.024601764976978302,0.028087452054023743,0.031573131680488586,0.03505881875753403,0.03854450210928917,0.04203018546104431,0.045515868812799454,0.049001552164554596,0.05248723551630974,0.05597291886806488,0.05945860221982002,0.06294428557157516,0.0664299726486206,0.06991565227508545,0.07340133935213089,0.07688701897859573,0.08037270605564117,0.08385838568210602,0.08734407275915146,0.0908297523856163,0.09431543946266174],"_type":"histogram","values":[1,0,0,1,0,0,0,0,0,1,0,1,2,1,2,1,3,3,0,2,3,3,1,3,1,0,1,1,0,0,0,0,0,0,0,0,0,0,0,0,0,0,0,0,0,0,0,0,0,2,4,3,3,3,5,1,0,4,3,0,1,0,2,2]},"cumulative_reward":832207.2930846072,"_timestamp":1.748641485445344e+09,"gradients/mlp_extractor.value_net.0.bias":{"_type":"histogram","values":[1,0,0,0,0,1,0,1,1,1,0,1,1,0,0,1,1,0,1,2,1,3,3,3,2,1,3,5,5,7,1,4,1,2,0,1,0,1,1,0,1,0,0,0,0,0,1,0,0,0,1,0,0,0,1,0,0,1,0,1,0,0,1,1],"bins":[-0.488180547952652,-0.47105658054351807,-0.45393258333206177,-0.43680861592292786,-0.41968461871147156,-0.40256065130233765,-0.38543665409088135,-0.36831268668174744,-0.3511887192726135,-0.3340647220611572,-0.3169407248497009,-0.299816757440567,-0.2826927900314331,-0.2655687928199768,-0.2484448254108429,-0.2313208281993866,-0.21419686079025269,-0.19707289338111877,-0.17994889616966248,-0.16282492876052856,-0.14570093154907227,-0.12857696413993835,-0.11145296692848206,-0.09432899951934814,-0.07720503211021423,-0.060081034898757935,-0.04295706748962402,-0.025833070278167725,-0.008709102869033813,0.008414894342422485,0.025538891553878784,0.04266282916069031,0.059786856174468994,0.07691085338592529,0.09403479099273682,0.11115878820419312,0.12828278541564941,0.14540675282478333,0.16253075003623962,0.17965471744537354,0.19677871465682983,0.21390268206596375,0.23102664947509766,0.24815064668655396,0.26527461409568787,0.28239861130714417,0.2995225787162781,0.3166465759277344,0.3337705433368683,0.3508945107460022,0.3680185079574585,0.3851425051689148,0.4022664725780487,0.4193904399871826,0.4365144371986389,0.4536384046077728,0.47076237201690674,0.48788636922836304,0.5050103664398193,0.5221343040466309,0.5392583012580872,0.5563822984695435,0.5735062956809998,0.5906302332878113,0.6077542304992676]},"net_profit":7.644599971591268e+06,"_runtime":794.8910469,"parameters/mlp_extractor.value_net.0.weight":{"_type":"histogram","values":[1,0,0,3,2,4,2,4,5,5,3,14,10,8,11,12,18,14,17,21,21,22,18,27,19,29,37,35,24,27,38,34,25,31,17,29,29,20,27,16,19,18,19,9,14,15,9,7,7,10,4,4,4,5,3,1,0,2,1,1,0,0,0,1],"bins":[-0.5041766166687012,-0.4873011112213135,-0.4704256057739258,-0.4535500705242157,-0.436674565076828,-0.4197990596294403,-0.4029235243797302,-0.38604801893234253,-0.36917251348495483,-0.35229700803756714,-0.33542150259017944,-0.31854596734046936,-0.30167046189308167,-0.28479495644569397,-0.2679194211959839,-0.2510439157485962,-0.2341684103012085,-0.2172929048538208,-0.2004173994064331,-0.18354186415672302,-0.16666635870933533,-0.14979085326194763,-0.13291531801223755,-0.11603981256484985,-0.09916430711746216,-0.08228880167007446,-0.06541329622268677,-0.048537760972976685,-0.03166225552558899,-0.014786750078201294,0.002088785171508789,0.018964290618896484,0.03583979606628418,0.052715301513671875,0.06959080696105957,0.08646634221076965,0.10334184765815735,0.12021735310554504,0.13709288835525513,0.15396839380264282,0.17084389925003052,0.1877194046974182,0.2045949101448059,0.221470445394516,0.2383459508419037,0.2552214562892914,0.27209699153900146,0.28897249698638916,0.30584800243377686,0.32272350788116455,0.33959901332855225,0.35647454857826233,0.37335005402565,0.3902255594730377,0.4071010947227478,0.4239766001701355,0.4408521056175232,0.4577276110649109,0.4746031165122986,0.49147865176200867,0.5083541870117188,0.5252296924591064,0.5421051979064941,0.5589807033538818,0.5758562088012695]},"parameters/action_net.bias":{"values":[1,1,0,0,0,0,0,0,0,0,0,0,0,0,0,0,0,0,0,1,0,0,0,0,0,0,0,0,0,0,0,0,0,0,0,0,0,0,0,0,0,1,0,0,0,0,0,0,0,0,0,0,0,0,0,0,0,0,0,0,0,0,0,1],"bins":[-0.002023480599746108,-0.001920388895086944,-0.0018172971904277802,-0.0017142053693532944,-0.0016111137811094522,-0.0015080219600349665,-0.0014049302553758025,-0.0013018385507166386,-0.0011987468460574746,-0.0010956551413983107,-0.0009925634367391467,-0.0008894717320799828,-0.000786379911005497,-0.000683288206346333,-0.0005801965016871691,-0.0004771047970280051,-0.00037401309236884117,-0.0002709213877096772,-0.00016782968305051327,-6.473786197602749e-05,3.8353726267814636e-05,0.00014144554734230042,0.00024453713558614254,0.0003476289566606283,0.0004507207777351141,0.0005538123659789562,0.000656904187053442,0.0007599957752972841,0.0008630875963717699,0.000966179184615612,0.0010692710056900978,0.00117236259393394,0.001275454182177782,0.0013785460032522678,0.00148163759149611,0.0015847294125705957,0.0016878210008144379,0.0017909128218889236,0.0018940044101327658,0.0019970962312072515,0.0021001878194510937,0.0022032796405255795,0.0023063714616000652,0.0024094630498439074,0.002512554870918393,0.0026156464591622353,0.002718738280236721,0.002821830101311207,0.002924921689555049,0.003028013277798891,0.003131105098873377,0.0032341969199478626,0.0033372885081917048,0.0034403803292661905,0.0035434719175100327,0.0036465637385845184,0.003749655559659004,0.0038527471479028463,0.0039558387361466885,0.004058930557221174,0.00416202237829566,0.004265114199370146,0.004368205554783344,0.00447129737585783,0.004574389196932316],"_type":"histogram"},"revenue":7.644736309658703e+06,"gradients/mlp_extractor.value_net.2.weight":{"bins":[-1.037406086921692,-1.0049879550933838,-0.9725697040557861,-0.9401515126228333,-0.9077333211898804,-0.8753151297569275,-0.8428969383239746,-0.8104787468910217,-0.7780605554580688,-0.745642364025116,-0.7132241725921631,-0.6808059811592102,-0.6483877897262573,-0.6159695982933044,-0.5835514068603516,-0.5511332154273987,-0.5187150239944458,-0.4862968325614929,-0.45387864112854004,-0.42146044969558716,-0.3890422582626343,-0.3566240668296814,-0.3242058753967285,-0.29178768396377563,-0.25936949253082275,-0.22695130109786987,-0.194533109664917,-0.1621149182319641,-0.12969672679901123,-0.09727853536605835,-0.06486034393310547,-0.03244221210479736,-2.396106719970703e-05,0.03239428997039795,0.06481242179870605,0.09723061323165894,0.12964880466461182,0.1620669960975647,0.19448518753051758,0.22690337896347046,0.25932157039642334,0.2917397618293762,0.3241579532623291,0.356576144695282,0.38899433612823486,0.42141252756118774,0.4538307189941406,0.4862489104270935,0.5186671018600464,0.5510852932929993,0.5835034847259521,0.615921676158905,0.6483398675918579,0.6807580590248108,0.7131762504577637,0.7455944418907166,0.7780126333236694,0.8104308247566223,0.8428490161895752,0.8752672076225281,0.907685399055481,0.9401035904884338,0.9725217819213867,1.0049400329589844,1.0373581647872925],"_type":"histogram","values":[16,2,6,15,13,5,0,18,3,14,41,25,51,50,24,28,20,73,87,117,59,66,83,151,119,108,173,127,74,136,196,157,139,151,161,84,154,185,122,162,139,70,62,67,91,69,61,12,25,20,52,46,29,31,19,12,18,5,2,3,16,2,9,21]},"wind_capacity":1545.2416643596675,"battery_energy":8331.30364085241,"gradients/value_net.bias":{"_type":"histogram","values":[1],"bins":[-1288.5472412109375,-1288.5472412109375]},"step":10239,"parameters/mlp_extractor.policy_net.0.bias":{"bins":[-0.00010773235408123583,-0.00010467739775776863,-0.00010162244143430144,-9.856748511083424e-05,-9.551252878736705e-05,-9.245757246389985e-05,-8.940261614043266e-05,-8.634765981696546e-05,-8.329270349349827e-05,-8.023774717003107e-05,-7.718279084656388e-05,-7.412783452309668e-05,-7.107287819962949e-05,-6.801792187616229e-05,-6.49629655526951e-05,-6.19080092292279e-05,-5.8853052905760705e-05,-5.579809658229351e-05,-5.2743140258826315e-05,-4.968818393535912e-05,-4.6633227611891925e-05,-4.357827128842473e-05,-4.0523314964957535e-05,-3.746835864149034e-05,-3.4413402318023145e-05,-3.135844599455595e-05,-2.8303489671088755e-05,-2.524853334762156e-05,-2.2193577024154365e-05,-1.913862070068717e-05,-1.6083664377219975e-05,-1.302870805375278e-05,-9.973751730285585e-06,-6.91879540681839e-06,-3.863839083351195e-06,-8.088827598839998e-07,2.246073563583195e-06,5.30102988705039e-06,8.355986210517585e-06,1.141094253398478e-05,1.4465898857451975e-05,1.752085518091917e-05,2.0575811504386365e-05,2.363076782785356e-05,2.6685724151320755e-05,2.974068047478795e-05,3.2795636798255146e-05,3.585059312172234e-05,3.8905549445189536e-05,4.196050576865673e-05,4.5015462092123926e-05,4.807041841559112e-05,5.1125374739058316e-05,5.418033106252551e-05,5.7235287385992706e-05,6.02902437094599e-05,6.33452000329271e-05,6.640015635639429e-05,6.945511267986149e-05,7.251006900332868e-05,7.556502532679588e-05,7.861998165026307e-05,8.167493797373027e-05,8.472989429719746e-05,8.778485062066466e-05],"_type":"histogram","values":[1,0,0,0,0,0,0,0,0,0,0,0,0,0,0,0,0,0,1,0,1,2,0,0,0,1,1,0,3,2,2,6,4,3,9,8,3,2,3,1,0,1,1,0,4,1,0,0,0,0,0,0,2,0,0,1,0,0,0,0,0,0,0,1]},"battery_capacity":8331.30364085241,"gradients/action_net.weight":{"_type":"histogram","values":[4,3,3,2,0,2,5,0,1,1,2,4,8,4,6,11,3,12,9,15,11,15,3,5,6,3,12,8,5,7,12,10,4,6,5,4,6,8,11,8,10,9,8,12,5,5,4,1,6,2,0,2,2,3,0,0,0,1,2,2,0,1,0,1],"bins":[-0.10282693803310394,-0.09946536272764206,-0.09610379487276077,-0.09274221956729889,-0.089380644261837,-0.08601906895637512,-0.08265750110149384,-0.07929592579603195,-0.07593435049057007,-0.07257278263568878,-0.0692112073302269,-0.06584963202476501,-0.06248806044459343,-0.059126485139131546,-0.05576491355895996,-0.05240333825349808,-0.04904176667332649,-0.04568019509315491,-0.042318619787693024,-0.03895704448223114,-0.035595476627349854,-0.03223390132188797,-0.028872326016426086,-0.025510750710964203,-0.022149182856082916,-0.018787607550621033,-0.01542603224515915,-0.012064464390277863,-0.008702889084815979,-0.0053413137793540955,-0.001979738473892212,0.0013818293809890747,0.004743404686450958,0.008104979991912842,0.011466547846794128,0.014828123152256012,0.018189698457717896,0.02155127376317978,0.024912841618061066,0.02827441692352295,0.03163599222898483,0.03499756008386612,0.038359135389328,0.041720710694789886,0.04508228600025177,0.04844385385513306,0.05180542916059494,0.055167004466056824,0.05852857604622841,0.061890147626399994,0.06525172293186188,0.06861329078674316,0.07197487354278564,0.07533644139766693,0.07869801670312881,0.0820595920085907,0.08542115986347198,0.08878273516893387,0.09214431047439575,0.09550587832927704,0.09886745363473892,0.1022290289402008,0.10559060424566269,0.10895217210054398,0.11231374740600586]},"_step":10251,"gradients/mlp_extractor.policy_net.0.bias":{"bins":[-0.0015050913207232952,-0.0014498388627544045,-0.0013945865212008357,-0.001339334063231945,-0.0012840816052630544,-0.0012288291472941637,-0.0011735768057405949,-0.0011183243477717042,-0.0010630718898028135,-0.0010078195482492447,-0.000952567090280354,-0.0008973146905191243,-0.0008420622907578945,-0.0007868098327890038,-0.0007315574330277741,-0.0006763049750588834,-0.0006210525752976537,-0.0005658001755364239,-0.0005105477757751942,-0.0004552953178063035,-0.00040004285983741283,-0.000344790518283844,-0.00028953806031495333,-0.00023428560234606266,-0.00017903326079249382,-0.00012378080282360315,-6.852834485471249e-05,-1.327588688582182e-05,4.197645466774702e-05,9.722891263663769e-05,0.00015248137060552835,0.0002077337121590972,0.00026298617012798786,0.00031823862809687853,0.00037349096965044737,0.00042874342761933804,0.0004839958855882287,0.0005392482271417975,0.0005945006851106882,0.0006497531430795789,0.0007050056010484695,0.0007602579426020384,0.000815510400570929,0.0008707628585398197,0.0009260152000933886,0.0009812676580622792,0.0010365201160311699,0.0010917724575847387,0.0011470249155536294,0.00120227737352252,0.001257529715076089,0.0013127821730449796,0.0013680346310138702,0.001423286972567439,0.0014785394305363297,0.0015337918885052204,0.0015890442300587893,0.00164429668802768,0.0016995491459965706,0.0017548014875501394,0.00181005394551903,0.0018653064034879208,0.0019205588614568114,0.001975811319425702,0.002031063660979271],"_type":"histogram","values":[1,0,0,0,0,0,1,0,1,0,0,0,2,1,0,0,0,2,2,1,0,0,1,2,1,5,8,16,5,4,5,0,1,0,1,0,0,0,1,1,0,0,0,1,0,0,0,0,0,0,0,0,0,0,0,0,0,0,0,0,0,0,0,1]},"_wandb":{"runtime":794},"gradients/log_std":{"_type":"histogram","values":[1,0,0,0,0,0,0,0,0,0,0,0,0,0,0,0,0,0,0,0,0,0,0,0,0,0,0,0,0,0,0,0,0,0,0,0,0,0,0,0,2,0,0,0,0,1,0,0,0,0,0,0,0,0,0,0,0,0,0,0,0,0,0,1],"bins":[-0.3442464768886566,-0.3354693353176117,-0.3266921937465668,-0.31791505217552185,-0.30913791060447693,-0.300360769033432,-0.2915836274623871,-0.28280648589134216,-0.27402934432029724,-0.2652522027492523,-0.2564750611782074,-0.24769791960716248,-0.23892076313495636,-0.23014362156391144,-0.22136647999286652,-0.2125893384218216,-0.20381219685077667,-0.19503505527973175,-0.18625791370868683,-0.1774807721376419,-0.16870363056659698,-0.15992648899555206,-0.15114934742450714,-0.14237220585346222,-0.1335950493812561,-0.12481790781021118,-0.11604076623916626,-0.10726362466812134,-0.09848648309707642,-0.0897093415260315,-0.08093219995498657,-0.07215505838394165,-0.06337793171405792,-0.054600790143013,-0.04582364857196808,-0.03704650700092316,-0.028269365429878235,-0.019492223858833313,-0.010715082287788391,-0.0019379407167434692,0.006839200854301453,0.015616357326507568,0.02439349889755249,0.03317064046859741,0.041947782039642334,0.050724923610687256,0.05950206518173218,0.0682792067527771,0.07705634832382202,0.08583348989486694,0.09461063146591187,0.10338777303695679,0.11216491460800171,0.12094206362962723,0.12971919775009155,0.13849633932113647,0.1472734808921814,0.15605062246322632,0.16482776403427124,0.17360492050647736,0.18238206207752228,0.1911592036485672,0.19993634521961212,0.20871348679065704,0.21749062836170197]},"parameters/value_net.bias":{"bins":[0.37732088565826416,0.37732088565826416],"_type":"histogram","values":[1]},"parameters/action_net.weight":{"_type":"histogram","values":[2,0,0,0,0,1,0,0,0,3,3,3,10,1,5,5,9,9,14,20,20,13,16,22,23,12,20,16,14,20,13,4,7,5,8,1,7,2,1,0,2,0,1,1,2,2,0,1,0,0,0,0,0,0,0,0,0,0,1,0,0,0,0,1],"bins":[-0.009128783829510212,-0.008741669356822968,-0.008354555815458298,-0.007967442274093628,-0.0075803278014063835,-0.007193213794380426,-0.006806099787354469,-0.006418985780328512,-0.006031871773302555,-0.005644757766276598,-0.005257643759250641,-0.004870529752224684,-0.004483415745198727,-0.0040963017381727695,-0.0037091877311468124,-0.0033220737241208553,-0.0029349597170948982,-0.002547845710068941,-0.002160731703042984,-0.001773617696017027,-0.0013865036889910698,-0.0009993901476264,-0.0006122756749391556,-0.00022516120225191116,0.00016195233911275864,0.0005490658804774284,0.0009361803531646729,0.0013232948258519173,0.001710408367216587,0.002097521908581257,0.0024846363812685013,0.0028717508539557457,0.00325886532664299,0.00364597886800766,0.004033093340694904,0.004420207813382149,0.0048073213547468185,0.005194434896111488,0.005581549368798733,0.005968663841485977,0.006355777382850647,0.006742890924215317,0.007130005396902561,0.007517119869589806,0.007904233410954475,0.008291346952319145,0.00867846142500639,0.009065575897693634,0.009452689439058304,0.009839802980422974,0.010226917453110218,0.010614031925797462,0.011001145467162132,0.011388259008526802,0.011775373481214046,0.012162487953901291,0.01254960149526596,0.01293671503663063,0.013323829509317875,0.01371094398200512,0.014098057523369789,0.014485171064734459,0.014872285537421703,0.015259400010108948,0.015646513551473618]},"reward":76.4459968604918,"parameters/log_std":{"bins":[-0.007900850847363472,-0.00744089437648654,-0.006980938371270895,-0.006520981900393963,-0.006061025895178318,-0.005601069424301386,-0.005141112953424454,-0.004681156948208809,-0.004221200942993164,-0.003761244472116232,-0.0033012880012392998,-0.002841331996023655,-0.002381375525146723,-0.001921419519931078,-0.0014614630490541458,-0.001001507043838501,-0.0005415505729615688,-8.159410208463669e-05,0.00037836190313100815,0.000838317908346653,0.0012982748448848724,0.0017582308501005173,0.002218186855316162,0.002678142860531807,0.0031380997970700264,0.0035980558022856712,0.004058011807501316,0.0045179687440395355,0.00497792474925518,0.005437880754470825,0.00589783675968647,0.0063577936962246895,0.006817749701440334,0.007277705706655979,0.007737662643194199,0.008197618648409843,0.008657574653625488,0.009117530658841133,0.009577487595379353,0.010037443600594997,0.010497399605810642,0.010957356542348862,0.011417312547564507,0.011877268552780151,0.012337224557995796,0.012797181494534016,0.01325713749974966,0.013717093504965305,0.014177050441503525,0.01463700644671917,0.015096962451934814,0.01555691845715046,0.016016874462366104,0.016476832330226898,0.016936786472797394,0.017396744340658188,0.017856700345873833,0.018316656351089478,0.018776612356305122,0.019236568361520767,0.019696524366736412,0.020156482234597206,0.02061643823981285,0.021076394245028496,0.02153635025024414],"_type":"histogram","values":[1,0,0,0,0,0,0,0,0,0,1,0,0,0,0,0,0,0,0,0,0,0,0,0,0,0,0,0,0,0,0,0,0,0,0,0,0,1,0,0,0,0,0,0,0,0,0,0,0,0,0,0,1,0,0,0,0,0,0,0,0,0,0,1]},"parameters/mlp_extractor.policy_net.0.weight":{"_type":"histogram","values":[1,0,0,0,1,1,2,1,3,3,2,4,9,8,5,11,7,8,10,18,16,15,14,17,28,21,25,22,28,24,34,36,37,25,29,31,36,32,30,20,31,21,19,26,16,23,13,9,11,8,5,4,3,5,5,1,6,1,4,0,1,1,2,3],"bins":[-0.559724748134613,-0.5430151224136353,-0.5263054370880127,-0.5095958113670349,-0.49288618564605713,-0.47617653012275696,-0.4594668745994568,-0.442757248878479,-0.4260476231575012,-0.40933796763420105,-0.3926283121109009,-0.3759186863899231,-0.3592090308666229,-0.34249937534332275,-0.32578974962234497,-0.3090801239013672,-0.292370468378067,-0.27566081285476685,-0.25895118713378906,-0.2422415316104889,-0.2255319058895111,-0.20882225036621094,-0.19211262464523315,-0.17540296912193298,-0.1586933135986328,-0.14198368787765503,-0.12527403235435486,-0.10856440663337708,-0.0918547511100769,-0.07514512538909912,-0.05843549966812134,-0.04172581434249878,-0.025016188621520996,-0.008306562900543213,0.008403122425079346,0.02511274814605713,0.04182237386703491,0.05853202939033508,0.07524165511131287,0.09195131063461304,0.10866093635559082,0.125370591878891,0.14208024740219116,0.15878987312316895,0.17549952864646912,0.1922091543674469,0.20891880989074707,0.22562843561172485,0.24233809113502502,0.2590477466583252,0.275757372379303,0.29246699810028076,0.30917665362358093,0.3258863091468811,0.3425959348678589,0.35930559039115906,0.37601524591445923,0.392724871635437,0.4094344973564148,0.42614415287971497,0.44285380840301514,0.4595634341239929,0.4762730896472931,0.4929827153682709,0.509692370891571]},"parameters/mlp_extractor.value_net.2.weight":{"values":[1,0,0,1,0,2,1,3,1,4,6,12,12,15,20,18,38,35,44,64,65,66,82,100,113,115,131,155,166,153,158,162,191,172,181,160,146,175,168,159,127,127,118,114,95,80,68,60,42,34,39,20,12,14,13,9,10,7,8,2,1,0,0,1],"bins":[-0.712503969669342,-0.6913464069366455,-0.6701887845993042,-0.6490312218666077,-0.6278736591339111,-0.6067160964012146,-0.5855585336685181,-0.5644009113311768,-0.5432433485984802,-0.5220857858657837,-0.5009281635284424,-0.47977060079574585,-0.4586130380630493,-0.4374554753303528,-0.41629788279533386,-0.39514029026031494,-0.3739827275276184,-0.3528251647949219,-0.33166757225990295,-0.31050997972488403,-0.2893524169921875,-0.26819485425949097,-0.24703726172447205,-0.22587966918945312,-0.2047221064567566,-0.18356454372406006,-0.16240698099136353,-0.14124935865402222,-0.12009179592132568,-0.09893423318862915,-0.07777661085128784,-0.05661904811859131,-0.03546154499053955,-0.014303982257843018,0.006853580474853516,0.028011202812194824,0.04916876554489136,0.07032632827758789,0.0914839506149292,0.11264151334762573,0.13379907608032227,0.1549566388130188,0.17611423134803772,0.19727182388305664,0.21842938661575317,0.2395869493484497,0.26074454188346863,0.28190213441848755,0.3030596971511841,0.3242172598838806,0.34537485241889954,0.36653244495391846,0.387690007686615,0.4088475704193115,0.43000516295433044,0.45116275548934937,0.4723203182220459,0.49347788095474243,0.514635443687439,0.5357930660247803,0.5569506287574768,0.5781081914901733,0.5992658138275146,0.6204233765602112,0.6415809392929077],"_type":"histogram"},"gradients/mlp_extractor.policy_net.2.weight":{"_type":"histogram","values":[6,2,17,4,5,4,13,10,5,7,18,8,11,5,4,13,16,16,23,44,34,34,48,61,75,53,85,173,144,210,317,572,539,333,246,154,164,95,61,64,57,62,25,31,46,28,19,13,12,7,9,9,10,13,9,6,5,12,2,3,2,11,5,7],"bins":[-0.0015694982139393687,-0.0015204765368252993,-0.0014714548597112298,-0.0014224331825971603,-0.001373411389067769,-0.0013243897119536996,-0.0012753680348396301,-0.0012263463577255607,-0.0011773246806114912,-0.0011283028870821,-0.0010792812099680305,-0.001030259532853961,-0.0009812378557398915,-0.0009322161204181612,-0.0008831944433040917,-0.0008341727079823613,-0.0007851510308682919,-0.0007361293537542224,-0.000687107618432492,-0.0006380859413184226,-0.0005890642059966922,-0.0005400425288826227,-0.0004910208517685533,-0.0004419991746544838,-0.00039297749754041433,-0.00034395570401102304,-0.0002949340268969536,-0.0002459123497828841,-0.00019689067266881466,-0.0001478689955547452,-9.884720202535391e-05,-4.982552491128445e-05,-8.03731381893158e-07,4.8217945732176304e-05,9.723962284624577e-05,0.00014626141637563705,0.00019528309348970652,0.000244304770603776,0.00029332644771784544,0.0003423481248319149,0.0003913699183613062,0.00044039159547537565,0.0004894132725894451,0.0005384349497035146,0.000587456626817584,0.0006364783621393144,0.0006855000392533839,0.0007345217745751143,0.0007835434516891837,0.0008325651288032532,0.0008815868641249835,0.000930608541239053,0.0009796302765607834,0.0010286519536748528,0.0010776736307889223,0.0011266953079029918,0.0011757169850170612,0.0012247387785464525,0.001273760455660522,0.0013227821327745914,0.001371803809888661,0.0014208254870027304,0.0014698472805321217,0.0015188689576461911,0.0015678906347602606]},"solar_capacity":3009.3927738066463,"parameters/mlp_extractor.value_net.0.bias":{"values":[1,0,0,1,0,1,1,0,0,1,2,2,1,3,1,2,0,2,2,0,0,1,0,0,0,2,1,1,1,1,0,1,0,0,0,0,0,0,1,0,2,0,1,0,0,0,0,2,0,2,2,2,4,3,4,6,1,1,1,1,1,0,1,1],"bins":[-0.09440778195858002,-0.09158879518508911,-0.0887698084115982,-0.0859508216381073,-0.0831318348646164,-0.08031284809112549,-0.07749386131763458,-0.07467488199472427,-0.07185589522123337,-0.06903690844774246,-0.06621792167425156,-0.06339893490076065,-0.060579948127269745,-0.05776096135377884,-0.05494197830557823,-0.052122991532087326,-0.04930400475859642,-0.046485017985105515,-0.04366603121161461,-0.040847048163414,-0.038028061389923096,-0.03520907461643219,-0.032390087842941284,-0.02957110106945038,-0.026752114295959473,-0.023933127522468567,-0.02111414074897766,-0.018295161426067352,-0.015476174652576447,-0.01265718787908554,-0.009838201105594635,-0.007019214332103729,-0.0042002275586128235,-0.0013812407851219177,0.001437745988368988,0.004256732761859894,0.0070757195353507996,0.009894706308841705,0.012713685631752014,0.01553267240524292,0.018351659178733826,0.02117064595222473,0.023989632725715637,0.026808619499206543,0.02962760627269745,0.032446593046188354,0.03526557609438896,0.03808456286787987,0.04090354964137077,0.04372253641486168,0.046541523188352585,0.04936050623655319,0.0521794930100441,0.054998479783535004,0.05781746655702591,0.060636453330516815,0.06345544010400772,0.06627442687749863,0.06909340620040894,0.07191239297389984,0.07473137974739075,0.07755036652088165,0.08036935329437256,0.08318834006786346,0.08600732684135437],"_type":"histogram"},"gradients/value_net.weight":{"bins":[-1288.5313720703125,-1248.2647705078125,-1207.998291015625,-1167.731689453125,-1127.4652099609375,-1087.1986083984375,-1046.93212890625,-1006.66552734375,-966.39892578125,-926.1324462890625,-885.8658447265625,-845.5993041992188,-805.332763671875,-765.0662231445312,-724.7996215820312,-684.5330810546875,-644.2665405273438,-604,-563.7334594726562,-523.4668579101562,-483.2003173828125,-442.93377685546875,-402.667236328125,-362.40069580078125,-322.1341552734375,-281.8675537109375,-241.60107421875,-201.33447265625,-161.06787109375,-120.8013916015625,-80.5347900390625,-40.268310546875,-0.001708984375,40.264892578125,80.5313720703125,120.7979736328125,161.064453125,201.3310546875,241.59765625,281.8641357421875,322.1307373046875,362.39727783203125,402.663818359375,442.93035888671875,483.1968994140625,523.4634399414062,563.7300415039062,603.99658203125,644.2631225585938,684.5296630859375,724.7962036132812,765.0628051757812,805.329345703125,845.5958862304688,885.8624267578125,926.1290283203125,966.3955078125,1006.662109375,1046.9287109375,1087.1951904296875,1127.4617919921875,1167.728271484375,1207.994873046875,1248.2613525390625,1288.5279541015625],"_type":"histogram","values":[33,0,0,0,0,0,0,0,0,0,0,0,0,0,0,0,0,0,0,0,0,0,0,0,0,0,0,0,0,0,0,0,0,0,0,0,0,0,0,0,0,0,0,0,0,0,0,0,0,0,0,0,0,0,0,0,0,0,0,0,0,0,0,31]},"gradients/mlp_extractor.value_net.0.weight":{"_type":"histogram","values":[1,0,0,0,0,1,0,0,0,2,1,0,0,3,2,2,2,2,2,2,4,3,3,11,10,19,23,28,87,427,83,36,17,10,9,10,7,1,2,0,0,0,5,0,0,3,0,0,3,2,1,2,0,2,3,0,0,0,0,0,0,0,0,1],"bins":[-3.7868540287017822,-3.6593902111053467,-3.531926155090332,-3.4044623374938965,-3.276998519897461,-3.1495347023010254,-3.02207088470459,-2.894606828689575,-2.7671430110931396,-2.639679193496704,-2.5122151374816895,-2.384751319885254,-2.2572875022888184,-2.129823684692383,-2.0023598670959473,-1.8748958110809326,-1.747431993484497,-1.6199681758880615,-1.492504358291626,-1.3650403022766113,-1.2375764846801758,-1.1101126670837402,-0.9826486110687256,-0.85518479347229,-0.7277209758758545,-0.600257158279419,-0.4727933406829834,-0.34532928466796875,-0.2178654670715332,-0.09040164947509766,0.03706240653991699,0.16452622413635254,0.2919902801513672,0.41945409774780273,0.5469179153442383,0.6743819713592529,0.8018457889556885,0.929309606552124,1.0567736625671387,1.1842374801635742,1.3117012977600098,1.4391651153564453,1.5666289329528809,1.6940929889678955,1.821556806564331,1.9490206241607666,2.0764846801757812,2.203948497772217,2.3314123153686523,2.458876132965088,2.5863399505615234,2.713804006576538,2.8412678241729736,2.968731641769409,3.096195697784424,3.2236595153808594,3.351123332977295,3.4785871505737305,3.606050968170166,3.7335150241851807,3.860978841781616,3.9884426593780518,4.115906715393066,4.243370532989502,4.3708343505859375]},"parameters/value_net.weight":{"_type":"histogram","values":[1,1,0,1,1,2,2,3,4,3,4,6,1,1,1,0,0,0,0,0,0,0,0,0,0,0,0,0,0,0,0,0,0,0,0,0,0,0,0,0,0,0,0,0,0,0,0,0,3,3,7,3,5,2,2,1,1,2,2,1,0,0,0,1],"bins":[-0.6770913004875183,-0.6549920439720154,-0.6328927874565125,-0.6107935309410095,-0.5886942744255066,-0.5665950179100037,-0.5444958209991455,-0.5223965644836426,-0.5002973079681396,-0.47819802165031433,-0.4560987651348114,-0.43399953842163086,-0.41190028190612793,-0.389801025390625,-0.36770176887512207,-0.34560251235961914,-0.3235032558441162,-0.3014039993286133,-0.27930474281311035,-0.2572054862976074,-0.2351062297821045,-0.21300700306892395,-0.19090774655342102,-0.1688084602355957,-0.14670926332473755,-0.12461000680923462,-0.10251075029373169,-0.08041149377822876,-0.05831223726272583,-0.0362129807472229,-0.01411372423171997,0.007985532283782959,0.03008478879928589,0.05218404531478882,0.07428330183029175,0.09638255834579468,0.11848181486129761,0.14058107137680054,0.16268032789230347,0.1847795844078064,0.20687884092330933,0.22897803783416748,0.2510773241519928,0.2731765806674957,0.29527580738067627,0.3173750638961792,0.33947432041168213,0.36157357692718506,0.383672833442688,0.4057720899581909,0.42787134647369385,0.4499706029891968,0.4720698595046997,0.49416911602020264,0.5162683725357056,0.5383676290512085,0.5604668855667114,0.5825661420822144,0.6046653985977173,0.6267645955085754,0.6488638520240784,0.6709631085395813,0.6930623650550842,0.7151616215705872,0.7372608780860901]},"risk_penalty":0.5710841748647222,"gradients/mlp_extractor.policy_net.0.weight":{"_type":"histogram","values":[1,0,0,0,0,2,0,0,0,2,1,1,0,3,2,0,2,7,2,2,8,7,10,24,26,68,551,48,31,10,1,6,2,2,4,1,2,0,1,1,0,1,0,0,0,0,0,0,0,2,0,0,0,0,0,0,0,0,0,0,0,0,0,1],"bins":[-0.012356363236904144,-0.011888980865478516,-0.011421597562730312,-0.010954215191304684,-0.01048683188855648,-0.010019449517130852,-0.009552067145705223,-0.00908468384295702,-0.008617300540208817,-0.008149918168783188,-0.007682535331696272,-0.007215152494609356,-0.006747770123183727,-0.006280387286096811,-0.005813004449009895,-0.005345621611922979,-0.004878238774836063,-0.004410856403410435,-0.0039434731006622314,-0.003476090729236603,-0.0030087074264883995,-0.002541325055062771,-0.0020739417523145676,-0.001606559380888939,-0.0011391770094633102,-0.000671793706715107,-0.0002044113352894783,0.000262971967458725,0.0007303543388843536,0.001197737641632557,0.0016651200130581856,0.002132503315806389,0.0025998856872320175,0.003067268058657646,0.0035346513614058495,0.004002033732831478,0.004469417035579681,0.00493679940700531,0.005404182709753513,0.005871565081179142,0.006338948383927345,0.006806330755352974,0.007273713126778603,0.007741096429526806,0.008208478800952435,0.008675862103700638,0.009143244475126266,0.00961062777787447,0.010078010149300098,0.010545393452048302,0.01101277582347393,0.011480158194899559,0.011947541497647762,0.012414923869073391,0.012882307171821594,0.013349689543247223,0.013817071914672852,0.014284455217421055,0.014751838520169258,0.015219220891594887,0.015686603263020515,0.016153985634446144,0.016621369868516922,0.01708875223994255,0.01755613461136818]},"parameters/mlp_extractor.policy_net.2.bias":{"bins":[-9.290735761169344e-05,-9.066367783816531e-05,-8.841999806463718e-05,-8.617631101515144e-05,-8.393263124162331e-05,-8.168895146809518e-05,-7.944527169456705e-05,-7.720159192103893e-05,-7.49579121475108e-05,-7.271423237398267e-05,-7.047054532449692e-05,-6.82268655509688e-05,-6.598318577744067e-05,-6.373950600391254e-05,-6.149582623038441e-05,-5.9252142818877473e-05,-5.7008463045349345e-05,-5.4764783271821216e-05,-5.252109986031428e-05,-5.027742008678615e-05,-4.803374031325802e-05,-4.5790056901751086e-05,-4.354637712822296e-05,-4.130269735469483e-05,-3.905901394318789e-05,-3.6815334169659764e-05,-3.4571654396131635e-05,-3.2327974622603506e-05,-3.0084294849075377e-05,-2.7840607799589634e-05,-2.5596928026061505e-05,-2.3353248252533376e-05,-2.1109572116984054e-05,-1.8865892343455926e-05,-1.6622212569927797e-05,-1.4378532796399668e-05,-1.2134845746913925e-05,-9.891165973385796e-06,-7.647486199857667e-06,-5.403806426329538e-06,-3.1601266528014094e-06,-9.164432412944734e-07,1.3272365322336555e-06,3.5709163057617843e-06,5.81459971726872e-06,8.058279490796849e-06,1.0301959264324978e-05,1.2545642675831914e-05,1.4789322449360043e-05,1.703300222288817e-05,1.9276685634395108e-05,2.1520365407923236e-05,2.3764045181451365e-05,2.6007726773968898e-05,2.825140836648643e-05,3.049508814001456e-05,3.273876791354269e-05,3.4982451325049624e-05,3.722613109857775e-05,3.946981451008469e-05,4.171349428361282e-05,4.3957174057140946e-05,4.6200853830669075e-05,4.844453724217601e-05,5.068821701570414e-05],"_type":"histogram","values":[1,0,0,0,0,0,0,0,0,1,0,0,0,0,0,0,0,0,0,0,0,0,0,0,0,0,1,0,1,1,2,0,3,2,2,1,3,4,4,2,7,2,5,2,3,1,2,2,1,1,2,1,2,1,0,2,0,1,0,0,0,0,0,1]},"gradients/mlp_extractor.value_net.2.bias":{"bins":[-0.9326533079147339,-0.9018696546554565,-0.871086061000824,-0.8403024077415466,-0.8095188140869141,-0.7787351608276367,-0.7479515671730042,-0.7171679139137268,-0.6863843202590942,-0.6556006669998169,-0.6248170137405396,-0.594033420085907,-0.5632498264312744,-0.5324661731719971,-0.5016825199127197,-0.47089892625808716,-0.4401153028011322,-0.40933167934417725,-0.3785480260848999,-0.34776443243026733,-0.31698077917099,-0.2861971855163574,-0.2554135322570801,-0.2246299386024475,-0.19384628534317017,-0.1630626916885376,-0.13227903842926025,-0.10149544477462769,-0.07071179151535034,-0.03992819786071777,-0.00914454460144043,0.02163904905319214,0.05242270231246948,0.08320635557174683,0.1139899492263794,0.14477360248565674,0.1755571961402893,0.20634084939956665,0.23712444305419922,0.26790809631347656,0.29869168996810913,0.3294753432273865,0.36025893688201904,0.3910425901412964,0.42182618379592896,0.4526098370552063,0.48339343070983887,0.5141770839691162,0.5449607372283936,0.5757443308830261,0.6065279245376587,0.637311577796936,0.6680952310562134,0.698878824710846,0.7296624183654785,0.7604460716247559,0.7912297248840332,0.8220133185386658,0.8527969717979431,0.8835805654525757,0.914364218711853,0.9451478123664856,0.9759314656257629,1.0067150592803955,1.0374987125396729],"_type":"histogram","values":[1,0,0,0,0,0,1,0,1,0,2,0,1,0,2,2,3,1,1,1,3,1,1,0,2,1,0,1,4,4,0,1,3,1,3,2,4,3,4,2,0,0,1,1,0,1,0,0,0,0,1,1,0,1,0,0,1,0,0,0,0,0,0,1]},"hydro_capacity":2262.2689336378767,"gradients/action_net.bias":{"bins":[-0.10578969120979309,-0.10463213175535202,-0.10347456485033035,-0.10231700539588928,-0.10115943849086761,-0.10000187903642654,-0.09884431958198547,-0.0976867526769638,-0.09652919322252274,-0.09537163376808167,-0.09421406686306,-0.09305650740861893,-0.09189894795417786,-0.09074138104915619,-0.08958382159471512,-0.08842626214027405,-0.08726869523525238,-0.08611112833023071,-0.08495356887578964,-0.08379600942134857,-0.0826384425163269,-0.08148088306188583,-0.08032332360744476,-0.0791657567024231,-0.07800819724798203,-0.07685063779354095,-0.07569307088851929,-0.07453551143407822,-0.07337795197963715,-0.07222038507461548,-0.07106282562017441,-0.06990526616573334,-0.06874769926071167,-0.06759013235569,-0.06643256545066833,-0.06527501344680786,-0.0641174465417862,-0.06295987963676453,-0.061802320182323456,-0.060644760727882385,-0.059487197548151016,-0.05832963436841965,-0.05717207491397858,-0.05601451173424721,-0.05485694855451584,-0.05369938537478447,-0.0525418221950531,-0.05138426274061203,-0.05022669956088066,-0.04906913638114929,-0.04791157692670822,-0.04675401374697685,-0.04559645056724548,-0.044438887387514114,-0.043281324207782745,-0.042123764753341675,-0.040966201573610306,-0.03980863839387894,-0.038651078939437866,-0.0374935157597065,-0.03633595257997513,-0.03517838940024376,-0.03402082622051239,-0.03286326676607132,-0.03170570358633995],"_type":"histogram","values":[1,0,0,0,0,0,0,0,0,0,0,0,0,0,0,0,0,0,0,0,0,0,0,0,0,0,0,0,0,0,0,0,0,0,0,0,0,1,0,0,0,0,0,1,0,0,0,0,0,0,0,0,0,0,0,0,0,0,0,0,0,0,0,2]},"gradients/mlp_extractor.policy_net.2.bias":{"bins":[-0.0015697303460910916,-0.0015332151670008898,-0.001496699987910688,-0.0014601846924051642,-0.0014236695133149624,-0.0013871543342247605,-0.0013506391551345587,-0.0013141239760443568,-0.001277608796954155,-0.0012410935014486313,-0.0012045783223584294,-0.0011680631432682276,-0.0011315479641780257,-0.0010950327850878239,-0.0010585174895823002,-0.0010220023104920983,-0.0009854871314018965,-0.0009489719523116946,-0.0009124567150138319,-0.00087594153592363,-0.0008394262986257672,-0.0008029111195355654,-0.0007663959404453635,-0.0007298807031475008,-0.0006933655240572989,-0.000656850344967097,-0.0006203351076692343,-0.0005838199285790324,-0.0005473047494888306,-0.0005107895703986287,-0.00047427427489310503,-0.0004377590958029032,-0.0004012438002973795,-0.00036472862120717764,-0.0003282134421169758,-0.0002916981466114521,-0.00025518296752125025,-0.0002186677884310484,-0.00018215260934084654,-0.00014563737204298377,-0.00010912219295278192,-7.260701386258006e-05,-3.609177656471729e-05,4.234025254845619e-07,3.693858161568642e-05,7.345381891354918e-05,0.00010996899800375104,0.0001464842353016138,0.00018299941439181566,0.00021951459348201752,0.0002560298307798803,0.00029254500987008214,0.00032906021806411445,0.00036557542625814676,0.0004020906053483486,0.00043860581354238093,0.00047512102173641324,0.000511636259034276,0.0005481514381244779,0.0005846666172146797,0.0006211817963048816,0.0006576970336027443,0.0006942122126929462,0.000730727449990809,0.0007672426290810108],"_type":"histogram","values":[1,0,1,0,0,0,0,0,1,0,0,0,0,2,0,0,0,0,0,0,1,0,0,1,0,2,0,0,0,1,1,0,0,2,0,2,4,1,0,3,2,6,6,4,2,5,2,2,1,2,1,0,1,1,0,2,1,0,0,1,1,0,0,1]}}