{"gradients/mlp_extractor.value_net.0.bias":{"bins":[-2.1573405265808105,-2.0736608505249023,-1.989980936050415,-1.9063012599945068,-1.8226213455200195,-1.7389416694641113,-1.6552618741989136,-1.5715820789337158,-1.487902283668518,-1.4042224884033203,-1.3205426931381226,-1.2368628978729248,-1.1531832218170166,-1.0695034265518188,-0.9858236312866211,-0.9021438360214233,-0.8184640407562256,-0.7347842454910278,-0.6511044502258301,-0.5674246549606323,-0.48374485969543457,-0.40006518363952637,-0.3163853883743286,-0.23270559310913086,-0.14902591705322266,-0.06534600257873535,0.01833367347717285,0.10201358795166016,0.18569326400756836,0.26937317848205566,0.35305285453796387,0.43673276901245117,0.5204126834869385,0.6040923595428467,0.687772274017334,0.7714519500732422,0.8551318645477295,0.9388115406036377,1.022491455078125,1.1061711311340332,1.1898510456085205,1.2735307216644287,1.3572105169296265,1.4408903121948242,1.5245699882507324,1.6082497835159302,1.691929578781128,1.7756093740463257,1.8592891693115234,1.9429689645767212,2.026648759841919,2.1103286743164062,2.1940083503723145,2.2776880264282227,2.361367702484131,2.445047616958618,2.5287275314331055,2.6124072074890137,2.696086883544922,2.779766798019409,2.8634464740753174,2.9471263885498047,3.030806064605713,3.1144859790802,3.1981656551361084],"_type":"histogram","values":[1,1,2,1,0,0,2,1,2,0,1,0,0,0,3,3,2,2,1,2,2,1,2,0,0,1,0,0,2,0,1,0,1,1,2,2,1,0,2,1,1,1,3,3,0,2,2,1,1,1,0,0,1,0,1,0,0,0,2,0,0,0,0,2]},"parameters/mlp_extractor.policy_net.2.weight":{"values":[2,0,1,0,0,5,3,4,4,12,9,11,22,24,40,35,35,55,59,61,76,95,111,126,129,124,171,180,175,165,161,163,165,179,164,165,153,141,134,129,124,103,76,80,84,59,53,37,42,26,25,25,24,8,12,8,11,4,2,1,2,0,0,2],"bins":[-0.6105725765228271,-0.591497004032135,-0.5724213719367981,-0.553345799446106,-0.5342702269554138,-0.5151945948600769,-0.49611902236938477,-0.47704342007637024,-0.4579678177833557,-0.4388922452926636,-0.41981664299964905,-0.4007410407066345,-0.3816654682159424,-0.36258986592292786,-0.34351426362991333,-0.3244386911392212,-0.30536308884620667,-0.28628748655319214,-0.2672119140625,-0.24813631176948547,-0.22906070947647095,-0.2099851369857788,-0.19090953469276428,-0.17183393239974976,-0.15275835990905762,-0.1336827576160431,-0.11460715532302856,-0.09553158283233643,-0.07645595073699951,-0.05738037824630737,-0.038304805755615234,-0.01922917366027832,-0.00015360116958618164,0.018921971321105957,0.03799760341644287,0.05707317590713501,0.07614874839782715,0.09522438049316406,0.1142999529838562,0.13337555527687073,0.15245115756988525,0.1715267300605774,0.19060233235359192,0.20967793464660645,0.22875350713729858,0.2478291094303131,0.26690471172332764,0.2859802842140198,0.3050558865070343,0.32413148880004883,0.34320706129074097,0.3622826635837555,0.38135826587677,0.40043383836746216,0.4195094406604767,0.4385850429534912,0.45766061544418335,0.4767362177371979,0.4958118200302124,0.5148873925209045,0.5339630246162415,0.5530385971069336,0.5721141695976257,0.5911898016929626,0.6102653741836548],"_type":"histogram"},"gradients/mlp_extractor.policy_net.2.bias":{"values":[2,0,2,0,1,1,0,1,1,2,0,1,2,0,1,3,0,3,0,2,1,1,2,2,2,0,2,2,2,0,3,2,2,0,2,0,1,0,1,2,2,0,3,0,1,1,2,0,0,0,0,0,0,2,0,0,0,0,0,1,1,0,1,1],"bins":[-0.0013557042693719268,-0.0013078298652544618,-0.0012599554611369967,-0.0012120811734348536,-0.0011642067693173885,-0.0011163323651999235,-0.0010684579610824585,-0.0010205835569649935,-0.0009727092110551894,-0.0009248348651453853,-0.0008769604610279202,-0.0008290860569104552,-0.0007812116527929902,-0.0007333373068831861,-0.0006854629027657211,-0.000637588556855917,-0.000589714152738452,-0.0005418397486209869,-0.0004939654027111828,-0.0004460909985937178,-0.0003982166526839137,-0.0003503422485664487,-0.00030246784444898367,-0.00025459344033151865,-0.00020671903621405363,-0.00015884474851191044,-0.00011097034439444542,-6.30959402769804e-05,-1.5221536159515381e-05,3.265286795794964e-05,8.052715566009283e-05,0.00012840155977755785,0.00017627584747970104,0.00022415025159716606,0.0002720246557146311,0.0003198989434167743,0.0003677733475342393,0.0004156477516517043,0.00046352215576916933,0.0005113965598866343,0.0005592708475887775,0.0006071452517062426,0.0006550196558237076,0.0007028940599411726,0.0007507684640586376,0.0007986428099684417,0.0008465172140859067,0.0008943915599957108,0.0009422659641131759,0.0009901403682306409,0.001038014655932784,0.001085889060050249,0.0011337634641677141,0.0011816378682851791,0.0012295122724026442,0.0012773866765201092,0.0013252610806375742,0.0013731353683397174,0.0014210097724571824,0.0014688841765746474,0.0015167585806921124,0.0015646328683942556,0.0016125072725117207,0.0016603816766291857,0.0017082560807466507],"_type":"histogram"},"revenue":8.03436928350445e+06,"parameters/mlp_extractor.value_net.2.bias":{"_type":"histogram","values":[2,0,0,0,1,2,4,2,0,3,2,4,5,2,2,3,2,1,0,0,0,0,0,0,0,0,0,0,0,0,0,0,0,0,0,0,0,0,0,0,0,0,1,2,2,2,3,5,3,1,2,2,1,1,1,0,0,1,0,1,0,0,0,1],"bins":[-0.0960521250963211,-0.0927467942237854,-0.0894414633512497,-0.08613613247871399,-0.08283080160617828,-0.07952547073364258,-0.07622013986110687,-0.07291480153799057,-0.06960947066545486,-0.06630413979291916,-0.06299880892038345,-0.05969347804784775,-0.05638814717531204,-0.05308281630277634,-0.04977748170495033,-0.04647215083241463,-0.04316681995987892,-0.039861489087343216,-0.03655615821480751,-0.033250823616981506,-0.0299454927444458,-0.026640161871910095,-0.02333483099937439,-0.020029500126838684,-0.01672416925430298,-0.013418838381767273,-0.010113507509231567,-0.006808169186115265,-0.0035028383135795593,-0.00019750744104385376,0.003107823431491852,0.006413154304027557,0.009718485176563263,0.013023816049098969,0.016329146921634674,0.01963447779417038,0.022939808666706085,0.02624513953924179,0.029550477862358093,0.0328558087348938,0.036161139607429504,0.03946647047996521,0.042771801352500916,0.04607713222503662,0.04938246309757233,0.05268779397010803,0.055993128567934036,0.05929845944046974,0.06260378658771515,0.06590911746025085,0.06921444833278656,0.07251978665590286,0.07582511752843857,0.07913044840097427,0.08243577927350998,0.08574111014604568,0.08904644101858139,0.0923517718911171,0.0956571102142334,0.0989624410867691,0.10226777195930481,0.10557310283184052,0.10887843370437622,0.11218376457691193,0.11548909544944763]},"_timestamp":1.7479999493338954e+09,"parameters/mlp_extractor.value_net.0.bias":{"_type":"histogram","values":[1,0,2,0,0,0,1,1,1,2,0,1,3,3,1,2,3,2,1,5,1,1,1,1,0,0,0,0,1,0,0,1,1,0,0,0,0,0,0,0,0,1,0,1,0,1,1,0,1,0,3,2,3,2,1,2,1,2,3,2,0,0,0,2],"bins":[-0.16097243130207062,-0.15633274614810944,-0.15169306099414825,-0.14705339074134827,-0.14241370558738708,-0.1377740204334259,-0.13313433527946472,-0.12849465012550354,-0.12385497242212296,-0.11921529471874237,-0.11457560956478119,-0.10993592441082001,-0.10529623925685883,-0.10065656155347824,-0.09601687639951706,-0.09137719869613647,-0.08673751354217529,-0.08209782838821411,-0.07745815068483353,-0.07281846553087234,-0.06817878782749176,-0.06353910267353058,-0.0588994175195694,-0.05425973981618881,-0.04962005466222763,-0.04498036950826645,-0.040340691804885864,-0.03570100665092468,-0.0310613214969635,-0.02642163634300232,-0.02178196609020233,-0.01714228093624115,-0.012502580881118774,-0.007862895727157593,-0.003223210573196411,0.0014164596796035767,0.006056144833564758,0.01069582998752594,0.015335515141487122,0.019975192844867706,0.024614877998828888,0.02925456315279007,0.033894240856170654,0.038533926010131836,0.04317361116409302,0.0478132888674736,0.052452974021434784,0.05709265172481537,0.06173233687877655,0.06637202203273773,0.07101169973611832,0.0756513848900795,0.08029106259346008,0.08493074774742126,0.08957043290138245,0.09421011805534363,0.09884979575872421,0.1034894734621048,0.10812915861606598,0.11276884377002716,0.11740852892398834,0.12204820662736893,0.1266878843307495,0.1313275694847107,0.13596725463867188]},"parameters/mlp_extractor.value_net.0.weight":{"values":[1,1,0,1,1,0,3,3,3,4,5,8,10,9,8,9,10,12,11,15,11,21,15,17,16,19,25,27,13,22,19,19,17,17,17,16,13,17,11,11,9,5,7,9,8,2,4,0,3,1,1,1,2,1,0,0,0,1,0,0,0,0,0,1],"bins":[-0.5847576856613159,-0.5639852285385132,-0.5432127714157104,-0.5224403142929077,-0.5016677975654602,-0.48089534044265747,-0.46012288331985474,-0.439350426197052,-0.41857796907424927,-0.39780548214912415,-0.3770330250263214,-0.3562605381011963,-0.33548808097839355,-0.3147156238555908,-0.2939431667327881,-0.27317067980766296,-0.25239822268486023,-0.2316257655620575,-0.21085327863693237,-0.19008082151412964,-0.1693083643913269,-0.14853587746620178,-0.12776342034339905,-0.10699096322059631,-0.08621847629547119,-0.06544601917266846,-0.04467356204986572,-0.02390110492706299,-0.003128647804260254,0.017643868923187256,0.03841632604598999,0.059188783168792725,0.07996124029159546,0.1007336974143982,0.12150615453720093,0.14227861166000366,0.16305112838745117,0.1838235855102539,0.20459604263305664,0.22536849975585938,0.2461409568786621,0.26691344380378723,0.28768590092658997,0.3084583580493927,0.3292308449745178,0.35000330209732056,0.3707757592201233,0.3915482461452484,0.41232070326805115,0.4330931603908539,0.453865647315979,0.47463810443878174,0.4954105615615845,0.5161830186843872,0.5369554758071899,0.5577279329299927,0.5785004496574402,0.5992729067802429,0.6200453639030457,0.6408178210258484,0.6615902781486511,0.6823627948760986,0.7031352519989014,0.7239077091217041,0.7446801662445068],"_type":"histogram"},"battery_capacity":5613.36599274168,"parameters/mlp_extractor.policy_net.0.weight":{"bins":[-0.6009325981140137,-0.5828007459640503,-0.5646688938140869,-0.5465370416641235,-0.5284051895141602,-0.5102733969688416,-0.4921415448188782,-0.4740096926689148,-0.4558778405189514,-0.43774598836898804,-0.41961413621902466,-0.40148231387138367,-0.3833504617214203,-0.3652186095714569,-0.3470867872238159,-0.32895493507385254,-0.31082308292388916,-0.2926912307739258,-0.2745593786239624,-0.2564275562763214,-0.23829570412635803,-0.22016385197639465,-0.20203202962875366,-0.18390017747879028,-0.1657683253288269,-0.14763647317886353,-0.12950462102890015,-0.11137279868125916,-0.09324097633361816,-0.07510912418365479,-0.056977272033691406,-0.03884541988372803,-0.020713508129119873,-0.002581655979156494,0.015550196170806885,0.033682048320770264,0.05181390047073364,0.06994572281837463,0.08807754516601562,0.106209397315979,0.12434124946594238,0.14247310161590576,0.16060495376586914,0.17873677611351013,0.1968686282634735,0.2150004804134369,0.23313230276107788,0.25126415491104126,0.26939600706100464,0.287527859210968,0.3056597113609314,0.3237915337085724,0.34192338585853577,0.36005523800849915,0.37818706035614014,0.3963189125061035,0.4144507646560669,0.4325826168060303,0.45071446895599365,0.46884629130363464,0.486978143453598,0.505109965801239,0.5232418179512024,0.5413736701011658,0.5595055222511292],"_type":"histogram","values":[1,0,0,1,0,0,0,1,2,0,1,2,0,3,3,4,6,4,6,5,14,10,8,16,22,11,16,22,21,15,14,11,23,21,20,18,21,20,25,18,21,13,9,7,16,10,7,5,9,12,6,2,0,5,2,0,1,0,1,0,0,0,0,1]},"net_profit":8.034203233265766e+06,"gradients/value_net.bias":{"_type":"histogram","values":[1],"bins":[-1235.895751953125,-1235.895751953125]},"parameters/action_net.bias":{"bins":[-0.0007410043617710471,-0.0006512529798783362,-0.0005615015979856253,-0.00047175021609291434,-0.0003819988342002034,-0.0002922474523074925,-0.00020249607041478157,-0.00011274468852207065,-2.2993306629359722e-05,6.67580752633512e-05,0.00015650945715606213,0.00024626089725643396,0.000336012220941484,0.000425763544626534,0.0005155149847269058,0.0006052664248272777,0.0006950177485123277,0.0007847690721973777,0.0008745205122977495,0.0009642719523981214,0.0010540232760831714,0.0011437745997682214,0.001233526156283915,0.001323277479968965,0.001413028803654015,0.001502780127339065,0.001592531451024115,0.0016822830075398088,0.0017720343312248588,0.0018617856549099088,0.0019515372114256024,0.0020412886515259743,0.0021310397423803806,0.0022207910660654306,0.0023105423897504807,0.0024002939462661743,0.0024900452699512243,0.0025797965936362743,0.002669548150151968,0.002759299473837018,0.002849050797522068,0.002938802121207118,0.003028553444892168,0.0031183050014078617,0.0032080563250929117,0.0032978076487779617,0.0033875592052936554,0.0034773105289787054,0.0035670618526637554,0.0036568131763488054,0.0037465645000338554,0.003836316056549549,0.003926067613065243,0.004015818703919649,0.004105570260435343,0.004195321351289749,0.004285072907805443,0.0043748244643211365,0.004464575555175543,0.0045543271116912365,0.004644078202545643,0.0047338297590613365,0.00482358131557703,0.0049133324064314365,0.00500308396294713],"_type":"histogram","values":[1,0,0,0,0,0,0,0,0,0,0,0,0,0,1,0,0,0,0,0,0,0,0,0,0,0,0,0,1,0,0,0,0,0,0,0,0,0,0,0,0,0,0,0,1,0,0,0,0,0,0,0,0,0,0,0,0,0,0,0,0,0,0,1]},"gradients/value_net.weight":{"bins":[-1235.84326171875,-1197.222900390625,-1158.6026611328125,-1119.9822998046875,-1081.362060546875,-1042.74169921875,-1004.1214599609375,-965.5010986328125,-926.880859375,-888.260498046875,-849.6402587890625,-811.0198974609375,-772.3995971679688,-733.779296875,-695.1589965820312,-656.5386962890625,-617.9183959960938,-579.298095703125,-540.6777954101562,-502.0574951171875,-463.43719482421875,-424.81689453125,-386.19659423828125,-347.5762939453125,-308.9559326171875,-270.33563232421875,-231.71533203125,-193.0950927734375,-154.4747314453125,-115.8544921875,-77.234130859375,-38.6138916015625,0.0064697265625,38.6268310546875,77.2470703125,115.867431640625,154.4876708984375,193.1080322265625,231.728271484375,270.34857177734375,308.9688720703125,347.5892333984375,386.20953369140625,424.829833984375,463.45013427734375,502.0704345703125,540.6907348632812,579.31103515625,617.9313354492188,656.5516357421875,695.1719360351562,733.792236328125,772.4125366210938,811.0328369140625,849.6531982421875,888.2734375,926.893798828125,965.5140380859375,1004.1343994140625,1042.754638671875,1081.375,1119.9952392578125,1158.6156005859375,1197.23583984375,1235.856201171875],"_type":"histogram","values":[29,0,0,0,0,0,0,0,0,0,0,0,0,0,0,0,0,0,0,0,0,0,0,0,0,0,0,0,0,0,0,0,0,0,0,0,0,0,0,0,0,0,0,0,0,0,0,0,0,0,0,0,0,0,0,0,0,0,0,0,0,0,0,35]},"gradients/log_std":{"bins":[-0.393941730260849,-0.38676968216896057,-0.37959763407707214,-0.37242555618286133,-0.3652535080909729,-0.3580814599990845,-0.35090941190719604,-0.3437373638153076,-0.3365653157234192,-0.3293932378292084,-0.32222118973731995,-0.3150491416454315,-0.3078770935535431,-0.3007050156593323,-0.29353296756744385,-0.2863609194755554,-0.279188871383667,-0.27201682329177856,-0.26484477519989014,-0.2576727271080017,-0.2505006492137909,-0.24332860112190247,-0.23615655303001404,-0.22898449003696442,-0.221812441945076,-0.21464039385318756,-0.20746833086013794,-0.2002962827682495,-0.19312423467636108,-0.18595217168331146,-0.17878012359142303,-0.1716080605983734,-0.16443602740764618,-0.15726397931575775,-0.15009191632270813,-0.1429198682308197,-0.13574780523777008,-0.12857575714588165,-0.12140370905399323,-0.1142316460609436,-0.10705959796905518,-0.09988754987716675,-0.09271548688411713,-0.0855434387922287,-0.07837139070034027,-0.07119932770729065,-0.06402727961540222,-0.0568552240729332,-0.04968316853046417,-0.04251111298799515,-0.03533905744552612,-0.028167009353637695,-0.02099495381116867,-0.013822898268699646,-0.006650850176811218,0.0005212053656578064,0.007693260908126831,0.014865316450595856,0.022037368267774582,0.029209420084953308,0.03638147562742233,0.04355353116989136,0.050725582987070084,0.05789763480424881,0.06506969034671783],"_type":"histogram","values":[1,0,0,0,0,0,0,0,0,0,0,0,0,0,0,0,0,0,0,0,0,0,0,0,0,0,0,0,0,0,0,1,0,0,0,1,0,0,0,0,0,0,0,0,0,0,0,0,0,0,0,1,0,0,0,0,0,0,0,0,0,0,0,1]},"parameters/value_net.bias":{"_type":"histogram","values":[1],"bins":[0.3591725826263428,0.3591725826263428]},"gradients/mlp_extractor.policy_net.0.bias":{"bins":[-0.0017371349968016148,-0.0016712152864784002,-0.0016052955761551857,-0.0015393758658319712,-0.0014734561555087566,-0.001407536445185542,-0.0013416167348623276,-0.001275697024539113,-0.0012097773142158985,-0.001143857603892684,-0.0010779378935694695,-0.001012018183246255,-0.0009460983565077186,-0.000880178646184504,-0.0008142589358612895,-0.000748339225538075,-0.0006824195152148604,-0.0006164998048916459,-0.0005505800945684314,-0.00048466038424521685,-0.0004187406739220023,-0.0003528209635987878,-0.00028690125327557325,-0.00022098154295235872,-0.00015506171621382236,-8.914200589060783e-05,-2.3222295567393303e-05,4.269741475582123e-05,0.00010861712507903576,0.0001745368354022503,0.00024045654572546482,0.00030637625604867935,0.0003722959663718939,0.0004382156766951084,0.0005041353870183229,0.0005700550973415375,0.000635974807664752,0.0007018945179879665,0.0007678142283111811,0.0008337339386343956,0.0008996536489576101,0.0009655734756961465,0.001031493186019361,0.0010974128963425756,0.00116333260666579,0.0012292523169890046,0.0012951720273122191,0.0013610917376354337,0.0014270114479586482,0.0014929311582818627,0.0015588508686050773,0.0016247705789282918,0.0016906902892515063,0.0017566101159900427,0.0018225298263132572,0.0018884495366364717,0.0019543692469596863,0.002020288957282901,0.0020862086676061153,0.00215212837792933,0.0022180480882525444,0.002283967798575759,0.0023498875088989735,0.002415807219222188,0.0024817269295454025],"_type":"histogram","values":[1,0,0,2,0,0,0,0,0,2,2,2,1,1,3,1,1,2,0,1,3,3,1,1,1,2,1,2,1,2,3,1,0,1,5,1,2,1,4,2,2,0,1,2,0,0,1,0,0,1,0,0,0,0,0,0,0,0,0,0,0,0,0,1]},"gradients/mlp_extractor.value_net.2.weight":{"values":[2,0,2,3,3,5,8,8,11,11,16,18,27,19,23,27,28,31,60,79,81,99,98,118,123,130,112,152,233,171,218,138,159,229,149,220,153,117,134,117,108,101,100,86,69,54,39,30,23,24,25,22,13,18,11,9,10,5,5,4,3,3,1,1],"bins":[-1.3219512701034546,-1.2805906534194946,-1.2392300367355347,-1.1978694200515747,-1.1565089225769043,-1.1151483058929443,-1.0737876892089844,-1.0324270725250244,-0.9910664558410645,-0.9497058391571045,-0.9083452224731445,-0.8669846653938293,-0.8256240487098694,-0.7842634320259094,-0.7429028749465942,-0.7015422582626343,-0.6601816415786743,-0.6188210248947144,-0.5774604082107544,-0.5360998511314392,-0.49473923444747925,-0.4533786177635193,-0.4120180606842041,-0.37065744400024414,-0.3292968273162842,-0.2879362106323242,-0.24657559394836426,-0.2052149772644043,-0.1638544797897339,-0.12249386310577393,-0.08113324642181396,-0.039772629737854004,0.0015878677368164062,0.04294848442077637,0.08430910110473633,0.1256697177886963,0.16703033447265625,0.20839083194732666,0.24975144863128662,0.2911120653152466,0.33247268199920654,0.3738332986831665,0.41519391536712646,0.45655447244644165,0.4979150891304016,0.5392757058143616,0.5806362628936768,0.6219968795776367,0.6633574962615967,0.7047181129455566,0.7460787296295166,0.7874392867088318,0.8287999033927917,0.8701605200767517,0.9115210771560669,0.9528816938400269,0.9942423105239868,1.0356029272079468,1.0769635438919067,1.1183241605758667,1.159684658050537,1.201045274734497,1.242405891418457,1.283766508102417,1.325127124786377],"_type":"histogram"},"_step":10251,"parameters/action_net.weight":{"bins":[-0.008783489465713501,-0.008448072709143162,-0.008112656883895397,-0.007777240127325058,-0.007441823836416006,-0.007106407545506954,-0.006770990788936615,-0.006435574498027563,-0.006100158207118511,-0.005764741450548172,-0.00542932515963912,-0.005093908868730068,-0.004758492112159729,-0.004423075821250677,-0.004087659530341625,-0.003752242773771286,-0.003416826482862234,-0.0030814101919531822,-0.002745993435382843,-0.002410577144473791,-0.0020751608535647392,-0.0017397440969944,-0.0014043278060853481,-0.0010689115151762962,-0.000733494758605957,-0.00039807893335819244,-6.266217678785324e-05,0.00027275457978248596,0.0006081704050302505,0.0009435871616005898,0.001279003918170929,0.0016144197434186935,0.0019498364999890327,0.002285253256559372,0.0026206690818071365,0.0029560858383774757,0.003291502594947815,0.0036269184201955795,0.003962335176765919,0.004297751933336258,0.0046331677585840225,0.004968584515154362,0.005304000806063414,0.0056394170969724655,0.005974833853542805,0.006310250144451857,0.0066456664353609085,0.006981083191931248,0.0073164994828403,0.0076519157737493515,0.00798733253031969,0.00832274928689003,0.008658165112137794,0.008993581868708134,0.009328998625278473,0.009664414450526237,0.009999831207096577,0.010335247963666916,0.01067066378891468,0.01100608054548502,0.011341496370732784,0.011676913127303123,0.012012329883873463,0.012347745709121227,0.012683162465691566],"_type":"histogram","values":[2,2,0,1,0,2,3,2,3,5,3,1,7,9,4,5,7,9,7,4,10,13,11,19,9,11,15,16,14,8,13,15,11,12,6,7,4,5,3,3,3,9,9,4,3,2,1,1,2,2,2,0,0,0,0,0,0,0,0,0,0,0,0,1]},"wind_capacity":1926.0688104572575,"gradients/action_net.bias":{"bins":[-0.21034017205238342,-0.2044125199317932,-0.198484867811203,-0.1925572156906128,-0.18662957847118378,-0.18070192635059357,-0.17477427423000336,-0.16884662210941315,-0.16291898488998413,-0.15699133276939392,-0.1510636806488037,-0.1451360285282135,-0.1392083764076233,-0.13328072428703308,-0.12735307216644287,-0.12142543494701385,-0.11549778282642365,-0.10957013070583344,-0.10364248603582382,-0.09771483391523361,-0.091787189245224,-0.08585953712463379,-0.07993188500404358,-0.07400423288345337,-0.06807658076286316,-0.06214894354343414,-0.05622129142284393,-0.05029363930225372,-0.04436598718166351,-0.0384383350610733,-0.03251069784164429,-0.026583045721054077,-0.02065540850162506,-0.014727756381034851,-0.008800104260444641,-0.002872467041015625,0.003055185079574585,0.008982837200164795,0.014910489320755005,0.020838141441345215,0.02676577866077423,0.03269343078136444,0.03862108290195465,0.04454873502254486,0.05047638714313507,0.056404031813144684,0.062331683933734894,0.0682593286037445,0.07418698072433472,0.08011463284492493,0.08604227751493454,0.09196992963552475,0.09789757430553436,0.10382522642612457,0.10975287854671478,0.11568053066730499,0.1216081753373146,0.12753582000732422,0.13346347212791443,0.13939112424850464,0.14531877636909485,0.15124642848968506,0.15717406570911407,0.16310171782970428,0.1690293699502945],"_type":"histogram","values":[1,0,0,0,1,0,0,1,0,0,0,0,0,0,0,0,0,0,0,0,0,0,0,0,0,0,0,0,0,0,0,0,0,0,0,0,0,0,0,0,0,0,0,0,0,0,0,0,0,0,0,0,0,1,0,0,0,0,0,0,0,0,0,1]},"gradients/mlp_extractor.value_net.2.bias":{"_type":"histogram","values":[1,0,0,0,0,1,0,0,0,0,0,1,0,0,0,1,1,0,1,1,1,2,1,3,2,0,3,1,1,2,1,1,3,1,0,2,2,1,2,6,2,0,3,1,1,1,1,1,1,1,5,0,0,0,1,0,0,0,2,0,1,0,0,1],"bins":[-1.4105808734893799,-1.3698476552963257,-1.3291144371032715,-1.2883813381195068,-1.2476481199264526,-1.2069149017333984,-1.1661816835403442,-1.12544846534729,-1.0847153663635254,-1.0439821481704712,-1.003248929977417,-0.9625157713890076,-0.9217825531959534,-0.881049394607544,-0.8403161764144897,-0.7995830178260803,-0.7588497996330261,-0.7181165814399719,-0.6773834228515625,-0.6366502046585083,-0.5959170460700989,-0.5551838278770447,-0.5144506692886353,-0.47371745109558105,-0.43298423290252686,-0.39225101470947266,-0.351517915725708,-0.3107846975326538,-0.2700514793395996,-0.2293182611465454,-0.18858516216278076,-0.14785194396972656,-0.10711872577667236,-0.06638550758361816,-0.025652289390563965,0.015080809593200684,0.05581402778625488,0.09654724597930908,0.13728046417236328,0.17801356315612793,0.21874678134918213,0.25947999954223633,0.3002132177352905,0.34094637632369995,0.38167959451675415,0.4224127531051636,0.4631459712982178,0.5038791298866272,0.5446123480796814,0.5853455662727356,0.626078724861145,0.6668119430541992,0.7075451016426086,0.7482783198356628,0.7890114784240723,0.8297446966171265,0.8704779148101807,0.9112110733985901,0.9519442319869995,0.9926774501800537,1.033410668373108,1.074143886566162,1.1148769855499268,1.155610203742981,1.1963434219360352]},"step":10239,"gradients/mlp_extractor.policy_net.2.weight":{"values":[2,1,0,1,2,0,2,2,5,4,2,7,5,7,9,11,15,10,17,26,24,28,40,56,67,61,85,106,117,133,177,239,300,284,312,320,293,244,186,146,119,78,102,83,61,52,46,37,36,20,17,16,19,16,10,13,6,3,0,6,3,3,2,2],"bins":[-0.0014050363097339869,-0.001364496536552906,-0.0013239566469565034,-0.0012834167573601007,-0.00124287698417902,-0.0012023372109979391,-0.0011617973214015365,-0.0011212574318051338,-0.001080717658624053,-0.0010401778854429722,-0.0009996379958465695,-0.0009590981644578278,-0.0009185583330690861,-0.0008780185016803443,-0.0008374786702916026,-0.0007969388389028609,-0.0007563990075141191,-0.0007158591761253774,-0.0006753193447366357,-0.000634779513347894,-0.0005942396819591522,-0.0005536998505704105,-0.0005131600191816688,-0.000472620187792927,-0.0004320803564041853,-0.0003915405832231045,-0.00035100069362670183,-0.0003104608040302992,-0.00026992103084921837,-0.00022938125766813755,-0.0001888413680717349,-0.00014830147847533226,-0.00010776182170957327,-6.722204852849245e-05,-2.6682158932089806e-05,1.385773066431284e-05,5.439750384539366e-05,9.493727702647448e-05,0.00013547716662287712,0.00017601705621927977,0.00021655682940036058,0.0002570966607891023,0.00029763649217784405,0.0003381763235665858,0.0003787161549553275,0.00041925598634406924,0.000459795817732811,0.0005003356491215527,0.0005408754805102944,0.0005814153118990362,0.0006219551432877779,0.0006624949746765196,0.0007030348060652614,0.0007435746374540031,0.0007841144688427448,0.0008246543002314866,0.0008651941316202283,0.00090573396300897,0.0009462737943977118,0.0009868135675787926,0.0010273534571751952,0.0010678933467715979,0.0011084331199526787,0.0011489728931337595,0.0011895127827301621],"_type":"histogram"},"reward":80.34202929317927,"solar_capacity":4557.86782889247,"_runtime":31.1359667,"parameters/mlp_extractor.policy_net.2.bias":{"_type":"histogram","values":[2,1,0,0,0,0,0,0,0,2,0,2,1,1,0,0,1,2,1,0,4,0,3,0,2,2,0,0,1,5,4,6,1,3,4,1,0,2,0,0,1,2,1,1,0,1,1,1,2,1,0,0,0,0,0,0,0,0,0,0,1,0,0,1],"bins":[-7.112527237040922e-05,-6.872244557598606e-05,-6.63196187815629e-05,-6.391679198713973e-05,-6.151396519271657e-05,-5.91111347603146e-05,-5.6708307965891436e-05,-5.4305477533489466e-05,-5.19026507390663e-05,-4.949982394464314e-05,-4.709699715021998e-05,-4.4694170355796814e-05,-4.229134356137365e-05,-3.988851676695049e-05,-3.748568633454852e-05,-3.5082859540125355e-05,-3.268003274570219e-05,-3.027720595127903e-05,-2.7874379156855866e-05,-2.5471548724453896e-05,-2.3068721930030733e-05,-2.066589513560757e-05,-1.8263068341184407e-05,-1.5860241546761245e-05,-1.3457414752338082e-05,-1.1054584319936112e-05,-8.651761163491756e-06,-6.248927093110979e-06,-3.846100298687816e-06,-1.4432735042646527e-06,9.595532901585102e-07,3.362380084581673e-06,5.765206879004836e-06,8.168033673427999e-06,1.0570860467851162e-05,1.2973687262274325e-05,1.5376514056697488e-05,1.777934085112065e-05,2.0182174921501428e-05,2.2584998077945784e-05,2.4987828510347754e-05,2.7390655304770917e-05,2.979348209919408e-05,3.219630889361724e-05,3.4599135688040406e-05,3.700196248246357e-05,3.940479291486554e-05,4.18076197092887e-05,4.4210446503711864e-05,4.661327329813503e-05,4.901610009255819e-05,5.141893052496016e-05,5.382175731938332e-05,5.6224584113806486e-05,5.862741090822965e-05,6.103023770265281e-05,6.343306449707597e-05,6.583589129149914e-05,6.82387180859223e-05,7.064154488034546e-05,7.304437895072624e-05,7.54472057451494e-05,7.785003253957257e-05,8.025285933399573e-05,8.265568612841889e-05]},"parameters/log_std":{"values":[1,0,0,0,0,0,0,0,0,0,0,0,0,0,0,0,0,0,1,0,0,0,0,0,0,0,0,1,0,0,0,0,0,0,0,0,0,0,0,0,0,0,0,0,0,0,0,0,0,0,0,0,0,0,0,0,0,0,0,1,0,0,0,1],"bins":[-0.01834544911980629,-0.01797121949493885,-0.01759698987007141,-0.017222760245203972,-0.016848530620336533,-0.016474300995469093,-0.016100071370601654,-0.015725841745734215,-0.015351612120866776,-0.014977382495999336,-0.014603152871131897,-0.014228923246264458,-0.013854692690074444,-0.013480463065207005,-0.013106233440339565,-0.012732003815472126,-0.012357774190604687,-0.011983544565737247,-0.011609314940869808,-0.011235085316002369,-0.01086085569113493,-0.01048662606626749,-0.010112396441400051,-0.009738166816532612,-0.009363936260342598,-0.008989706635475159,-0.00861547701060772,-0.00824124738574028,-0.007867017760872841,-0.007492788136005402,-0.007118558511137962,-0.006744328886270523,-0.0063700987957417965,-0.005995869170874357,-0.005621639546006918,-0.005247409921139479,-0.004873180296272039,-0.0044989506714046,-0.004124721046537161,-0.0037504914216697216,-0.0033762617968022823,-0.0030020312406122684,-0.002627801615744829,-0.00225357199087739,-0.0018793423660099506,-0.0015051127411425114,-0.001130883116275072,-0.0007566534914076328,-0.00038242386654019356,-8.194241672754288e-06,0.000366035383194685,0.0007402650080621243,0.0011144946329295635,0.00148872472345829,0.0018629543483257294,0.0022371839731931686,0.002611413598060608,0.002985643222928047,0.0033598728477954865,0.0037341027054935694,0.004108332097530365,0.004482561722397804,0.004856791812926531,0.00523102143779397,0.005605251062661409],"_type":"histogram"},"gradients/mlp_extractor.policy_net.0.weight":{"_type":"histogram","values":[2,0,0,4,0,0,1,0,0,5,5,5,3,5,10,2,5,7,6,11,16,12,24,27,22,24,97,30,36,29,17,11,4,7,15,11,12,9,10,6,4,1,3,6,0,0,2,0,1,3,0,0,0,0,0,0,0,0,0,0,0,0,0,2],"bins":[-0.002605702495202422,-0.0025068228133022785,-0.0024079433642327785,-0.002309063682332635,-0.002210184233263135,-0.0021113045513629913,-0.0020124251022934914,-0.0019135454203933477,-0.001814665854908526,-0.0017157862894237041,-0.0016169067239388824,-0.0015180271584540606,-0.001419147476553917,-0.0013202679110690951,-0.0012213883455842733,-0.0011225087800994515,-0.0010236292146146297,-0.000924749649129808,-0.0008258700836449862,-0.0007269905181601644,-0.0006281109526753426,-0.0005292312707751989,-0.00043035182170569897,-0.00033147213980555534,-0.00023259245790541172,-0.00013371300883591175,-3.483332693576813e-05,6.404612213373184e-05,0.00016292580403387547,0.00026180525310337543,0.00036068493500351906,0.00045956438407301903,0.0005584440659731627,0.0006573237478733063,0.0007562031969428062,0.0008550828788429499,0.0009539623279124498,0.0010528420098125935,0.0011517214588820934,0.001250601140782237,0.001349480589851737,0.0014483602717518806,0.0015472399536520243,0.0016461194027215242,0.0017449990846216679,0.0018438786501064897,0.0019427582155913115,0.002041637897491455,0.002140517346560955,0.002239396795630455,0.0023382764775305986,0.0024371561594307423,0.0025360356085002422,0.002634915290400386,0.0027337949723005295,0.0028326744213700294,0.0029315538704395294,0.003030433552339673,0.0031293132342398167,0.0032281926833093166,0.0033270723652094603,0.0034259518142789602,0.003524831496179104,0.003623710945248604,0.0037225906271487474]},"parameters/mlp_extractor.value_net.2.weight":{"_type":"histogram","values":[1,0,0,1,0,2,2,1,3,4,13,13,18,20,30,28,34,36,56,68,71,81,75,107,105,116,133,110,172,145,139,173,169,163,181,161,154,155,133,161,122,116,99,95,99,92,82,59,55,50,48,35,28,14,19,14,11,10,5,3,2,2,0,2],"bins":[-0.7002453207969666,-0.6794393062591553,-0.6586332321166992,-0.6378272175788879,-0.6170212030410767,-0.5962151288986206,-0.5754091143608093,-0.554603099822998,-0.533797025680542,-0.5129909515380859,-0.49218493700027466,-0.4713789224624634,-0.4505728781223297,-0.42976683378219604,-0.40896081924438477,-0.3881547749042511,-0.36734873056411743,-0.34654268622398376,-0.3257366418838501,-0.3049306273460388,-0.28412458300590515,-0.2633185386657715,-0.2425125241279602,-0.22170647978782654,-0.20090043544769287,-0.1800944209098816,-0.15928834676742554,-0.13848233222961426,-0.11767631769180298,-0.09687024354934692,-0.07606422901153564,-0.05525815486907959,-0.03445214033126831,-0.013646125793457031,0.0071599483489990234,0.027965962886810303,0.04877203702926636,0.06957805156707764,0.09038406610488892,0.11119014024734497,0.13199615478515625,0.15280219912528992,0.17360824346542358,0.19441425800323486,0.21522030234336853,0.2360263466835022,0.2568323612213135,0.27763840556144714,0.2984444499015808,0.3192504942417145,0.34005653858184814,0.3608625531196594,0.3816685974597931,0.40247464179992676,0.42328065633773804,0.4440867006778717,0.46489274501800537,0.48569878935813904,0.5065048336982727,0.527310848236084,0.54811692237854,0.5689229369163513,0.5897289514541626,0.6105350255966187,0.6313410401344299]},"risk_penalty":0.607895677,"parameters/value_net.weight":{"bins":[-0.6750756502151489,-0.6544379591941833,-0.633800208568573,-0.6131625175476074,-0.5925247669219971,-0.5718870759010315,-0.5512493252754211,-0.5306116342544556,-0.5099738836288452,-0.48933619260787964,-0.4686984717845917,-0.4480607509613037,-0.42742305994033813,-0.40678533911705017,-0.3861476182937622,-0.36550989747047424,-0.3448721766471863,-0.3242344558238983,-0.30359673500061035,-0.2829590141773224,-0.2623212933540344,-0.24168360233306885,-0.22104588150978088,-0.20040816068649292,-0.17977043986320496,-0.159132719039917,-0.13849502801895142,-0.11785727739334106,-0.09721958637237549,-0.07658183574676514,-0.05594414472579956,-0.03530639410018921,-0.014668643474578857,0.005969047546386719,0.02660679817199707,0.047244489192962646,0.067882239818573,0.08851993083953857,0.10915768146514893,0.1297953724861145,0.15043309330940247,0.17107081413269043,0.1917085349559784,0.21234625577926636,0.23298394680023193,0.2536216676235199,0.27425938844680786,0.2948971092700958,0.3155348300933838,0.33617255091667175,0.3568102717399597,0.3774479925632477,0.39808571338653564,0.4187234044075012,0.4393611252307892,0.45999884605407715,0.4806365668773651,0.5012742877006531,0.5219119787216187,0.542549729347229,0.5631874203681946,0.5838251709938049,0.6044628620147705,0.6251006126403809,0.6457383036613464],"_type":"histogram","values":[2,0,2,1,4,2,2,2,5,3,3,4,0,4,0,1,0,0,0,0,0,0,0,0,0,0,0,0,0,0,0,0,0,0,0,0,0,0,0,0,0,0,0,0,0,0,0,0,0,0,0,2,3,3,2,3,4,5,1,1,1,2,0,2]},"cumulative_reward":836506.0583260778,"battery_energy":5613.36599274168,"_wandb":{"runtime":31},"gradients/action_net.weight":{"values":[1,3,0,1,4,2,1,2,7,5,2,8,5,7,3,5,13,6,11,10,7,6,9,11,6,3,9,8,5,5,5,8,5,10,7,13,7,6,7,2,4,12,9,9,10,9,3,4,2,5,2,2,4,2,1,1,1,3,0,0,0,1,0,1],"bins":[-0.1657915711402893,-0.1602218598127365,-0.1546521633863449,-0.14908245205879211,-0.14351274073123932,-0.13794304430484772,-0.13237333297729492,-0.12680363655090332,-0.12123392522335052,-0.11566421389579773,-0.11009451001882553,-0.10452480614185333,-0.09895509481430054,-0.09338539093732834,-0.08781568706035614,-0.08224597573280334,-0.07667627185583115,-0.07110656797885895,-0.06553685665130615,-0.059967152774333954,-0.054397448897361755,-0.04882773756980896,-0.04325803369283676,-0.03768832981586456,-0.03211861848831177,-0.026548922061920166,-0.02097921073436737,-0.015409499406814575,-0.009839802980422974,-0.004270091652870178,0.0012996196746826172,0.006869316101074219,0.012439027428627014,0.01800873875617981,0.02357843518257141,0.029148146510124207,0.034717857837677,0.040287554264068604,0.0458572655916214,0.051426976919174194,0.056996673345565796,0.06256638467311859,0.06813608855009079,0.07370579242706299,0.07927550375461578,0.08484520763158798,0.09041491150856018,0.09598462283611298,0.10155432671308517,0.10712403059005737,0.11269374191761017,0.11826344579458237,0.12383314967155457,0.12940286099910736,0.13497257232666016,0.14054226875305176,0.14611198008060455,0.15168169140815735,0.15725138783454895,0.16282109916210175,0.16839079558849335,0.17396050691604614,0.17953021824359894,0.18509991466999054,0.19066962599754333],"_type":"histogram"},"hydro_capacity":1818.5752948341192,"parameters/mlp_extractor.policy_net.0.bias":{"_type":"histogram","values":[1,0,0,0,0,0,0,0,0,0,0,0,0,0,1,0,0,0,0,1,0,1,2,0,1,0,0,0,1,3,1,1,3,3,0,1,2,2,3,3,0,5,4,0,1,2,3,4,1,1,1,0,1,2,0,0,1,0,1,2,0,1,2,2],"bins":[-0.00014719423779752105,-0.00014375628961715847,-0.0001403183414367959,-0.0001368803932564333,-0.00013344244507607073,-0.00013000449689570814,-0.00012656654871534556,-0.00012312860053498298,-0.00011969064507866278,-0.0001162526968983002,-0.00011281474871793762,-0.00010937680053757504,-0.00010593885235721245,-0.00010250090417684987,-9.906294872052968e-05,-9.56250005401671e-05,-9.218705235980451e-05,-8.874910417944193e-05,-8.531115599907935e-05,-8.187320781871676e-05,-7.843525963835418e-05,-7.49973114579916e-05,-7.155936327762902e-05,-6.812141509726644e-05,-6.468346691690385e-05,-6.124551873654127e-05,-5.780757055617869e-05,-5.436961509985849e-05,-5.093166691949591e-05,-4.749371873913333e-05,-4.4055770558770746e-05,-4.0617822378408164e-05,-3.717987419804558e-05,-3.3741926017683e-05,-3.0303977837320417e-05,-2.6866029656957835e-05,-2.3428081476595253e-05,-1.999013329623267e-05,-1.6552177839912474e-05,-1.3114229659549892e-05,-9.67628147918731e-06,-6.2383332988247275e-06,-2.8003851184621453e-06,6.375630619004369e-07,4.075511242263019e-06,7.513459422625601e-06,1.0951407602988183e-05,1.4389359421329573e-05,1.7827307601692155e-05,2.1265255782054737e-05,2.470320396241732e-05,2.814115578075871e-05,3.157910396112129e-05,3.501705214148387e-05,3.8455000321846455e-05,4.189294850220904e-05,4.533089668257162e-05,4.87688448629342e-05,5.220679668127559e-05,5.5644744861638173e-05,5.9082693042000756e-05,6.252064486034214e-05,6.595859304070473e-05,6.939654122106731e-05,7.283448940142989e-05]},"gradients/mlp_extractor.value_net.0.weight":{"values":[2,2,4,2,0,0,4,2,4,3,5,2,3,5,10,10,7,7,12,12,12,21,25,24,20,76,8,20,20,25,17,12,15,10,10,11,7,3,11,6,8,5,7,7,1,7,4,3,4,2,2,0,3,0,2,0,0,0,4,0,0,0,0,4],"bins":[-3.236010789871216,-3.1104910373687744,-2.984971523284912,-2.8594517707824707,-2.7339320182800293,-2.608412265777588,-2.4828927516937256,-2.357372999191284,-2.231853485107422,-2.1063337326049805,-1.980813980102539,-1.8552943468093872,-1.7297747135162354,-1.604254961013794,-1.478735327720642,-1.3532155752182007,-1.2276959419250488,-1.1021761894226074,-0.9766566753387451,-0.8511369228363037,-0.7256171703338623,-0.60009765625,-0.4745779037475586,-0.3490581512451172,-0.22353863716125488,-0.09801888465881348,0.02750086784362793,0.15302062034606934,0.27854013442993164,0.40405988693237305,0.5295796394348145,0.6550991535186768,0.7806186676025391,0.9061384201049805,1.0316579341888428,1.1571776866912842,1.2826974391937256,1.408216953277588,1.5337367057800293,1.6592564582824707,1.784776210784912,1.9102957248687744,2.035815477371216,2.1613352298736572,2.2868547439575195,2.412374496459961,2.5378942489624023,2.6634137630462646,2.788933515548706,2.9144530296325684,3.0399727821350098,3.165492534637451,3.2910122871398926,3.416532039642334,3.5420515537261963,3.6675713062286377,3.7930908203125,3.9186105728149414,4.044130325317383,4.169650077819824,4.295169830322266,4.420689582824707,4.54620885848999,4.671728610992432,4.797248363494873],"_type":"histogram"}}